77573 10
Harry 0.335936 0.160472 0.638187 0.436747 -0.116893 0.094209 0.540955 0.002577 0.540310 0.625303
Potter 0.062631 0.544736 0.743173 0.431135 0.680840 -0.091350 0.390572 0.401427 0.262323 0.085745
and 0.461109 0.733816 0.634247 0.183614 -0.265816 0.271723 0.531457 0.300264 0.024950 0.130173
the 0.385817 0.112588 0.395287 0.680917 0.504128 0.073846 -0.195425 -0.142313 0.578944 0.505797
Sorcerers 0.353878 0.113091 0.130272 0.196247 0.218250 0.269047 0.258365 0.090608 0.094183 0.727735
Stone 0.756641 0.186599 -0.032664 0.295934 0.091901 0.562383 0.850767 0.103335 0.222704 -0.027518
CHAPTER 0.110543 0.424693 0.097228 0.027888 0.023316 -0.051336 0.412476 0.052744 0.299312 0.638238
ONE 0.841100 0.915202 0.050305 0.669257 0.515344 0.017521 0.515142 0.468932 0.371873 0.728284
THE 0.739134 -0.037195 0.087702 0.381681 -0.031823 0.472282 0.443932 0.407560 0.063918 0.520231
BOY 0.080697 0.540816 0.345612 0.691246 0.623413 0.710730 0.578302 0.211455 0.339080 0.673282
WHO 0.586549 0.213530 0.166638 0.379898 0.256238 0.745851 0.254772 0.490676 0.586766 0.108183
LIVED 0.636949 0.406262 -0.015594 0.710247 0.242153 0.698711 -0.030866 0.159406 0.518574 0.505863
Mr 0.379398 0.063360 0.089778 -0.006557 0.756814 0.511035 0.130850 -0.125622 0.544445 0.599706
Mrs -0.130302 0.074518 0.737242 0.396025 0.686951 0.626533 0.457257 0.212458 0.011017 -0.118338
Dursley -0.144117 0.233969 0.658017 0.006848 0.092516 -0.212132 0.649034 0.540873 0.418397 0.437683
of 0.042367 0.326889 0.673829 -0.285686 0.485305 0.456922 0.261295 0.369923 0.385357 0.256832
number 0.115163 0.542044 0.250415 0.245415 0.238525 -0.044351 0.054853 0.408175 0.054476 0.499868
four 0.254816 0.423680 0.006171 0.303358 -0.102241 0.284026 0.301304 0.540189 0.473634 -0.017584
Privet 0.385819 0.513677 0.397593 0.059436 0.135934 -0.079831 0.694956 0.612834 -0.129426 0.079743
Drive -0.024662 0.725088 -0.090463 0.602159 0.422704 0.607248 0.255652 -0.149721 -0.026654 0.502762
were 0.670338 0.185456 -0.214076 0.217515 0.245619 0.140874 0.143700 0.642994 0.443841 0.345229
proud 0.147131 0.711454 0.002017 0.336210 0.023882 0.042512 0.320251 0.308511 0.159860 0.517458
to 0.673672 0.456888 0.163037 0.121741 0.272718 -0.078977 -0.086914 0.655252 0.290557 -0.036939
say 0.293231 -0.184592 0.692121 0.560900 0.544375 -0.188919 0.509416 0.562238 0.159835 -0.016020
that 0.522863 0.426713 0.212158 0.270763 0.544071 0.351350 0.110461 -0.022234 0.563136 0.148699
they 0.232005 0.091800 0.682333 0.121687 0.071591 0.412809 0.430101 0.024480 0.279398 0.281114
perfectly 0.364936 0.076834 0.142550 0.508425 0.698926 0.094652 0.003411 0.539926 0.580718 -0.161156
normal 0.666289 -0.143329 0.745271 0.091501 0.417621 0.027332 0.323190 0.185968 -0.071846 0.525241
thank -0.010898 0.338565 0.478872 0.156953 0.763385 0.222084 0.377642 -0.044684 0.066980 0.604002
you 0.093901 0.264132 0.538462 0.403830 0.445414 0.074890 0.646960 0.394036 -0.029823 -0.136381
very 0.234132 0.069954 0.228832 -0.173041 0.797008 -0.087243 0.597626 0.302525 0.068916 0.631993
much 0.500539 -0.256016 0.325325 0.301769 0.367807 0.367346 0.198500 0.094776 0.380680 0.524351
They 0.353613 0.203982 0.064237 0.021323 0.640873 0.470113 0.474342 0.510968 -0.127859 0.121877
last 0.079637 0.579190 0.609403 0.119528 -0.119185 0.379604 0.333829 0.425090 0.345836 0.077035
people 0.535090 -0.143065 0.454164 -0.060124 0.625684 0.277502 0.217865 -0.084081 0.644209 0.365324
youd -0.082598 0.054864 0.335679 -0.155460 0.548726 0.284216 0.328470 0.574789 0.302775 0.628129
expect 0.442512 -0.151733 -0.075021 0.450478 0.701948 0.074852 0.095018 0.472657 0.523915 0.294131
be 0.213770 0.404559 0.641577 0.134880 0.559354 -0.060012 -0.110841 0.769339 -0.088616 0.133453
involved 0.223244 -0.311088 0.476328 0.399231 0.545419 0.393700 -0.142078 0.298088 0.253743 0.664817
in 0.437804 0.006613 0.318835 0.085345 0.185529 0.547100 0.599568 0.046136 0.100352 0.258243
anything 0.286887 0.117441 0.043066 0.309212 0.282022 0.491263 0.230564 0.355147 0.622007 0.339007
strange 0.099388 0.455162 0.017484 0.369894 0.397239 0.629298 0.535886 0.257640 0.090208 -0.112161
or 0.280471 0.400242 0.551367 0.454587 0.329395 0.575731 0.479030 -0.054419 -0.079451 0.208083
mysterious 0.766287 0.504424 0.137023 0.450769 0.410533 -0.050707 0.513880 0.559109 -0.282684 -0.131938
because 0.004624 0.021769 -0.195538 0.877955 0.829679 0.266529 0.141668 -0.058374 0.499028 0.208833
just 0.559141 0.557518 0.653237 0.091721 -0.160362 -0.048997 -0.075579 0.444473 0.350041 0.549199
didnt 0.390455 0.400141 0.292390 0.467122 0.027635 0.614650 0.152916 0.004155 0.000617 0.594487
hold 0.465414 0.095594 0.553429 -0.062827 0.248273 0.521854 0.368135 0.116985 -0.128207 0.494553
with 0.209234 0.546168 -0.180633 0.491382 0.508098 0.440743 -0.028976 0.441337 0.372441 -0.076859
such 0.329351 -0.099005 -0.062792 0.722602 0.221846 0.706264 -0.008287 0.648539 0.137756 0.134892
nonsense 0.618261 0.362223 0.064255 0.122434 0.383530 -0.081885 0.663277 0.028220 0.171699 0.479712
was -0.030488 0.345486 -0.050203 0.274806 0.630460 -0.098554 0.705488 0.175608 0.043478 0.686013
director -0.145367 0.551233 0.308817 0.036601 0.814164 0.067307 0.281850 0.201624 -0.049063 0.643770
a 0.355249 0.343990 0.222148 0.228965 0.726874 -0.063571 0.414719 0.115103 0.021449 0.257903
firm 0.675148 0.017874 0.327716 0.468353 0.087255 0.686191 -0.032817 0.763210 0.131525 -0.209784
called 0.014555 -0.034651 0.587936 0.233996 -0.004638 0.633333 0.652842 0.248281 0.287190 0.248845
Grunnings 0.157555 0.605939 0.679727 0.053766 0.515089 0.563261 0.675532 0.542614 0.239548 0.670741
which 0.063562 0.095277 0.150147 -0.062913 0.047028 0.349707 0.850145 0.422017 0.255312 0.379384
made 0.059982 0.254889 0.403614 0.308223 0.088503 0.477704 -0.011474 0.366346 0.682467 0.280164
drills -0.123916 0.394544 0.629495 0.026351 0.443343 0.116120 0.036268 0.092285 0.703852 0.446477
He 0.231637 0.303189 0.217374 0.204123 0.539010 0.187163 0.713267 0.387263 -0.218009 0.224577
big 0.332377 0.343456 0.574006 -0.093243 0.414806 -0.121042 0.307369 0.414337 0.202968 0.623234
beefy 0.031380 -0.068943 0.523581 0.606708 0.121066 0.651094 0.732145 0.234637 0.123418 -0.064789
man 0.061775 0.673167 0.284794 0.056955 0.645146 0.341568 0.434887 0.121604 0.524891 -0.015060
hardly 0.638048 -0.117788 0.389878 0.487992 0.068930 -0.125399 0.326250 0.060578 0.633312 0.535828
any 0.465928 0.354591 0.277155 0.044149 0.669051 0.527429 0.536903 0.280126 0.259934 0.372971
neck 0.632507 0.037187 0.547888 0.354841 0.233030 0.379706 0.253807 0.711192 -0.197681 0.001208
although 0.512471 0.626821 -0.061063 0.416886 0.497789 0.132100 -0.113720 0.430050 -0.195070 0.742920
he 0.466322 -0.025666 -0.054874 -0.130119 0.380936 0.770233 0.113652 0.151970 0.521779 0.602964
did 0.428652 0.632117 -0.172264 0.582197 0.058649 0.528416 0.288045 -0.014638 0.377852 0.147655
have -0.120406 0.640403 0.534139 0.682660 0.117251 0.684997 0.351000 0.228702 -0.203176 0.143012
large 0.132845 0.436587 0.633648 -0.156042 0.290223 -0.012296 0.369403 0.668150 0.312077 0.164772
mustache -0.160024 0.581066 0.247678 0.312773 0.491535 0.153145 0.677106 0.383348 0.544859 -0.053744
thin -0.018854 0.061083 0.680443 -0.224407 0.576882 0.693470 -0.074116 0.420283 0.615987 0.518142
blonde -0.177500 0.121167 0.648243 0.650911 0.150256 0.226034 0.603927 0.137803 0.600281 0.211056
had 0.173748 -0.143965 0.104350 0.749553 0.110391 0.057675 0.394748 0.257592 0.398838 0.801544
nearly -0.005828 0.040492 0.372609 0.172894 0.010695 0.814084 0.620237 0.287383 0.216391 0.158814
twice 0.469326 -0.054595 0.261224 0.611741 -0.082498 0.201895 0.620005 0.400028 -0.128192 0.485283
usual 0.595660 0.415915 0.515271 0.460093 0.364677 0.469431 0.311294 0.073493 0.397436 0.190906
amount -0.178001 0.506762 0.401914 0.112423 0.389385 0.155134 0.741787 0.236036 0.348030 0.116475
came 0.074073 0.599269 -0.257664 0.464911 0.391127 0.717940 -0.021416 0.613769 -0.270410 0.721645
useful 0.373021 -0.034305 0.145521 0.703548 0.479260 0.381111 -0.009411 0.305114 0.135554 0.461162
as -0.166311 0.550330 -0.093965 0.449730 0.286273 0.272775 0.506938 0.850164 -0.271124 0.442089
she 0.739367 0.365118 0.067860 0.236672 -0.009069 0.250227 0.431213 0.008787 0.082351 0.601699
spent 0.668206 0.087031 0.434247 0.293648 0.188035 0.055280 0.253561 0.636170 -0.140158 0.529598
so 0.393614 0.472168 -0.037391 0.349870 0.051742 0.367129 -0.055708 0.394261 0.587475 0.382223
her 0.507789 0.588646 0.672045 0.216262 0.112901 0.323079 0.014736 0.326195 -0.111284 0.171391
time 0.332789 0.674039 0.079296 0.305393 0.632730 -0.047345 0.532105 0.448892 0.090842 0.297942
craning 0.563860 0.477933 -0.006309 0.137618 0.461418 0.106860 0.561380 0.032603 -0.137478 0.449546
over 0.684614 0.649535 0.504032 0.555206 0.582135 -0.196856 0.174557 0.021350 -0.073763 0.545024
garden -0.134686 0.185723 0.607379 0.201845 0.444121 0.243313 0.539421 0.442930 0.038671 0.662889
fences 0.290754 0.117750 0.775431 -0.017285 0.566908 0.073028 0.486442 -0.090863 -0.007570 0.734073
spying -0.016403 -0.145636 0.128165 0.598878 0.481521 0.413270 0.733201 0.074316 0.576942 0.420328
on 0.728145 0.343897 0.622643 -0.001008 0.013015 0.270695 0.162160 0.280079 -0.028521 0.632701
neighbors -0.040438 0.134329 0.569291 0.590909 0.186391 0.215373 0.470448 0.241180 -0.001254 0.345582
The 0.536119 0.607844 0.104497 0.578095 0.174519 0.526991 0.000276 -0.129421 0.613992 -0.065137
Dursleys 0.735018 0.631173 0.300985 0.056074 0.221694 0.460539 0.234129 0.088008 0.428640 -0.066756
small 0.341426 0.485216 0.517379 0.124581 0.194229 0.603135 -0.231105 0.673906 0.158076 0.529781
son 0.520955 0.081027 -0.143551 0.500961 0.612274 0.360742 0.187044 0.285845 0.485097 0.540624
Dudley 0.599273 0.418104 0.588403 0.543635 0.577696 -0.248009 0.594656 -0.270546 0.554869 0.261673
their 0.522685 0.196949 0.612704 0.645847 0.293109 0.249250 -0.151063 0.168995 0.175147 0.665616
opinion -0.001928 0.028805 0.594892 0.704731 -0.152364 0.293778 0.479176 0.545989 0.574120 -0.013475
there 0.529931 0.368034 -0.009286 0.453818 0.533629 -0.198895 -0.061552 0.671801 -0.012428 0.683322
no -0.192332 -0.082836 0.609322 0.298865 0.541970 0.206403 0.624112 0.636791 0.540626 0.148463
finer -0.159775 0.177701 0.522896 0.471303 0.562786 0.440396 0.751333 0.206616 0.076194 0.556275
boy 0.152809 0.602494 0.204525 0.045439 0.458442 0.782140 0.143528 -0.043103 0.265607 0.254031
anywhere 0.335766 0.456418 0.564444 0.539760 0.448371 -0.254769 0.552891 0.277950 0.602472 0.260167
everything 0.514015 0.088728 -0.129987 0.016137 0.314481 0.681579 -0.005067 0.364189 0.749517 0.291395
wanted 0.358482 0.567739 0.367627 0.540532 0.188672 0.594446 0.017015 -0.195336 0.415062 0.563052
but 0.060625 0.574719 0.464749 0.112455 0.364250 0.318004 0.571889 -0.091259 0.304633 0.161965
also -0.054920 -0.133372 0.192132 0.353721 0.487669 0.733997 0.285759 0.356688 0.350595 0.489373
secret 0.624510 0.813556 0.366739 0.221967 0.034043 0.080226 0.293140 -0.051224 0.611785 0.009884
greatest 0.267739 -0.068416 0.565970 0.253564 0.601093 -0.192988 -0.127838 0.735493 0.592622 0.740233
fear 0.280051 0.252922 0.606570 0.514884 0.214889 0.337674 0.055431 -0.105608 0.027667 0.659697
somebody -0.120520 0.093630 -0.054318 0.685372 0.404588 0.641583 0.534317 0.322357 0.358894 0.288644
would 0.100483 0.543848 0.111448 0.005457 -0.021134 0.409305 -0.087581 0.690892 0.502438 0.718150
discover -0.075171 0.749549 0.527582 0.395509 0.317576 0.605058 0.085628 0.087588 0.143365 0.158019
it 0.306790 0.685136 0.083202 0.164299 0.363417 0.445662 -0.088659 0.196228 0.576579 0.413402
think 0.834989 0.563428 -0.173426 0.153392 -0.037432 0.239995 0.158016 0.843488 0.114927 0.223606
could 0.440915 0.337885 0.160915 -0.053956 0.649076 0.416070 -0.110466 0.065615 0.663837 0.596984
bear 0.331148 0.380771 0.040466 0.462326 0.236667 0.133980 0.453833 0.658974 0.284719 0.490570
if 0.291457 0.162083 0.080894 0.692736 0.054246 0.444835 0.538672 0.140125 0.214664 0.205500
anyone 0.368884 0.103561 0.194093 0.661302 0.133850 -0.010499 0.704052 0.466285 0.021097 0.467721
found 0.715812 0.586376 0.146485 0.605810 -0.086033 0.427164 0.139106 0.580940 -0.173090 0.145466
out 0.175902 0.004538 0.279151 0.449627 0.052208 0.388558 0.131712 0.426216 0.434597 0.794469
about 0.351087 -0.027948 0.615080 0.473419 0.795868 0.263467 0.111322 -0.034014 0.606773 -0.007596
Potters 0.705460 0.172440 0.059039 0.281856 0.803202 0.185485 0.229789 0.004046 -0.192279 0.867382
sister 0.773414 0.060808 0.245723 -0.077612 0.045844 0.757670 0.448658 0.643380 0.012423 0.264482
hadnt 0.349614 0.423722 0.215341 0.628521 0.075403 0.191354 0.524877 0.686004 0.186362 0.761580
met -0.089890 0.649287 0.344259 0.546733 0.254798 0.094083 0.395048 0.334128 0.716951 -0.067283
for 0.518862 -0.026512 -0.043831 -0.114874 0.739891 -0.001647 0.781969 0.462994 0.553504 0.497266
several -0.045692 0.613804 0.254432 0.167419 0.546447 0.154320 0.341911 0.383704 0.651267 0.184780
years 0.271770 0.551837 0.218095 0.262797 0.490741 0.347127 0.605499 0.487491 -0.043709 0.671404
fact 0.686783 0.145615 0.165696 0.160265 0.129769 0.350628 0.726582 -0.019825 0.668593 0.362745
pretended 0.331020 0.827612 0.252524 0.173295 -0.005143 0.375046 0.243092 0.161329 0.478666 0.026326
goodfornothing 0.610488 0.150374 0.566820 0.204261 0.607725 -0.009019 0.512492 0.136757 0.319535 0.085215
husband 0.458034 0.084387 -0.024123 0.110910 0.172306 0.531802 0.386584 0.674548 0.478920 0.123652
unDursleyish 0.130980 -0.032664 0.431239 0.152571 0.644212 0.555595 0.073479 0.535881 0.515070 0.554115
possible 0.014971 0.169419 0.168866 0.201529 0.177994 0.758284 0.559573 0.199518 0.174878 0.259355
shuddered -0.160631 -0.135328 0.723234 0.756921 0.273904 0.568542 0.167286 0.211262 0.653004 0.187972
what 0.500740 -0.134325 0.432083 0.603012 0.693469 0.100609 0.350982 0.014439 0.528011 0.364234
arrived 0.117810 -0.164349 0.452342 -0.073337 0.538127 0.700277 0.458436 0.761736 0.452240 0.447679
street 0.395433 0.575563 0.121599 0.077614 0.179623 -0.036576 -0.100501 0.020374 0.423214 0.856226
knew 0.123513 0.264316 0.839729 0.090691 0.331647 0.503262 0.082810 0.235127 0.385305 0.293636
too 0.411524 0.279524 0.822778 -0.075964 -0.077674 0.027909 0.800192 -0.007378 0.641468 -0.007599
never -0.093514 0.126776 0.747468 0.426357 -0.065714 0.256789 0.789626 -0.015225 0.408943 0.122069
even 0.492748 0.604520 0.240180 0.457522 0.298870 0.108842 0.127992 0.131898 0.365319 0.124104
seen 0.196804 0.713661 0.281857 0.193469 -0.042551 0.079685 0.221901 0.506611 0.713699 -0.043389
him -0.026209 0.628383 0.193635 0.486721 0.148298 0.812754 -0.098932 -0.134997 0.629284 0.391645
This -0.130011 -0.032289 0.568161 0.592314 -0.013871 0.651958 0.467950 0.028058 0.331815 0.566917
another -0.073144 0.156768 0.057826 0.750181 0.587675 -0.025652 0.228018 0.108102 0.189839 0.730045
good -0.010504 0.386925 0.104971 0.078464 0.124599 0.472738 0.485357 0.518396 0.388330 0.249845
reason 0.311645 0.175983 0.746891 0.170414 0.423669 0.184452 0.171219 0.592382 0.136826 0.063676
keeping 0.449925 0.484048 0.612477 -0.005970 0.156701 0.102887 0.093329 0.802129 -0.181470 0.474246
away -0.065478 0.572055 0.345790 0.777474 0.646254 0.058179 -0.069444 0.038222 -0.055252 0.570448
want 0.135169 0.241848 0.139511 0.591793 0.547405 0.576344 0.510592 -0.164243 0.441225 0.654137
mixing -0.259562 -0.015735 0.064572 0.038586 0.725729 0.579563 0.697483 0.393075 0.115050 0.631352
child 0.511741 0.638884 0.083525 -0.130450 0.523716 0.363729 0.036612 0.539212 0.232686 0.655113
like 0.506809 0.150936 0.568845 0.058199 0.755621 0.533902 -0.194637 0.222408 0.136853 0.599052
When -0.211716 0.618123 0.262810 0.376386 0.374691 0.355477 0.278059 0.159977 0.462865 0.486441
woke 0.070518 0.364425 -0.001551 0.157693 0.149945 0.788907 0.499466 -0.003100 -0.047888 0.703539
up 0.144550 0.661996 0.510231 0.645392 0.528505 -0.005833 0.382563 0.037322 0.181476 -0.044740
dull 0.736232 0.377229 0.260096 0.041666 0.323208 0.299810 0.325723 0.475792 0.627835 -0.163172
gray 0.299043 0.695820 0.342192 0.109700 0.599288 0.598799 0.636050 0.211888 0.205514 -0.112645
Tuesday 0.173270 0.361119 0.091524 0.263460 0.692051 0.035477 0.054196 0.379010 0.086392 0.501285
our 0.512422 0.326650 0.669308 0.486201 0.081985 0.120059 -0.122016 0.624291 0.407935 0.098858
story 0.129816 0.110240 0.158945 0.499266 0.313293 0.333297 0.388136 0.281632 -0.111464 0.750006
starts 0.138636 0.354710 0.040203 -0.010178 0.722102 -0.137386 0.087292 0.286425 0.743523 0.827173
nothing 0.424219 0.203609 0.253932 0.417316 0.051852 0.718323 0.272684 0.677783 0.051898 -0.107474
cloudy 0.560354 -0.003023 0.089324 0.084995 0.301162 0.518727 0.627940 0.045584 0.453046 0.249654
sky 0.416432 0.289651 0.404675 -0.091572 0.381513 0.204676 0.185066 0.215538 0.586093 0.213791
outside 0.266408 0.270530 0.379352 0.044115 0.683939 0.845975 0.300219 0.022790 0.179587 -0.071395
suggest 0.157360 0.487822 0.693109 0.752427 0.030749 -0.017443 0.447301 0.203553 -0.056312 0.108820
things 0.813768 0.586548 -0.048265 0.527912 0.191438 -0.121502 0.527068 0.198753 0.145452 0.246339
soon 0.636020 0.767556 0.197935 -0.065538 0.779741 0.531549 0.196991 -0.109314 0.506916 -0.129612
happening 0.023971 0.723897 0.207150 0.492019 0.313980 0.667914 0.328973 0.435454 -0.269824 0.565249
all 0.321224 0.093365 0.534779 0.229419 0.041049 0.262869 0.218947 0.377757 0.124089 0.696299
country 0.530836 0.491501 0.180514 0.056180 0.264555 0.797005 0.468526 0.466021 -0.057207 -0.124974
hummed 0.204182 0.293725 0.243727 -0.144805 0.607187 0.420262 0.651295 0.726316 -0.069134 0.392904
picked 0.116515 0.062020 0.166766 0.498513 0.189500 0.419794 0.772050 0.124523 0.289930 0.174066
his 0.720172 -0.016722 0.228535 -0.168457 0.217927 0.739758 0.097457 0.568771 0.311569 0.202098
most 0.065783 -0.041136 0.000232 0.249972 0.252449 0.536528 0.482385 0.786564 -0.041309 0.443676
boring 0.436808 0.254022 0.303713 0.175873 0.021446 0.504059 0.558564 0.579270 0.654149 -0.035724
tie -0.144486 0.682625 0.721422 -0.005106 0.343758 0.578015 0.268633 0.270549 0.189392 0.023697
work 0.249480 -0.000709 -0.055830 -0.099951 0.265795 0.478259 0.624473 0.696393 0.339629 0.619247
gossiped 0.505256 0.656295 0.600010 0.283360 -0.033221 0.432978 0.345659 0.662301 -0.188800 0.113432
happily 0.777249 0.747013 0.290136 0.019235 0.005962 0.120987 0.412618 0.415670 -0.125242 0.148124
wrestled 0.195884 0.623789 -0.121381 0.228094 0.014555 0.589069 0.336470 0.632836 0.413232 0.432068
screaming 0.482414 0.062365 0.634132 0.260267 0.528457 0.628958 0.094732 0.205999 0.487136 0.602093
into 0.060444 0.220263 0.159546 0.315098 0.743912 0.764182 0.715863 -0.183522 0.272869 0.082233
high -0.054754 0.297972 0.433928 0.740300 0.679373 0.087119 0.367636 0.491079 0.126503 0.459947
chair -0.179485 0.712049 0.362026 0.173734 0.256891 0.742340 0.086612 -0.100231 0.389788 0.655460
None -0.181280 0.016219 0.398760 0.629156 0.055829 0.432137 0.417623 0.792199 0.223193 0.673265
them 0.689159 0.518417 0.144071 0.373699 0.307018 0.204784 0.279511 0.020157 0.416924 -0.018833
noticed -0.128154 0.439611 0.521634 -0.113793 0.643153 0.454048 0.239788 0.209360 0.627843 0.574884
tawny 0.750761 0.109099 0.492025 -0.111036 0.597689 -0.022475 0.289964 0.352352 0.036002 0.540668
owl -0.070635 0.029686 0.097568 0.088900 -0.034638 0.783167 0.558833 0.651312 0.268352 0.553427
flutter 0.362498 0.723433 0.489065 -0.018644 0.700224 0.096769 0.524951 -0.070389 0.524159 0.133989
past 0.431722 0.578688 0.083856 0.055434 0.559747 0.532051 0.464585 0.112733 0.004801 0.138426
window 0.142126 0.679301 0.493826 0.516873 0.085130 0.101213 0.149578 0.473978 0.308689 0.088496
At 0.536778 0.703358 0.471424 0.233685 0.530043 -0.232400 0.562860 0.503759 0.040083 0.739318
half 0.659316 0.615848 -0.145236 0.365499 0.826268 0.103033 0.045616 0.099332 0.493074 -0.101052
eight 0.547747 0.147431 0.068794 0.298306 0.501404 0.113263 0.691900 -0.044338 0.335606 0.665725
briefcase 0.072555 0.733118 0.600990 0.052808 0.739082 0.585556 0.304263 -0.002686 0.564818 0.381320
pecked 0.096889 0.030793 0.691150 0.360808 0.241391 0.602712 0.513992 -0.139452 0.416953 0.492924
cheek 0.555326 -0.142270 0.372431 0.429673 0.726426 0.418908 0.252452 -0.066078 0.048882 0.407330
tried 0.215676 0.195253 0.381717 0.313505 0.608691 0.542532 0.101271 0.621144 -0.086977 0.126742
kiss 0.487648 0.728887 0.075875 0.368568 -0.097639 0.200031 0.363734 0.666527 0.637133 0.160223
goodbye -0.157203 0.100873 0.145646 0.614165 0.817554 0.797243 0.088986 0.069377 0.143762 0.400446
missed 0.202468 0.473862 0.537603 0.528490 0.106839 0.290537 0.298900 0.011997 0.089038 0.242936
now -0.002281 0.775819 0.634677 0.659412 0.301355 0.396315 -0.130781 -0.176982 -0.196626 0.781336
having 0.299595 0.695558 0.464553 -0.147454 0.200022 0.513608 0.682298 0.329674 0.427312 0.205467
tantrum 0.775987 -0.026643 0.019924 -0.071726 0.019490 0.638852 0.417021 0.081694 0.433906 0.819405
throwing 0.219358 0.145294 0.077672 0.553442 0.073766 0.387671 0.185309 0.311153 0.765625 0.308512
cereal -0.076020 -0.061343 0.097274 0.605975 0.148594 0.208462 0.732803 0.291602 0.433816 0.644550
at 0.052803 0.540498 0.563526 0.396656 0.087080 0.144142 0.802004 -0.148982 0.673174 0.119153
walls 0.009674 0.368493 -0.148988 0.626755 0.214621 0.427128 0.121418 0.424300 0.764657 0.456870
Little -0.224278 0.432596 0.747028 0.294301 0.273984 0.178768 0.794093 0.233475 0.278367 0.499963
tyke 0.500218 0.555048 0.727246 -0.251079 0.377038 0.662312 0.563817 0.451908 0.327196 -0.253692
chortled 0.527430 0.721650 0.299958 0.156220 0.490470 0.340591 0.654899 -0.087421 0.303700 0.259845
left 0.634463 0.374443 0.298829 0.138199 0.161757 0.140151 0.345540 0.052728 0.131428 0.766051
house 0.622988 0.420839 0.473161 0.044971 0.138620 0.230968 0.416283 -0.027102 0.623470 0.448575
got 0.684546 0.258380 0.425445 -0.004259 0.099436 0.059785 0.022029 -0.012478 0.771196 0.587460
car 0.515925 0.770608 -0.004441 0.459655 0.412858 0.555627 -0.183851 0.262586 0.105202 0.456716
backed -0.209369 0.339236 0.269841 0.632246 0.679824 0.362407 0.446961 0.353728 0.512289 0.299002
fours 0.203821 0.045110 0.476848 0.331853 0.592004 0.077233 0.211023 0.383891 0.119529 0.569105
drive 0.318193 0.160306 0.783034 0.700009 -0.015740 0.088324 0.442549 0.141231 0.276155 0.776823
It 0.155593 0.734279 0.584479 0.309909 0.566797 0.705391 0.153392 0.033596 -0.218645 0.547789
corner -0.149853 0.040256 0.332192 -0.099348 0.771984 0.788756 0.212341 0.647868 0.121841 0.777415
first 0.543891 0.187974 -0.134542 0.546315 0.051907 0.117313 0.736181 0.362796 0.538152 0.421041
sign 0.491984 0.553705 0.374156 0.349798 0.711219 -0.061553 0.522686 0.129919 -0.082458 0.342946
something 0.164529 0.382810 0.077533 0.352324 0.077630 0.255205 0.247370 0.784337 0.173918 0.523426
peculiar 0.740640 0.154841 0.188729 0.224698 0.489486 0.607712 0.022668 0.437964 0.126627 -0.001256
cat 0.188209 0.773375 -0.066029 0.530581 0.175562 -0.014707 0.821528 0.247617 0.073228 0.408387
reading 0.161341 0.191537 0.009780 0.111617 0.518260 0.374520 0.774027 0.678383 0.020382 0.325849
map 0.297739 0.674843 0.852243 0.053951 0.294534 -0.046926 0.122986 0.487620 -0.062557 0.448827
For 0.321131 0.219169 0.258445 0.454625 0.481442 0.775641 0.496698 0.129620 -0.094311 0.353836
second -0.063968 0.502076 0.741789 0.466263 0.082416 0.629185 0.264676 -0.088226 0.194356 0.340435
realize 0.092880 0.046773 0.526159 0.719920 0.392772 0.819607 0.156072 0.534093 0.527695 -0.066466
then 0.249928 0.363456 0.875088 0.425118 0.729682 -0.026703 0.239098 -0.030255 -0.010059 0.192657
jerked 0.493275 0.302012 0.669951 -0.049781 0.108589 0.705543 0.687967 0.269249 -0.008424 0.155466
head 0.360709 0.306874 0.638074 0.725199 0.096366 -0.005185 0.181312 0.309683 0.023852 0.298807
around 0.426913 0.630671 0.408082 -0.160643 0.751233 0.734233 -0.141286 0.445325 0.242915 0.079243
look 0.417988 0.229361 0.036524 0.639642 -0.143329 0.703311 0.230358 0.432585 0.653715 0.309893
again -0.143913 0.356357 0.694739 0.155804 0.572249 0.675239 0.384093 0.179438 0.100238 0.696545
There 0.140006 0.377135 0.298511 0.720831 0.443673 0.657225 0.012433 0.680730 -0.107592 -0.013807
tabby -0.134945 0.250240 -0.059414 0.462863 0.382230 0.473007 0.515978 0.622449 0.186340 0.737522
standing 0.156133 0.570049 0.203750 0.034491 0.791862 0.024094 0.345424 0.266219 0.154967 0.247081
wasnt 0.619241 0.302814 0.290860 0.426855 0.170328 0.278594 -0.173753 0.253748 0.450304 0.688928
sight 0.265034 0.173504 0.750898 0.210399 0.236298 0.106820 0.072942 -0.003113 0.761150 0.521133
What 0.728151 0.210507 0.066311 0.097535 0.361481 0.498925 0.671306 0.269221 0.478052 0.244090
been 0.500584 0.204337 0.006973 0.728358 0.349011 0.599147 0.044694 0.322811 0.613569 -0.079888
thinking 0.352830 -0.048806 0.458430 0.669722 -0.064111 0.702586 0.542243 0.295894 0.169863 0.617540
must 0.714209 0.195230 0.409930 0.345853 0.142495 0.183028 -0.018647 0.400970 0.252001 0.666542
trick 0.743124 0.324338 0.054831 0.445137 0.795015 -0.008722 0.104067 0.507515 0.598009 -0.128609
light 0.575741 0.578479 0.436160 0.371993 0.103691 0.570756 0.291716 0.249663 -0.118979 0.133579
blinked 0.495490 0.371189 0.391730 0.196958 0.488417 0.692649 -0.139943 0.428004 0.349063 0.569215
stared -0.033719 0.439689 0.610921 0.250483 0.216580 0.593318 0.672627 0.183677 0.351941 0.082836
back 0.297801 0.116548 0.185857 -0.153668 0.698837 0.739590 0.814420 0.521468 0.357275 0.063417
As 0.367858 0.636888 0.270734 0.420158 0.262004 -0.025011 -0.095909 0.759334 0.720398 0.220594
drove 0.143717 0.638600 0.145167 -0.083306 0.341282 0.803278 -0.094237 0.464032 -0.102783 0.878143
road 0.137570 0.257620 -0.088791 0.402628 0.581824 0.625305 0.733486 0.132595 0.578739 0.587180
watched 0.719668 0.355904 0.332729 0.203373 0.038357 0.696881 0.125325 0.617974 0.105226 0.022595
mirror 0.072888 0.722807 0.059650 0.525381 0.213727 -0.022759 0.409625 0.634572 0.175430 0.490228
said -0.000002 0.847342 0.837764 0.409665 0.175000 -0.052131 0.148112 0.896632 0.115230 -0.029939
looking 0.107096 0.810196 0.790781 0.278414 0.232806 0.047990 0.396468 0.518097 0.021994 0.181369
cats 0.508425 0.679563 0.252879 0.614543 0.479635 0.340653 0.052086 0.604510 -0.110819 0.190382
couldnt -0.118459 0.572857 0.260177 0.049973 0.355191 0.347585 0.753085 0.746856 0.271001 -0.022140
read 0.459734 0.273131 0.684471 0.356694 0.332705 0.501810 -0.092511 0.146239 0.392366 0.377446
maps 0.634958 0.136212 0.265347 -0.119065 0.614517 0.195909 0.445281 0.140357 0.402566 0.580087
signs 0.679453 0.698062 0.455211 -0.092486 0.303640 0.432153 -0.090647 0.716989 0.429381 0.528548
gave 0.557837 0.426062 -0.118299 0.771115 0.820209 0.244569 -0.040021 -0.126010 0.276711 0.565659
himself 0.801155 0.138474 0.758479 0.682692 -0.099466 0.567131 -0.057493 0.315763 0.452685 0.730828
little 0.194490 0.176933 0.399846 0.299758 0.733474 0.001260 0.652526 0.677947 -0.029280 0.672291
shake 0.758746 0.468081 0.222707 0.212072 0.864124 -0.027164 0.172943 0.100819 0.620915 -0.056910
put 0.090477 0.427583 0.470213 0.188039 0.549837 -0.019342 0.309796 0.322759 -0.067842 0.622117
mind 0.398752 0.258940 0.765261 0.508718 0.326325 0.118105 0.162240 0.294147 0.050024 0.295611
toward 0.863973 0.034335 0.215475 0.777293 0.572937 -0.052726 0.126172 -0.021856 -0.054712 0.186173
town 0.232143 0.204596 0.022796 0.419073 0.698967 0.286421 0.694535 0.238202 0.614455 -0.048470
thought 0.526893 -0.029082 0.108366 0.495415 0.571791 0.565633 0.116409 0.629346 -0.107483 0.105096
except 0.114066 0.633120 0.604987 -0.083409 0.477919 0.639338 -0.041253 -0.008536 -0.077068 0.574429
order 0.783639 0.243251 0.448029 -0.098549 0.494456 0.439102 0.090227 0.086813 0.341141 0.018141
hoping 0.535946 0.247247 0.369598 0.516390 -0.039401 0.152563 0.129718 0.540652 0.460644 0.158056
get 0.380702 -0.233273 0.588474 0.613642 0.371049 0.449772 0.515483 0.684931 0.530213 -0.189222
day 0.194227 0.526275 0.568267 -0.045588 0.320064 0.605915 -0.016878 0.218001 0.683921 0.372219
But 0.825861 0.741666 -0.039680 0.248526 0.055140 0.443331 0.001453 0.554529 0.035749 0.041453
edge 0.373369 0.563614 0.250577 0.442249 0.043679 0.521974 0.327210 0.477330 -0.110606 0.307436
driven 0.659103 0.364162 0.634240 0.522274 -0.004470 0.246886 0.517850 0.316614 0.203320 -0.204420
by 0.026434 -0.192945 0.674129 -0.126343 0.503722 0.505255 0.715484 0.560891 0.260931 0.211660
else 0.167152 0.491038 0.689347 0.591011 0.114615 0.668548 0.334849 -0.082749 0.220274 -0.170261
sat 0.745942 0.641796 0.390408 0.447991 0.202521 -0.069387 0.424258 0.167947 -0.027116 0.047925
morning 0.247490 0.033009 0.253592 0.292820 0.726332 0.257197 0.250708 0.529105 0.357805 0.007411
traffic 0.659922 0.640574 0.161781 0.216101 0.475561 0.098346 0.596491 -0.120018 0.576549 0.112977
jam 0.411293 0.348607 0.394581 0.657608 0.029904 0.091491 -0.002195 0.577381 0.614571 0.336830
help 0.225067 0.201466 0.596471 -0.138093 -0.126899 0.654746 0.283730 0.227440 0.765558 0.264468
noticing -0.094339 0.680786 0.482969 0.092427 0.144171 0.129823 0.340303 -0.037137 0.678786 0.374890
seemed -0.049100 -0.117062 0.296353 0.096336 0.590853 0.326913 0.510338 0.545485 0.706443 0.170846
lot 0.000035 0.678715 0.379532 0.320697 0.655977 0.412545 0.202280 0.662108 0.307846 -0.132377
strangely 0.609219 -0.080966 0.453768 -0.020918 0.412855 0.477012 0.605772 -0.035386 0.214011 0.418927
dressed 0.595503 0.272050 0.134307 0.161998 0.593780 0.229124 0.451738 0.331507 0.638647 0.211683
People 0.222601 0.311305 0.287227 0.022359 0.486881 -0.101716 0.107407 0.400335 0.256705 0.794390
cloaks 0.360398 0.086202 0.706651 0.170304 0.152543 0.106305 -0.036272 -0.126043 0.547072 0.832827
who 0.764433 0.044880 -0.072362 0.398491 0.148967 -0.148628 0.141049 0.746766 0.673009 0.379126
funny 0.466097 0.524669 0.441565 0.434914 0.583797 0.426763 0.471121 -0.094744 -0.056683 0.485317
clothes -0.036483 0.189814 0.498698 -0.092435 0.668868 0.041858 0.417077 0.706293 0.641571 -0.019579
getups 0.502384 0.280145 0.308666 0.142282 -0.135780 0.487273 0.042870 0.687703 0.207274 0.510146
saw 0.337817 0.828450 0.420646 0.113658 -0.029744 -0.113807 0.529196 0.503152 0.572720 -0.030441
young 0.614202 0.239866 0.436126 -0.105125 0.193411 0.177551 0.636258 0.625262 -0.135216 0.148166
supposed 0.013171 0.163000 0.490874 0.685704 0.719750 0.107345 0.573492 -0.145308 0.423521 0.452376
this 0.709068 0.598945 0.393879 0.418128 0.270708 0.562226 0.401696 0.209961 -0.026087 0.340112
some 0.456117 0.188432 -0.125648 0.398946 0.359463 -0.056566 0.493347 0.657121 0.240293 0.444426
stupid -0.117304 -0.090073 0.485968 0.429673 0.619442 0.445553 0.649772 0.175781 -0.071896 0.773116
new 0.198280 0.145416 0.383055 0.335499 0.659279 0.178476 0.200198 0.191056 0.057515 0.245830
fashion 0.676128 0.668457 0.079420 0.001191 0.376785 0.796967 0.216541 0.114465 0.077238 0.119959
drummed 0.144330 0.377388 0.282509 -0.110795 0.150341 0.390611 0.592753 0.525167 0.650973 -0.030647
fingers 0.696591 0.614524 0.083869 0.525715 0.706853 0.659222 -0.165138 -0.162757 0.085901 0.403660
steering 0.044355 0.313717 0.783868 -0.174321 0.624318 0.406608 0.685775 0.236054 0.524991 -0.130124
wheel 0.740959 0.043403 0.394456 0.621183 0.643909 0.437523 0.188868 -0.061701 -0.035775 0.623559
eyes 0.432268 0.440224 0.217884 0.670624 0.165430 0.414546 0.621595 0.508304 0.056266 -0.022540
fell -0.006153 0.544143 0.184104 0.341872 -0.088482 0.614638 0.050513 0.679210 0.726571 0.315827
huddle -0.019296 0.532279 0.601816 0.361109 0.649291 0.236656 0.071621 0.685701 0.107945 0.538275
these 0.117711 0.741159 0.356909 -0.049734 0.611652 0.431800 -0.058858 0.410903 0.511372 0.032550
weirdos 0.806974 0.279605 0.137754 0.042412 0.418521 0.692867 0.393223 0.091655 -0.020852 -0.027393
quite 0.398279 0.638760 0.117011 0.299451 0.618103 -0.114773 0.701050 -0.035423 0.400394 0.077235
close -0.003496 0.847425 0.177723 0.183921 0.525435 0.651766 0.091726 0.250373 0.328477 0.284050
whispering 0.510621 -0.007046 0.786289 0.185462 0.074638 0.309831 0.064121 0.736501 0.451002 0.066850
excitedly 0.543362 0.485118 0.509986 0.458858 0.726298 -0.014814 0.155808 0.064357 0.105172 0.118032
together 0.253005 0.703751 0.171893 0.471529 -0.097299 0.204234 0.054231 0.542767 0.548769 0.614078
enraged -0.021375 0.284970 0.410388 0.159818 0.416476 0.652966 -0.098806 -0.033061 0.277617 0.803095
see 0.660331 0.642418 0.190969 0.552595 0.647685 -0.220051 0.371455 0.107568 0.579428 0.426336
couple 0.386947 -0.033671 0.409775 0.054403 0.462193 -0.113386 0.696596 0.408751 0.184178 0.756073
werent 0.307476 0.752224 0.346670 -0.006172 0.045643 0.700065 0.425787 0.216210 0.472516 0.038689
why 0.639766 0.317101 0.576028 0.491886 0.348627 0.632028 -0.029303 0.058654 0.058908 0.012495
older 0.428519 0.586059 0.539100 -0.081096 0.617584 0.611941 -0.205366 0.589014 -0.011615 0.623118
than 0.071448 0.801715 0.074578 0.584728 -0.068233 0.459115 0.269912 -0.045357 0.430124 0.644345
wearing 0.531140 0.612260 0.209951 0.130998 0.710219 0.607112 0.584950 -0.190706 0.257348 0.191327
an 0.542471 0.296662 0.385431 0.660606 0.328001 0.271328 0.231874 0.078522 0.639122 -0.103890
emeraldgreen 0.363813 0.530674 0.630382 0.746439 -0.056806 0.010040 0.577328 0.259094 0.018369 0.080523
cloak 0.852109 0.243866 0.419124 0.367819 0.808388 0.148471 0.228504 0.343564 0.057514 0.137953
nerve 0.631227 0.230552 0.131828 0.202885 0.499417 0.333183 0.100506 0.874265 0.418708 0.035240
struck 0.312160 0.713445 0.376959 0.076001 0.454597 0.630690 0.346676 -0.036791 0.182231 0.082421
probably 0.290953 0.280198 -0.090891 0.871787 0.687414 0.023933 0.011624 0.704222 0.143048 0.293329
silly 0.539107 0.144359 -0.138186 -0.103863 0.504485 0.127966 0.233908 0.465045 0.335936 0.594240
stunt 0.463462 0.197528 0.485884 0.076714 0.592629 0.256700 0.174963 -0.216704 0.694921 0.091980
obviously 0.320259 -0.192096 0.171858 0.380815 0.609910 -0.094031 0.174173 0.367270 0.387387 0.544841
collecting 0.249853 0.590755 0.530247 0.371431 0.377146 0.089591 0.556163 -0.075032 0.014354 -0.130280
yes 0.032188 0.603928 0.613036 0.351998 0.291847 0.148979 0.292373 0.144472 0.218789 0.136778
moved -0.057477 0.712038 -0.017358 0.460818 0.647581 -0.052348 0.280683 -0.010315 -0.056883 0.799906
few 0.723439 0.229756 -0.035937 0.634742 0.321533 0.484796 0.035893 0.506221 0.273451 -0.221994
minutes 0.211601 0.383867 0.465010 0.591809 0.427387 0.509043 0.559085 0.389000 -0.121219 0.354578
later 0.425351 -0.115903 0.451998 0.627413 0.743715 0.150124 0.200617 0.374594 -0.089343 0.334381
parking 0.245155 0.475369 0.606847 0.802506 -0.022656 0.533306 -0.112813 0.141698 -0.006953 0.153483
always 0.257349 0.113919 0.410856 0.775544 0.081329 0.439747 0.316877 0.639064 0.676875 0.549871
office 0.037120 0.186050 0.469064 0.180373 0.596008 0.014298 0.175768 0.596809 0.349749 -0.059470
ninth 0.469645 -0.074252 0.663386 0.772057 0.272245 0.166610 -0.031194 0.099033 -0.112936 0.469508
floor 0.238458 0.294997 0.562029 -0.056083 0.362195 0.034575 -0.192756 0.603170 0.643677 0.534598
If 0.239596 0.339365 -0.023176 0.431952 0.369362 0.310286 0.738959 -0.106533 0.577689 -0.017966
might 0.118821 0.764698 0.551612 0.616131 -0.149359 0.620961 0.314015 0.457080 -0.136440 0.245415
harder -0.008447 -0.073499 0.567845 0.311849 0.212157 0.036971 0.564377 0.287522 0.402665 0.711180
concentrate 0.438121 0.567390 0.321038 -0.094920 0.640790 -0.125654 -0.099741 0.565504 -0.019292 0.789756
owls 0.686445 0.327879 -0.047800 0.251298 -0.065030 0.028185 0.128696 0.034230 0.686052 0.768887
swoop 0.088176 0.196799 0.621675 0.496822 0.349261 -0.102257 0.316493 0.713660 0.523952 -0.143296
ing 0.195623 0.759310 0.002466 -0.010440 0.603294 0.562821 0.471706 0.001587 0.372068 0.045808
broad 0.034070 0.475131 0.734054 0.022011 0.386040 0.331337 -0.053959 0.360154 0.451152 0.011141
daylight 0.322352 0.638108 -0.230234 0.326990 -0.184063 0.123991 0.579039 0.388709 0.660762 0.512854
though 0.056176 0.038339 0.622066 0.302835 0.397653 -0.021311 0.028292 0.626420 0.413163 0.325434
down 0.208771 0.705664 0.045163 0.119893 0.145033 0.398968 0.282593 0.442683 0.579551 0.354879
pointed 0.338009 0.307086 0.028653 0.339361 -0.137908 0.610033 0.367256 -0.002613 0.512704 0.420270
gazed 0.426412 0.756127 0.183608 -0.143570 0.644492 -0.175900 0.465744 0.306390 0.527933 0.028147
open 0.620914 -0.005140 0.263818 0.769184 -0.095824 -0.014335 -0.034754 0.717894 0.195153 0.721982
mouthed 0.301628 0.151051 0.647845 0.277474 -0.079809 0.464419 0.619079 -0.008439 0.378246 0.045857
after -0.155066 0.158279 0.534126 0.727948 0.228058 -0.179067 0.722477 0.765622 0.014785 0.425604
sped -0.124436 0.273889 0.338348 -0.004519 0.001551 0.094859 0.871500 0.095764 0.641191 0.699674
overhead 0.239319 0.423561 0.436481 -0.011270 -0.098871 0.607716 0.363777 0.698453 -0.207633 0.653929
Most -0.072426 0.069419 0.282654 -0.122384 0.657974 0.575117 0.570361 0.424924 0.272262 0.403218
nighttime 0.450723 0.430102 0.379467 0.677987 0.365941 0.057883 0.057590 0.647227 -0.159124 0.693308
however 0.287024 0.556535 0.265974 0.085830 -0.011375 0.204407 0.724935 0.266522 0.216604 0.020420
owlfree 0.422881 0.625336 0.166014 0.490562 0.471742 0.068596 0.157953 0.389570 0.568168 -0.195265
yelled 0.718565 0.081778 -0.160686 0.380051 0.111387 0.214812 0.686509 0.736169 0.312337 0.399721
five 0.628358 0.766214 -0.020912 0.737444 0.096318 -0.121029 0.265308 0.331511 0.094290 0.227905
different 0.217860 0.361507 -0.024725 0.598636 0.108755 0.415291 0.362886 0.008717 0.795634 -0.044213
important 0.644570 0.053875 0.837600 0.257486 0.015424 0.170521 0.479873 0.200344 0.084284 0.067732
telephone -0.070668 -0.045023 0.776134 0.458504 0.006788 0.499189 0.323926 -0.003181 0.316431 0.482109
calls 0.395811 0.786189 0.008856 0.290622 0.555807 0.020906 0.592294 -0.049403 0.106466 0.514384
shouted 0.396844 0.602566 0.474876 0.400282 -0.133164 0.078048 -0.118450 0.543998 0.606287 0.315937
bit 0.601606 0.714409 0.080617 0.098820 0.602011 0.477343 -0.017377 0.235309 0.254484 0.107409
more -0.239733 0.450815 0.377728 0.611045 0.461495 0.446120 0.771606 -0.118282 0.515337 0.293189
mood 0.194133 0.754593 0.098917 0.464795 0.190958 -0.072213 0.787404 -0.007879 0.423703 0.330717
until 0.196237 0.031457 0.349350 -0.045064 0.070027 0.474706 0.524582 0.091964 0.552795 0.469611
lunchtime 0.167495 0.541946 0.193029 0.315519 -0.003382 0.256240 0.619353 0.481461 0.378043 0.334937
when 0.430887 -0.184254 -0.062344 0.606679 0.333833 0.496224 0.673212 0.074836 0.742301 0.055895
hed 0.154922 0.569832 0.091747 -0.058280 0.042017 0.414770 0.780036 0.122190 0.196958 0.467029
stretch 0.115073 0.545021 0.051894 0.294593 0.388536 0.700265 0.344509 0.041584 0.238827 0.208393
legs 0.422669 -0.077004 0.333975 0.621594 0.168664 -0.029715 0.534971 -0.123065 0.364867 0.750183
walk 0.171018 0.505074 0.131901 0.122897 0.620484 0.454129 0.286900 0.384598 0.049058 0.341471
across 0.318316 0.733106 0.486251 0.393843 -0.284415 0.600401 0.402488 0.744169 0.241056 0.386493
buy 0.101335 0.310327 0.027432 0.368750 0.190521 -0.015688 0.817455 0.524120 0.501713 0.019553
bun 0.303954 0.419394 0.611913 0.160365 -0.135475 0.598046 0.512191 0.568694 0.605964 -0.238117
from 0.160314 0.241035 0.467337 0.785302 0.076345 0.268462 0.819686 0.075125 0.206133 0.099192
bakery 0.462806 -0.118560 -0.120901 0.626739 0.568135 0.407518 0.361106 -0.033712 0.565224 0.588518
Hed 0.565954 0.004329 -0.216424 0.547263 0.590472 0.520314 0.758972 0.558799 0.029364 0.094218
forgotten 0.096295 0.267727 -0.112382 0.517694 0.404325 0.537941 0.017746 0.667880 0.579534 0.314800
passed 0.131211 0.758135 0.239523 0.152421 0.185667 0.548299 -0.091908 0.256708 0.257656 0.607860
group 0.229952 0.717095 -0.126054 0.634555 0.167438 0.149412 0.074159 0.496904 0.800731 0.110727
next 0.188902 0.157996 0.872669 0.643783 0.140683 0.170766 0.247529 0.178076 0.114901 0.203589
bakers 0.044289 0.003620 0.100655 0.671041 0.289768 0.372043 0.468853 0.114806 -0.019749 0.867539
eyed 0.503505 0.414583 0.664676 0.022759 0.678849 -0.174296 0.535527 0.203560 0.146182 -0.043844
angrily 0.328591 0.003604 0.811556 0.351957 0.408776 0.012625 0.098973 0.788392 0.197038 -0.034924
know 0.693209 0.139568 0.310502 0.650876 -0.057810 0.099769 0.491716 0.095080 0.619487 0.321141
uneasy 0.040111 0.835058 -0.043040 0.384487 0.646106 0.373888 0.001865 0.106946 0.486941 0.125376
bunch 0.088014 0.560510 -0.063222 0.135559 -0.116467 0.678538 0.619258 0.659449 0.577092 0.498676
single 0.367796 -0.087359 0.683036 0.480286 0.703994 0.447232 0.811455 0.502808 0.098542 0.495196
tin 0.808638 0.529886 0.872205 0.081967 0.178795 0.096528 0.481148 0.320862 0.565201 -0.094909
way 0.468304 0.715564 0.119935 0.222903 0.313795 0.767474 0.762827 0.600416 0.340971 0.194474
clutching 0.377115 0.525432 -0.080336 0.143357 0.646110 0.172197 0.462724 -0.069261 0.463286 0.306000
doughnut 0.394284 0.196710 0.742919 0.071591 0.010601 0.245405 0.244173 0.610167 0.086743 0.094938
bag 0.663621 0.353304 0.247804 0.674900 0.473263 0.665960 0.221111 -0.207012 0.374947 -0.022490
caught 0.550770 0.265204 -0.106273 0.043747 0.269506 0.538811 0.409187 0.561595 0.586002 0.723390
words -0.231446 0.633791 0.635808 0.761576 0.179737 0.408899 -0.014289 0.550003 0.325089 0.184449
saying 0.450565 -0.048666 0.757440 -0.017297 0.479534 -0.006186 0.210019 0.611489 0.444681 -0.022521
thats 0.181244 0.137679 0.719050 0.155499 0.302399 -0.012158 0.344487 0.128476 0.740882 0.009571
right 0.078242 0.484735 0.566890 0.040206 0.485237 0.584595 -0.060847 -0.014377 0.677391 0.224019
I 0.526556 0.745778 0.733762 -0.022304 0.280899 0.341841 -0.000453 -0.215117 0.504476 0.742943
heard 0.549259 0.223505 0.307253 0.366268 0.346719 0.499578 -0.099776 0.565883 0.440614 0.615307
stopped 0.327245 0.416379 0.513866 0.397500 0.407309 0.508761 -0.148304 0.242957 0.018710 0.692100
dead 0.629490 -0.051971 0.598043 0.234286 0.729275 0.315008 0.742892 -0.174107 0.035004 0.286236
Fear 0.334044 0.119287 0.279553 0.303862 0.605708 0.422724 0.329407 0.316352 0.317001 0.403469
flooded 0.560675 -0.251251 0.332753 0.189529 0.438989 0.208073 0.760403 -0.086816 0.313921 0.768989
looked 0.422743 0.335294 -0.131390 0.564464 0.307431 0.046268 0.618258 0.670331 0.638397 0.082967
whisperers 0.480143 0.485626 0.142640 0.408806 0.062258 0.272578 0.780552 0.059960 0.176615 0.260763
better 0.619911 -0.013396 0.306973 0.630512 0.222463 -0.064096 0.094458 0.642695 0.177217 0.536971
dashed 0.249639 0.153582 0.451417 0.120645 0.345105 0.435768 0.283878 -0.112291 0.550438 0.695100
hurried 0.314990 0.111595 0.518911 0.401754 0.797843 -0.223337 0.698934 0.625298 0.016331 -0.040282
snapped 0.684619 0.128813 0.092115 0.184274 0.479187 0.595387 0.325350 0.094509 0.182175 0.593845
secretary 0.095489 -0.150551 -0.043687 0.136910 0.550444 0.691470 -0.030177 0.732899 0.512852 0.501056
not 0.457847 0.638976 -0.144368 0.707492 0.228670 0.494412 -0.027082 0.282783 0.460982 0.756917
disturb 0.491155 0.206483 0.401875 -0.098221 0.083746 0.670000 0.129038 0.320150 0.452530 0.551331
seized 0.622323 0.518667 -0.128321 0.057032 0.346695 0.283197 0.063973 0.394731 0.459993 0.622686
almost -0.038134 0.199977 0.350360 0.723082 0.531459 0.586251 -0.080794 0.549622 0.226607 0.470079
finished 0.028759 0.413718 0.430856 -0.027939 0.497477 0.202280 0.778219 -0.063466 0.550210 0.079823
dialing 0.730040 0.360594 0.422281 0.510014 0.207091 0.361267 0.083750 0.181553 0.282219 0.135233
home 0.347284 0.106890 0.176556 0.167537 0.281895 0.833949 -0.015307 0.738981 0.208966 0.300543
changed 0.123361 0.069469 0.373368 0.633432 0.640544 -0.046993 0.411847 0.372046 0.596361 -0.034691
receiver 0.047703 0.479938 0.032625 0.476182 0.379758 -0.023955 0.237555 0.442734 0.436123 0.782668
stroked 0.556865 0.647604 0.456736 0.007055 -0.034906 0.331886 0.361321 0.099489 0.431096 0.646646
being 0.489405 0.069920 0.193083 0.066720 0.218053 0.685650 0.428112 0.653571 0.085316 0.339442
unusual -0.151020 0.401803 0.185121 0.593948 0.631784 -0.137265 0.841386 0.441820 -0.000671 0.648150
name 0.265900 0.079541 0.049140 0.381390 0.538614 0.100865 0.710221 0.610291 0.214285 0.143092
sure 0.621865 0.414707 0.770760 0.190548 0.689522 0.101344 0.031296 0.572990 0.333940 -0.004097
lots 0.528718 0.293902 0.259343 0.304200 0.809517 0.565783 0.385556 0.118810 0.048890 0.098361
Come 0.719633 0.309334 0.573996 0.343855 0.275815 0.586956 0.558313 0.227781 -0.152198 0.033573
nephew -0.016885 0.292234 0.448164 0.432646 0.290600 0.213005 0.747842 0.214126 0.553278 -0.002724
Harvey 0.521118 0.272514 0.138109 0.197228 0.746624 0.635463 0.277415 0.456074 0.216247 0.476115
Or 0.016803 0.789676 -0.077704 0.123058 0.015172 0.011522 0.759291 0.337373 0.800174 0.128787
Harold 0.464728 0.168470 0.158671 0.522846 0.286533 -0.018678 0.442109 0.764150 -0.086379 0.659453
point 0.245363 0.196699 -0.137427 0.118997 0.552203 0.291057 0.619677 0.269570 0.637780 0.765339
worrying 0.304682 -0.007549 0.721384 -0.014745 0.334855 0.080441 0.233021 0.490744 0.372179 0.531333
upset 0.435161 0.227713 0.307989 0.719482 0.453168 -0.014599 0.131797 0.799124 0.471289 -0.110626
mention -0.030623 0.007583 0.304920 0.002636 0.791590 0.305755 0.260997 0.404202 -0.040610 0.951196
blame -0.019055 0.220033 0.630195 0.355830 0.044824 0.372621 0.835315 0.392905 -0.067976 0.359860
same 0.542857 0.530011 0.056382 0.069826 0.280176 0.262391 0.570355 0.339507 0.745054 -0.019138
those 0.321990 0.292735 -0.012733 0.356536 0.440131 0.314114 0.557601 0.484375 -0.070887 0.810052
afternoon 0.221961 0.107479 0.225908 0.426756 -0.021490 0.374624 0.754636 -0.120119 0.744394 0.579359
building 0.641319 0.535236 0.376879 0.480305 0.183095 0.354045 0.444255 -0.108224 0.471232 0.526706
oclock 0.199815 0.025812 -0.037901 0.111573 0.698634 0.243727 -0.003830 0.551400 0.762109 0.578791
still 0.399080 0.229001 0.560541 0.419617 0.398467 -0.048385 -0.155193 0.708721 0.734349 0.287727
worried 0.294559 0.421463 0.739023 0.025837 -0.015258 0.336324 0.311275 0.396361 0.288167 0.164581
walked 0.154245 -0.144976 0.807178 0.638519 0.665392 0.587092 0.024075 0.466802 -0.027480 0.361587
straight -0.036579 -0.098318 -0.116127 0.595675 0.575619 0.525922 0.715918 0.592646 0.038945 0.645337
someone 0.108210 0.082889 0.758325 0.051513 0.260741 0.476147 0.282094 0.221834 0.520275 0.709191
door -0.057125 0.127561 0.161924 0.840709 0.160824 0.543503 0.621278 0.112821 0.455879 0.253376
Sorry 0.586198 -0.108189 -0.082031 -0.030204 0.717043 0.309548 0.101725 0.849407 0.659769 0.158153
grunted 0.136543 -0.049447 0.365317 0.385630 0.878482 0.857991 0.237996 -0.055453 0.111803 0.362060
tiny 0.483010 0.374282 0.327775 0.009781 0.281454 0.078245 0.359352 0.377741 0.661066 0.522777
old 0.201112 0.485468 0.668366 0.313127 0.283345 0.255597 0.419483 0.394191 0.154831 0.761125
stumbled 0.371661 0.352998 0.772749 0.554513 0.639233 0.239953 0.452249 0.629126 -0.031741 0.114254
seconds 0.543901 0.334998 -0.016386 0.573649 0.085899 0.036526 0.229711 0.253499 0.469028 0.395534
before -0.018673 0.045379 0.675706 0.287067 0.640468 0.550710 0.585659 0.000839 0.657357 0.200919
realized 0.049773 0.779581 0.268198 0.765483 -0.085122 0.571382 0.270156 -0.097194 0.447902 0.280995
violet 0.759835 0.605600 0.010096 0.082131 0.375346 -0.240113 0.630853 0.735090 0.670648 0.460066
seem 0.729213 0.133320 0.215504 0.801655 -0.049046 0.391802 0.046354 0.386030 0.466042 0.408040
knocked 0.577151 0.606311 0.353378 -0.074040 0.297038 0.011923 -0.032549 0.152210 0.478805 0.909716
ground 0.333486 0.109515 0.659176 0.731471 0.645849 0.177614 0.604429 0.734924 0.572256 0.105209
On 0.046937 0.210018 0.093192 0.616687 0.426390 0.531729 0.595513 0.622329 0.093028 0.813161
contrary -0.048006 -0.145381 -0.095756 0.746550 0.292961 0.740113 0.312776 0.740508 0.610065 0.238242
face 0.519244 0.166159 0.429304 0.101715 0.483044 0.183159 0.383781 0.397411 0.118287 0.427222
split 0.335101 0.714632 -0.107543 0.260643 0.299606 0.440590 0.584064 0.297911 0.423930 0.386384
wide 0.461216 0.652005 0.368844 0.446881 0.795717 -0.138738 0.271003 0.012103 -0.048634 0.725985
smile 0.071836 -0.183699 0.342871 0.355344 0.139857 0.760832 0.728488 0.499753 0.561807 0.743281
squeaky 0.009959 -0.017568 0.490788 0.133059 0.345105 0.463187 0.371593 0.577757 0.496091 0.465594
voice 0.011265 0.746156 0.382703 0.087517 0.809679 0.098109 0.172637 0.503646 0.456461 -0.073174
passersby 0.648114 -0.074854 0.550385 0.140855 0.765876 0.047389 0.325845 0.359949 0.735649 0.336782
stare 0.541730 -0.012862 0.180402 0.836948 0.257468 0.624944 0.513177 0.757908 -0.025000 0.197994
Dont 0.662332 -0.024641 0.126223 0.737231 -0.052138 0.391930 -0.002973 0.074963 0.498669 0.728368
sorry 0.118015 0.756982 -0.013352 0.700365 0.066201 0.207809 0.589092 0.067606 0.135961 0.694576
my 0.266704 -0.049973 0.766493 0.052784 0.051342 0.469676 0.692072 0.199037 0.300151 0.348125
dear 0.503738 0.647374 -0.057598 0.531446 0.436946 0.631607 0.442609 0.170709 0.187217 0.164102
sir 0.427227 -0.059756 0.410776 0.732494 0.043124 0.069088 0.846573 0.331999 0.451969 -0.029469
me 0.669949 0.542004 0.625251 0.150422 0.362572 0.112310 0.056092 0.681907 -0.007681 0.368006
today -0.121257 -0.067320 0.564641 0.097311 0.692132 0.733393 0.381876 0.394935 0.603834 -0.004818
Rejoice 0.206923 0.412672 -0.010846 0.904751 0.125993 0.459607 0.113114 0.489779 -0.059504 0.393021
YouKnowWho 0.224147 0.325378 0.492229 -0.073874 0.690296 0.530984 -0.044211 0.345950 0.675876 0.492497
has 0.023978 0.278788 0.788581 0.673428 0.040274 0.201459 0.012620 0.512136 0.483700 0.330830
gone 0.190073 0.436886 -0.100536 0.893303 0.308557 0.078355 0.078631 0.575533 0.565258 0.685212
Even 0.052306 0.458634 0.743558 0.563507 0.218302 -0.083574 0.422051 0.679971 -0.065881 0.604694
Muggles 0.198953 0.060798 0.228177 0.340633 0.917386 0.407995 0.409878 0.708377 -0.021609 0.213549
yourself 0.743411 0.696863 0.047669 -0.097137 0.000363 0.253701 0.497602 0.150385 0.651135 0.655618
should -0.158660 0.393664 -0.071569 0.404826 0.226853 0.616889 0.456846 0.464304 0.622665 0.806293
celebrating 0.337647 -0.082882 -0.058084 0.336799 0.227812 0.645049 0.000484 0.901064 0.564593 0.429194
happy 0.545331 0.545485 0.205848 0.219559 0.354683 0.243263 0.573724 0.283766 0.176907 -0.024561
And 0.534995 -0.006015 0.294241 0.540276 0.019922 0.482627 0.519159 0.021236 0.015627 0.804383
hugged 0.597627 0.452289 0.603416 0.635776 0.613118 0.452620 -0.085929 -0.104219 0.424769 0.555264
middle -0.084042 0.663028 0.421008 0.053679 0.514857 0.106760 0.324167 0.771705 0.040930 0.535081
off 0.297537 0.182857 0.004535 0.257752 0.847799 0.678953 0.082936 0.376147 0.352011 0.702968
stood 0.575296 0.131719 0.162591 0.766209 0.526158 0.572655 0.167927 -0.044595 0.463113 0.578807
rooted 0.589626 0.239557 0.092473 0.510849 0.827022 -0.032257 -0.002515 0.406092 0.404461 0.701227
spot 0.345303 0.195243 0.454606 -0.089786 0.682716 0.545061 0.780928 0.088103 0.323750 0.446972
complete 0.249793 0.351956 0.043141 0.598737 0.177097 0.171446 0.688478 0.676289 0.734343 0.608774
stranger 0.121782 0.555590 0.320272 0.495537 0.519007 0.580180 0.176552 0.064346 0.627631 0.295823
Muggle 0.528473 -0.008119 0.279444 0.303743 0.491583 0.580017 0.790742 -0.066140 0.708005 0.024319
whatever 0.335876 0.658405 0.331743 0.344451 0.468611 0.516946 0.222973 0.419188 0.281207 0.142532
rattled 0.040323 0.819248 0.258877 0.276101 0.561830 0.015140 0.774076 0.157238 -0.040858 0.277174
set 0.310188 0.615418 0.842252 0.052334 0.149033 -0.000774 0.840803 0.047443 0.594185 -0.069735
imagining -0.088696 0.572800 0.221710 0.765572 0.099181 0.444486 0.738980 -0.024521 0.687260 0.164677
hoped 0.637146 0.387174 0.252032 0.711730 0.307518 -0.066722 0.484603 0.187803 0.102848 0.306467
approve 0.621029 0.406566 0.514713 0.080957 0.262351 0.470904 -0.028935 0.271559 0.847051 0.287637
imagination 0.439624 0.665320 0.615037 -0.057475 0.300957 0.012425 0.327604 0.581374 0.584800 0.553965
pulled 0.169102 0.140136 0.664475 0.470914 0.178412 0.559993 0.047949 0.658869 0.361168 0.446969
driveway 0.801707 0.240135 -0.105922 0.310377 0.474540 0.006426 0.317947 0.587469 0.630512 0.525809
thing -0.150424 0.652259 0.635381 0.117447 0.681630 0.737075 -0.095240 0.609633 0.457953 0.089388
improve 0.578142 0.212796 0.613589 -0.096937 0.273263 0.365234 0.374670 0.275056 0.454286 0.654679
spotted -0.100255 0.594321 0.220336 0.289650 -0.053759 0.721718 0.724701 0.632956 0.048797 0.340825
sitting -0.112142 0.701420 0.109803 0.226051 0.300557 0.188178 -0.017501 0.834726 0.438900 0.759817
wall 0.317434 0.339328 0.051886 0.734520 0.343043 0.424886 0.499707 0.584031 0.213719 0.331979
one 0.241873 0.310693 0.053203 0.494943 0.176431 0.830229 0.037250 0.896390 -0.047571 0.302798
markings 0.517867 0.225871 0.104409 0.311784 0.150893 0.652305 0.575854 -0.017002 0.752398 0.569011
its 0.038768 -0.077760 0.242984 -0.025436 0.800606 0.795810 0.733992 0.391834 0.735779 -0.040134
Shoo 0.730133 -0.055445 0.732071 0.295302 0.706721 0.464447 0.590350 0.065495 0.065129 0.605120
loudly 0.425178 -0.037920 0.122525 -0.006431 0.715078 0.350430 0.710296 0.311796 0.336654 0.409009
move 0.281711 -0.093719 0.611865 0.736444 0.366244 0.229994 0.175819 0.610847 0.300375 0.506437
stern 0.386452 0.328209 0.305432 0.706519 0.006397 0.322447 0.141790 0.370292 0.050491 0.684143
Was -0.030823 0.057641 0.020477 0.811820 0.298285 0.822950 0.003734 0.270382 0.469724 0.497803
behavior -0.022706 0.617772 0.148946 0.275377 0.293514 0.232141 0.393686 0.230584 0.420728 0.815486
wondered -0.144525 0.053822 0.428207 0.563357 0.604673 0.814756 0.841963 0.377715 0.145983 0.556965
Trying 0.379428 0.503033 0.703792 0.670780 0.608233 0.572135 0.637594 -0.137819 0.133772 0.441305
pull 0.668497 0.698513 0.834286 0.427016 0.875866 -0.017436 -0.006597 0.023393 0.068301 0.149004
let 0.561589 0.757100 0.677853 0.223305 0.905582 -0.087252 0.266595 -0.085078 0.398029 -0.023239
determined 0.725809 -0.087853 -0.046005 0.549346 0.632376 0.375073 0.636163 0.197962 0.720715 0.408492
wife 0.012947 0.289588 0.574218 0.193295 0.584317 0.102336 0.513721 0.682957 -0.014920 0.415522
nice 0.272867 -0.136855 0.257519 0.638967 0.721944 0.235703 0.763865 0.206094 0.459916 0.262733
She 0.790377 0.087286 0.110534 0.116594 0.545418 -0.034243 0.647183 0.273841 0.517084 0.575319
told 0.704548 0.618440 0.056079 0.405710 0.312085 0.501007 0.580426 0.534351 0.479493 0.530899
dinner 0.696797 0.629839 0.369003 0.425842 0.522594 0.456964 -0.121516 0.332508 0.735318 0.568288
Next 0.287294 0.265498 0.533585 0.203558 0.398493 0.640987 0.334301 0.505160 0.443374 0.107869
Doors -0.064203 0.468993 0.492463 0.305073 0.259359 0.392302 0.720839 0.063075 0.627330 0.278981
problems 0.240479 0.132046 0.590237 -0.102546 0.739137 0.427426 0.648830 0.283287 0.171682 0.700221
daughter 0.636803 0.488680 -0.004030 0.040849 -0.076483 0.172692 0.765899 0.327102 0.706252 0.726059
how -0.170064 0.794039 -0.034738 0.160568 0.529296 0.584475 0.387129 0.676483 0.277256 0.294411
learned 0.219223 0.219544 0.744323 0.440559 0.106106 0.506919 0.736211 0.365595 0.030722 0.628846
word 0.097576 -0.029726 0.796804 0.657311 0.631502 0.630138 0.530411 0.542341 0.107839 -0.004905
Wont 0.681611 0.704311 0.766483 0.034278 0.494448 0.073295 0.221688 -0.104739 0.464877 0.285054
act 0.457240 0.089196 0.386134 0.849176 0.092739 0.253340 0.667226 0.013036 -0.048140 0.383208
normally 0.492943 0.516256 -0.060597 0.256205 0.835265 0.271204 0.362166 0.176715 0.585573 0.135786
bed 0.382212 0.226754 0.056867 0.604219 0.205813 -0.013922 0.618536 0.181577 0.731109 0.552935
went 0.664910 0.051009 0.504989 -0.041518 0.158904 0.068006 0.770596 0.547900 0.333097 0.266550
living 0.578314 0.580963 0.207026 0.559001 0.642372 0.182233 0.713655 0.336663 0.287943 0.040516
room 0.359922 0.217115 0.317134 0.536527 0.474945 0.183024 0.582874 0.042086 0.793767 -0.040144
catch 0.742700 0.272753 0.791295 0.786747 0.063880 0.602867 0.110790 0.473910 0.223840 0.056055
report 0.253766 0.447429 0.620117 0.080618 0.017734 0.031473 0.786921 0.727598 0.126055 0.688668
evening 0.394408 0.399324 0.326965 0.688722 0.495346 0.474704 0.083242 0.475545 0.291173 0.668457
news 0.706712 0.693080 0.717551 0.403847 0.494782 0.261694 -0.216420 0.469368 -0.028293 0.236075
finally 0.402395 -0.007667 0.115784 0.348510 0.558664 0.073160 0.560187 0.486402 0.039383 0.586369
birdwatchers 0.523766 0.791442 0.677548 0.068963 0.613490 0.772586 0.346691 0.026438 -0.108325 0.046968
everywhere 0.377834 0.044840 0.581548 0.569261 0.671961 -0.108224 0.749190 0.375920 0.534068 -0.012984
reported 0.347734 0.696384 0.333103 0.451564 0.218679 0.323170 0.616782 -0.024185 0.122214 0.605053
nations 0.275268 0.773398 0.685053 0.105860 0.338845 0.347377 0.836420 0.582857 0.319041 0.632824
behaving 0.072237 0.002501 -0.023548 0.256510 0.043420 0.601608 0.009195 0.474695 0.618925 0.447768
unusually 0.808479 0.669240 0.691060 0.155430 0.887682 0.135369 0.084936 0.381107 0.071188 0.024784
Although 0.264868 0.282924 0.518485 0.280091 0.692749 -0.012266 0.382496 0.622293 0.474392 -0.125007
hunt 0.358081 0.303640 0.791109 0.274638 0.027225 0.601039 0.181821 -0.068799 0.016397 0.343716
night 0.138786 0.223794 -0.153560 0.631380 0.481995 0.539002 0.068123 0.628039 0.315557 0.417619
are 0.617747 -0.163420 0.647159 0.507440 0.155896 0.698609 -0.207252 0.125488 0.586343 0.468828
ever 0.400752 0.045414 0.731524 0.508326 0.106379 0.496968 0.230804 0.440299 -0.207695 0.516275
hundreds 0.432760 0.357786 0.607180 -0.157821 0.169219 0.037405 0.265879 0.223818 0.665627 0.584002
sightings 0.342142 -0.240450 0.395362 0.288869 0.519254 0.633153 0.352104 0.606380 0.579830 0.319582
birds 0.308687 0.171167 0.124987 -0.139315 0.401989 0.410387 0.421966 0.651712 0.427230 0.407380
flying 0.700525 0.643811 -0.077465 0.038126 0.208166 0.098256 0.205588 0.817136 -0.034454 0.309815
every -0.004640 0.678164 -0.057777 -0.131137 0.306545 0.003679 0.660101 0.413619 0.600549 0.608322
direction -0.234539 0.553824 0.151063 0.232471 0.488821 0.498630 0.379491 0.661356 0.260782 0.651116
since 0.561141 -0.105066 0.110298 0.649289 0.177932 0.589728 0.571395 0.407044 0.635952 0.541635
sunrise 0.675949 -0.002885 0.568028 0.192818 0.108914 0.334047 0.209330 0.028936 0.219802 0.444204
Experts -0.057289 0.697973 0.067309 0.544390 0.796985 0.057944 0.293812 0.278487 0.400176 -0.123292
unable -0.079428 -0.194615 0.630257 0.638767 0.631017 0.391894 0.534762 0.326933 -0.074184 0.740762
explain 0.610397 0.745540 -0.028567 0.150390 0.506093 0.277120 0.457111 0.352982 0.382575 0.073184
suddenly -0.032071 0.338468 0.542136 0.488939 0.470189 0.471445 0.045388 0.228163 0.313512 0.338094
sleeping -0.159058 0.458828 -0.060190 0.444613 0.621485 0.154275 0.559941 0.051313 0.462149 0.733567
pattern -0.174237 0.551916 0.220753 0.805845 0.385211 0.668343 0.703946 0.099121 0.041653 0.380138
newscaster -0.039507 0.122475 0.026831 0.791428 0.687283 0.066258 0.215839 0.359462 0.238314 0.435969
allowed 0.616962 -0.170792 0.604850 0.665862 0.685683 0.300909 0.642625 0.287401 -0.145349 -0.107773
grin 0.119882 0.390619 -0.003561 0.557479 0.768078 0.520924 0.174870 0.057180 -0.029131 0.489028
Jim 0.351904 0.586006 0.316254 0.302704 0.694204 0.227447 0.672032 -0.045972 0.169026 0.016735
McGuffin 0.486954 0.232901 0.234669 0.570781 0.539761 0.342932 0.366767 0.188318 -0.029152 0.166166
weather 0.202475 0.597292 0.401366 0.578256 -0.011474 -0.023555 0.658690 0.131120 0.454224 0.126234
Going -0.181294 0.142692 0.606640 -0.168249 -0.061596 0.424152 0.666717 0.748023 0.643189 0.667034
showers 0.370787 0.192023 0.522173 0.084904 0.470062 0.578218 0.375388 0.033104 0.548479 0.279842
tonight 0.374752 0.409571 -0.135677 0.461706 -0.078100 0.483042 0.533210 -0.091152 0.610795 0.786177
Well 0.475276 0.246064 0.398064 0.314164 0.170508 0.112486 0.042887 0.201837 0.843722 0.178784
Ted 0.038598 0.150183 0.759507 0.427488 0.100093 0.572897 0.276720 0.010783 0.756240 0.535170
weatherman 0.387414 0.277263 0.274357 0.793245 0.127861 -0.022780 0.596239 0.379826 0.189569 0.511886
dont 0.817619 0.079792 0.539161 0.102457 -0.102561 0.582727 0.215915 0.412114 -0.176966 0.598742
only 0.289332 0.787390 0.102728 0.505270 0.038006 0.216357 0.247648 0.228490 0.340024 0.175477
acting 0.409296 0.032674 0.404072 0.758362 0.547283 -0.004261 0.258249 -0.005264 0.063864 0.633232
oddly 0.768241 -0.070316 0.466633 -0.062195 0.562978 0.058519 0.483893 0.302904 0.047111 0.866518
Viewers 0.053733 0.727273 0.589946 0.049552 0.166032 0.006954 0.482134 0.538276 0.088294 0.364786
far -0.068784 0.680904 0.432093 0.405121 -0.047768 0.690070 0.475663 0.545182 0.173779 0.653796
apart -0.118300 0.407152 0.377449 0.746031 0.150696 0.660969 0.379744 0.074255 0.549833 0.255975
Kent 0.744223 0.409344 0.146986 -0.059695 0.750824 0.517497 0.567396 -0.038210 0.165541 0.497555
Yorkshire 0.067296 0.200755 0.380332 0.147639 0.498195 0.035653 0.054362 0.043152 0.761792 0.780125
Dundee 0.771941 -0.074597 0.787888 0.271136 0.844496 0.073991 0.769179 -0.134583 0.605835 -0.108901
phoning 0.447697 0.633113 0.607275 0.758248 0.631003 0.016783 -0.063391 -0.043486 0.566446 0.466191
tell 0.961913 -0.024630 0.055748 0.187204 0.308417 -0.010343 0.337551 0.206422 0.229169 0.751202
instead 0.519028 -0.005392 0.140896 0.736519 0.193104 0.108143 0.662852 0.343897 -0.089268 0.774866
rain 0.283853 0.168150 0.456085 0.531108 0.632605 0.160625 0.070698 0.572673 0.071800 0.251644
promised 0.163935 0.194755 0.205250 -0.003270 0.369800 0.619054 0.376021 0.718011 0.092116 0.142708
yesterday 0.112572 0.369925 0.251373 0.102913 0.012590 0.468522 0.676890 0.491001 0.396437 0.743108
theyve -0.051546 0.078520 0.477591 0.096346 -0.002450 0.705539 0.545858 0.301702 0.645321 0.487272
downpour 0.334328 0.282558 0.801097 0.097364 0.139894 0.053076 0.569901 0.390460 0.577382 0.202079
shooting 0.751423 0.774856 0.062273 0.220585 0.543226 -0.040234 0.343487 0.558145 -0.031457 0.421612
stars 0.551559 0.522011 0.522572 0.816989 0.609718 -0.096854 0.244351 0.228108 -0.151030 0.221318
Perhaps -0.048382 0.429131 0.138303 0.661609 0.482124 0.620777 0.563706 0.087044 0.224967 0.405134
Bonfire 0.754785 0.362267 0.804244 0.177241 -0.098955 0.360022 0.629972 0.402757 0.436986 -0.039968
Night 0.264514 0.662813 0.050710 0.361744 0.716831 0.447174 0.199628 0.386363 0.467331 0.375466
early 0.518699 0.718914 0.591651 0.273599 0.703816 0.091188 0.277242 0.325556 -0.108615 0.640668
week 0.607505 0.621871 0.222631 0.410378 -0.044620 0.193767 0.467712 0.072226 0.302794 0.386684
folks 0.507742 0.131905 0.626592 0.523907 0.244784 0.462766 -0.019149 0.402652 -0.015920 0.443221
can -0.139032 0.424006 0.338426 0.584248 0.283142 0.207929 0.728386 0.425554 -0.019464 0.875178
promise 0.605011 -0.001306 0.105183 0.804337 0.646135 0.057294 0.105508 0.735894 0.135447 0.058061
wet 0.626265 0.050555 0.630935 0.550468 0.637529 0.369319 0.511799 -0.206140 0.567223 0.722458
frozen 0.488826 0.394294 0.017949 0.776321 0.502513 0.221929 0.592736 0.048714 -0.013528 0.336967
armchair 0.318438 0.816587 0.225442 0.474002 0.332676 0.083838 0.195500 0.284209 0.747649 -0.061698
Shooting 0.577490 -0.015951 0.893192 0.325834 0.068935 0.562447 0.133260 0.454370 0.139515 0.192738
Britain 0.206315 0.513084 0.607029 0.323549 0.163247 0.359651 0.543314 0.427235 0.644454 0.028660
Owls 0.086230 0.042578 0.070780 0.461981 0.269996 0.326097 0.894828 0.133935 0.604903 0.347056
Mysterious -0.087458 0.589220 0.373689 0.699797 0.176603 0.155133 0.071829 0.374737 0.595104 0.441678
place 0.475372 0.575665 0.166698 0.391737 0.782901 -0.049673 0.034363 0.004558 0.405350 0.731188
whisper 0.520632 0.199482 0.195688 0.199217 0.744616 0.380989 0.424327 0.679231 -0.103158 0.505355
carrying -0.039654 0.155195 0.638273 0.196420 0.458086 0.252527 -0.068664 0.766105 0.801837 0.726362
two 0.234358 0.443682 0.244873 0.122044 0.570020 0.740789 0.031653 -0.042153 0.690566 0.131352
cups -0.073062 -0.044016 0.514191 0.797436 0.254045 -0.016082 0.649014 0.316891 0.883459 0.041820
tea 0.364456 0.547804 0.563448 0.060875 0.523518 0.375376 0.386351 0.138691 0.445278 0.204372
cleared 0.442614 0.238240 0.528308 0.780853 0.460244 0.792355 -0.057664 0.193000 0.508236 0.493841
throat 0.851327 0.189130 0.677337 -0.044811 0.386333 -0.055616 0.312317 0.349431 0.487642 0.264229
nervously 0.447991 0.100263 0.257507 0.699565 0.264572 0.491615 0.299296 0.661882 0.077669 0.739051
Er 0.177894 -0.005403 0.192206 0.670860 0.912815 0.315560 0.235123 0.683984 0.178536 0.293410
Petunia 0.472480 -0.071618 0.935721 0.235014 0.485938 -0.053474 0.144108 0.666290 0.456854 0.224068
havent 0.415757 0.165338 0.056691 0.094037 0.111803 0.467822 0.779371 0.596916 0.398212 0.625287
your 0.684579 0.454707 0.284194 0.041158 0.602662 0.743770 0.431136 -0.027303 0.146824 0.068311
lately 0.413208 0.494824 0.157916 0.693400 0.192917 -0.060697 0.033285 0.858094 0.560425 0.077343
expected 0.559419 0.718074 0.433145 0.475659 0.798178 0.053810 -0.058706 0.258120 0.292071 0.192747
shocked 0.352296 0.646489 0.586596 0.640667 0.032253 0.541724 -0.030668 0.408292 0.473440 0.585682
angry 0.210731 0.530205 0.185101 0.201518 0.471658 0.085471 0.046166 0.506709 0.765490 0.276893
After 0.269190 -0.072606 0.342638 0.747124 0.043378 0.682417 0.609207 0.179332 0.198453 0.560958
No 0.750707 0.468657 -0.073389 0.220572 0.032204 0.715653 0.288050 0.111871 0.781683 0.108275
sharply 0.722675 0.296071 0.568016 0.459690 -0.066799 0.732033 0.559941 -0.045051 -0.068986 0.510580
Why 0.092800 0.215999 0.686462 0.607639 0.844847 0.865466 0.211454 -0.009678 0.061063 0.198428
Funny 0.652706 0.140193 0.627281 0.465808 0.527555 -0.024971 0.197547 0.701042 0.130381 0.087794
stuff 0.364765 -0.073497 0.240540 0.815635 0.401742 0.835486 0.323955 0.725013 -0.095056 -0.050993
mumbled 0.305798 0.579305 0.769569 0.004857 0.102100 0.367760 0.070400 -0.027843 0.118529 0.908770
funnylooking 0.187802 0.530232 0.246974 0.857794 0.660765 0.219517 0.155496 0.545964 -0.163731 0.777267
So 0.714261 -0.076381 -0.115588 0.793398 0.125518 0.559738 0.137888 0.717326 0.681537 0.211169
maybe 0.527019 0.268877 0.324985 0.536248 0.415898 -0.005528 0.338852 0.608851 0.018594 0.782047
do -0.070565 0.363935 0.272268 0.156363 0.743426 0.483461 0.123555 0.716884 0.031501 0.832305
crowd 0.676140 0.626532 -0.078755 0.581078 0.410110 -0.218713 0.817231 -0.065320 0.703794 0.203170
sipped 0.302428 0.846886 0.518509 0.168630 0.531656 0.086308 0.015221 0.629852 0.066597 0.446119
through 0.738385 0.005390 0.298193 0.499915 0.250141 0.616759 0.778417 0.094521 0.517477 0.237274
pursed -0.173816 0.535473 0.248504 0.668030 0.669714 0.772863 0.391194 0.512226 0.614353 0.278172
lips 0.131545 0.570864 0.273247 0.799885 0.003115 0.556088 0.002564 -0.005697 0.678726 0.842414
whether 0.695450 0.010459 0.672550 0.317218 0.215451 0.706549 0.277566 0.609333 0.022154 0.174672
dared 0.783380 0.189433 0.837275 0.482897 0.409469 0.065937 -0.075409 0.748189 0.267881 0.280546
decided 0.267638 -0.156423 0.654563 0.528501 0.043220 0.586145 0.198315 0.674419 0.395946 0.293915
dare 0.741944 0.122967 0.148270 0.380131 0.149540 0.589824 0.378173 0.275379 -0.006549 0.465962
Instead 0.471366 0.582031 0.443218 0.706009 0.362663 0.099945 -0.160707 0.340263 0.666806 0.320552
casually 0.598237 0.102769 0.668637 0.820223 0.679078 0.265798 -0.137077 0.164731 0.374681 0.701354
Their 0.372891 0.732322 0.431889 0.432058 0.713627 0.482700 0.057944 0.137126 0.539002 0.420038
Dudleys 0.118615 0.147719 -0.085323 0.595343 0.749799 0.672261 0.563992 -0.056393 0.246017 0.631097
age 0.791925 0.298232 0.235532 -0.031437 0.669041 0.119808 0.419071 0.729870 0.218463 0.233628
wouldnt 0.389246 0.553079 0.711177 0.646805 0.626231 0.143637 0.391811 0.328663 0.650766 0.062693
suppose 0.138366 0.773956 0.161118 0.615742 0.798175 0.263816 0.353829 0.008183 -0.106103 0.780497
stiffly 0.016066 0.572153 0.742425 0.392155 0.817179 -0.031983 -0.008694 0.792836 0.017039 0.179653
Whats 0.024334 0.089621 0.147582 -0.122626 0.792615 0.751733 0.004244 0.484289 0.457834 0.817343
Howard 0.197319 0.073643 0.730361 0.107898 0.246975 0.414127 0.423595 0.481655 0.690125 0.211202
isnt 0.391376 0.038457 0.589494 0.248932 0.902744 0.201815 0.649295 0.401257 0.407896 0.556062
Nasty 0.231971 0.169765 0.758409 -0.011490 0.193892 -0.193258 0.706291 0.764154 0.607789 0.462934
common 0.732692 0.513077 -0.057876 0.536528 0.819234 -0.088982 0.423400 0.064787 0.433065 0.623235
ask 0.414632 0.263385 0.839235 0.045585 0.212981 0.313432 0.328328 0.543739 0.041568 0.539633
Oh 0.148650 0.613291 0.270671 0.811666 0.133882 0.518589 0.130884 0.554255 0.113144 0.067362
heart -0.083195 0.444012 0.835096 -0.000741 0.070385 0.297397 0.114517 0.374984 0.691169 0.564917
sinking 0.349266 0.469329 -0.015186 0.091788 0.898786 0.509899 0.053123 0.465258 0.210232 0.113774
horribly 0.052623 0.071071 0.675849 0.295792 0.366174 0.095393 0.449764 0.303489 0.478529 0.401110
Yes 0.549103 0.646077 0.115459 0.825614 0.179312 -0.016556 0.161174 -0.053354 0.778880 0.508414
agree 0.418985 0.475124 0.461778 0.823775 0.588273 0.250572 0.137513 0.322216 0.536570 -0.000369
subject 0.116170 0.448469 -0.008405 0.617313 0.606122 0.600984 0.370001 0.051747 -0.047321 0.643790
upstairs 0.787504 0.006733 0.297724 0.726549 0.675547 -0.097028 0.763922 -0.004760 0.658973 0.184024
While 0.135475 0.894758 0.347790 0.003162 0.480259 0.069823 0.941154 0.265457 0.047921 0.040560
bathroom -0.024528 0.349075 -0.045327 0.701992 0.004104 0.758630 0.644779 0.221868 0.791200 0.266048
crept 0.032163 0.040971 0.554091 0.896336 0.223033 0.189393 0.314388 0.775424 0.196250 0.144967
bedroom 0.642067 0.864342 0.122472 0.853377 0.238774 -0.061036 0.229327 0.754150 0.359600 -0.058574
peered 0.739763 -0.086052 0.542465 0.431646 0.134362 0.845676 0.506826 0.187200 -0.035272 0.670225
front 0.081224 0.586817 0.173742 0.375107 0.183778 0.545626 0.776323 0.063212 0.547322 0.511849
staring -0.082165 0.609672 0.591945 0.242792 0.298484 0.585650 0.212236 0.046179 0.696000 0.447168
waiting 0.514545 0.832027 0.511206 0.061088 0.608751 -0.005535 0.579713 0.413120 0.074074 0.192631
Could 0.077442 0.847076 0.800768 0.029175 0.656514 0.260757 0.289696 0.290999 0.004539 0.457151
related 0.494638 0.328257 -0.054868 0.523931 0.441766 0.224984 0.631178 0.247905 0.737248 0.154409
pair 0.576854 0.243407 0.332113 -0.135011 0.094312 0.651779 0.176207 0.163757 0.831477 0.763980
well 0.674568 0.450055 0.225338 0.041993 0.322708 0.564201 0.215618 0.179953 0.634951 0.162018
asleep 0.079722 0.728258 0.138705 0.297136 0.268290 0.322738 0.110244 0.312984 0.519961 0.515595
quickly 0.048504 0.669129 0.791133 0.193951 -0.032655 0.611810 0.619746 0.146339 0.551181 0.488296
lay 0.118942 0.597844 0.598273 -0.120497 0.535315 0.397288 0.282211 0.430370 0.609234 0.462003
awake 0.256922 0.682693 0.491461 0.086285 0.408046 0.719878 0.391801 0.426928 0.595948 0.318004
turning 0.587751 0.042923 0.702918 0.543083 0.869319 0.242599 0.170689 0.519478 0.120275 0.428909
His 0.280893 0.014635 0.747738 0.143624 0.105275 0.539967 0.095890 0.500826 0.333721 0.500014
comforting 0.837333 -0.073616 -0.021946 0.151613 0.518881 0.382372 0.417902 0.583080 -0.018736 0.789350
come 0.366573 0.096102 0.325228 0.836984 0.048005 0.530100 0.231204 0.622697 0.062141 0.447063
near 0.692969 0.318246 0.328423 0.140983 0.535588 0.794961 0.465055 -0.066473 0.070379 0.527859
kind -0.043106 0.807940 0.310594 -0.088390 0.869146 0.264261 0.748457 0.054123 0.336677 0.776783
mixed 0.491600 0.026963 0.875983 0.615323 0.498201 0.142054 0.357722 0.456815 0.699773 0.583567
going 0.666474 0.395508 0.182909 0.419778 0.486860 0.351687 0.303494 0.150790 0.266021 0.427663
yawned 0.002993 0.258596 0.741999 0.800853 0.418987 -0.040048 0.742685 0.119234 0.796424 0.639792
turned 0.037155 0.194411 0.431430 0.029332 -0.042426 0.098658 0.626923 0.147819 0.479518 0.764602
affect 0.370828 0.664823 0.055018 0.278015 0.266898 0.678531 0.026707 -0.255803 0.665622 0.761492
How 0.391115 0.321815 -0.040393 0.827030 0.042115 -0.069962 0.471099 0.371169 0.550178 -0.050744
wrong 0.276966 0.848094 0.669651 0.717194 0.012971 -0.090774 0.030099 0.197040 0.061134 0.259717
drifting 0.398745 0.261300 0.163545 0.626073 0.468689 0.539950 -0.002925 0.692837 0.118329 0.310765
sleep 0.719078 0.640904 0.553841 0.247724 0.076942 0.366536 0.031033 0.063657 0.592574 0.067810
showing 0.640489 0.675014 0.385528 0.330792 0.033121 0.017369 0.698061 -0.125561 -0.038628 0.223515
sleepiness 0.416564 0.540496 -0.031663 0.764387 0.077341 0.228113 0.616266 0.209262 0.099043 0.103116
statue 0.795618 0.634195 0.361848 0.556321 0.173859 0.064018 -0.060095 0.108714 0.419524 0.393256
fixed 0.333515 0.715948 0.664415 0.131927 0.612690 -0.259726 0.085913 0.549851 0.724094 0.267990
unblinkingly 0.233209 0.021172 0.665146 -0.054168 0.716039 0.032004 0.142553 0.736079 0.480749 0.079531
quiver 0.198339 0.573773 -0.109932 0.238972 0.387195 0.366374 0.800265 -0.131332 0.518102 0.658011
slammed 0.087015 -0.000096 0.156202 0.641395 0.245843 0.330977 0.547929 0.098962 0.371604 0.423081
nor 0.052350 0.243620 -0.063774 0.393701 0.096445 0.589103 0.253771 0.782279 0.468027 0.274298
swooped 0.726208 0.373509 0.015860 0.649782 0.482050 0.035122 0.067975 0.178411 0.123288 0.522476
In 0.180612 0.220367 0.685085 0.184876 0.040999 0.377146 0.018427 0.187286 0.315372 0.656255
midnight 0.525081 0.447952 0.576014 -0.022312 -0.059686 0.053334 0.706360 0.083501 0.454248 0.387984
A 0.032414 0.693364 0.754852 0.518641 0.199367 0.584835 0.459845 -0.141462 -0.099325 0.283505
appeared 0.501900 0.520251 0.694426 0.179348 0.186596 0.027701 0.733937 0.367507 0.324457 -0.201028
watching -0.062770 0.266420 0.744693 0.572629 0.260736 0.567397 -0.132111 -0.038129 0.521828 0.779536
silently 0.691949 0.430570 0.654760 0.416623 0.396112 0.382167 0.354563 0.485372 0.243575 -0.046224
popped 0.051664 0.526410 0.623952 0.505716 0.049524 -0.057998 0.509845 0.644751 -0.169334 0.370881
tail 0.072488 0.467263 0.664095 0.040826 0.604753 0.368976 0.080408 0.225982 0.553783 0.255891
twitched 0.585052 0.593047 0.004124 0.203338 0.777588 0.673795 0.086521 0.413260 0.626939 -0.181323
narrowed 0.439841 0.592777 0.392583 0.675860 0.723942 0.501189 0.530267 0.363388 0.207810 0.044549
Nothing 0.404494 -0.077947 0.177683 0.490393 0.124511 0.307273 0.840250 0.413354 0.616202 0.075292
tall 0.273402 0.583256 0.122599 0.821808 -0.003497 0.357568 0.797526 0.240971 0.215589 0.773161
judging 0.077708 0.056525 0.167593 0.279165 0.741749 0.366824 0.598681 0.586949 0.552406 0.309910
silver 0.069310 0.120081 0.798310 -0.005606 0.190255 0.402967 0.276670 0.024527 0.782065 0.438628
hair 0.355941 0.060616 0.066991 0.631178 -0.085416 0.802486 0.595634 0.527350 -0.040107 0.369790
beard 0.236151 0.527853 0.477082 0.221899 0.507759 0.283024 0.690809 0.098440 0.568433 0.489387
both 0.253930 0.805844 0.266413 0.406490 0.204631 0.535134 0.549433 0.710168 0.399053 -0.049977
long -0.292013 0.707790 0.574736 0.580109 0.658077 0.374703 -0.029263 0.609504 0.111347 0.453036
enough -0.005141 0.319607 0.171148 0.368457 0.238489 0.349855 0.445411 0.356603 0.757361 0.068728
tuck 0.767271 0.188441 0.325422 0.033232 0.410277 0.773895 0.369349 0.704265 -0.054581 0.024322
belt -0.013520 0.491902 0.220814 0.159924 0.335623 0.734932 0.095375 0.158607 0.628234 0.323591
robes 0.410078 0.693189 0.081283 0.679989 0.333848 0.631821 0.338567 0.320828 0.172653 -0.028088
purple 0.526829 0.490802 0.518314 0.541194 0.421428 0.439206 0.001137 0.336001 -0.155150 0.530330
swept -0.099207 0.386152 -0.097127 0.857729 0.509579 0.737206 0.382462 0.588848 0.059360 0.069026
highheeled 0.338070 0.647519 0.722384 -0.087281 0.295793 0.364235 0.158320 0.852692 0.008831 0.145287
buckled 0.721802 0.418862 0.568483 0.138521 0.402578 0.176109 0.001954 0.628734 -0.002780 0.005769
boots 0.206513 0.745615 -0.105629 0.173363 0.147807 0.417022 0.493819 0.348911 0.365801 0.398820
blue 0.599819 0.140775 0.098167 0.385167 0.383599 0.647604 0.392972 0.612024 0.023960 -0.023770
bright 0.490710 0.690462 0.769686 0.310014 0.467883 0.411447 -0.085184 0.299237 -0.193333 0.504788
sparkling 0.177367 -0.004838 0.204823 0.572379 0.609978 0.758656 0.437069 0.735030 -0.120868 0.384751
behind 0.256305 0.205971 0.111258 0.520400 0.246215 0.406959 0.051201 0.696825 0.284255 0.624278
halfmoon 0.352177 0.684463 0.640930 0.065202 0.599798 0.461350 0.168978 0.449448 0.025830 0.535948
spectacles 0.187268 0.519818 -0.052481 0.533939 0.220379 0.747606 0.713686 -0.041548 0.525470 0.181302
nose -0.037602 0.051530 -0.099120 0.419598 0.361449 0.726508 0.720431 0.383318 0.755811 0.368367
crooked 0.089131 0.021595 -0.086781 0.136893 0.631425 0.487635 0.665777 0.770943 0.771570 0.245452
broken -0.057116 0.725845 0.073189 -0.029144 0.398542 0.283583 0.501022 0.118747 0.639205 0.718026
least 0.009161 0.642235 -0.093860 0.126628 0.646935 0.477737 0.515071 0.429592 0.057856 0.361248
mans 0.102290 0.815583 0.510790 0.044176 0.595635 0.428518 0.380916 0.106588 -0.067557 0.484415
Albus 0.531604 0.018484 0.405214 0.409003 0.875352 -0.061632 -0.114415 0.462497 0.263279 0.615558
Dumbledore 0.354682 0.842750 0.723814 0.642073 0.223205 0.358677 0.328373 -0.043815 -0.153310 0.542509
where 0.396899 0.208376 0.411041 -0.034216 0.651778 0.543437 0.289729 0.753927 0.489249 0.678693
unwelcome 0.786454 -0.033622 -0.095179 0.242065 0.048591 0.587612 0.786390 0.345090 0.667772 0.792643
busy 0.405616 0.858209 0.335079 0.404442 0.665464 0.235447 -0.031610 -0.090365 -0.092014 0.806000
rummaging 0.410257 0.266600 -0.001150 0.507656 0.299594 0.073030 0.275169 0.705864 0.397955 0.334080
other 0.029695 0.144031 0.659171 0.367691 0.482995 0.577916 0.089505 0.756048 0.129395 -0.047655
end 0.069737 0.382027 0.410154 0.168614 0.785490 0.455874 0.225740 0.914665 0.101028 0.513749
amuse 0.554706 0.507731 0.667481 0.045972 0.274738 0.406597 0.102497 0.544947 0.009833 0.396683
chuckled 0.515532 0.089123 0.441783 0.468530 0.871712 0.512522 0.176072 -0.108208 0.238438 0.784941
muttered 0.850965 0.323592 0.339106 0.156615 0.017887 0.682228 0.098428 0.744181 -0.029193 -0.001369
known 0.371761 0.512075 0.038993 0.540752 0.645612 0.200587 0.604650 0.725382 0.193430 0.043698
inside 0.189719 0.755945 -0.018790 0.569013 0.669463 0.740161 0.720211 0.160699 0.412391 0.236717
pocket -0.085348 -0.022815 0.268180 0.610213 0.764386 0.731516 -0.044056 0.653150 -0.075596 0.661053
cigarette 0.564526 0.244270 0.114267 0.106619 0.505951 0.221336 0.621991 0.154480 0.352447 0.807057
lighter 0.444692 0.426458 0.675128 -0.069655 0.390674 0.750955 -0.025881 0.508919 0.131897 0.095151
flicked 0.178503 0.621443 0.569196 -0.080900 -0.088864 0.062747 0.676994 0.496708 0.674319 0.503870
held 0.134423 0.558883 0.348317 0.408877 0.160499 0.331013 0.509448 0.856452 0.707323 -0.061914
air 0.750167 0.139072 0.220112 0.146668 0.601155 0.274313 -0.025560 0.699094 0.068117 0.741510
clicked 0.445684 0.062724 0.762069 -0.048308 -0.008292 0.833077 0.101711 0.801394 0.474552 0.592232
nearest 0.432413 0.429321 0.201280 0.001991 0.559197 0.762876 0.217941 0.561039 0.144560 0.203095
lamp -0.046551 0.715780 -0.080640 0.783074 0.524098 0.504505 0.843083 0.101524 0.070508 0.645161
pop 0.032192 0.076651 0.566476 -0.173579 0.747581 0.319754 0.557852 0.640091 0.630289 0.652585
flickered 0.421597 0.624970 0.424023 0.203968 0.491390 0.607082 0.178154 0.354146 -0.002090 0.442920
darkness 0.295941 0.532783 0.353364 -0.165965 0.643649 0.749044 0.575640 0.730957 0.582691 0.325614
Twelve 0.229445 0.360297 0.743114 -0.101786 0.516219 0.645934 0.641370 0.074287 -0.025376 0.777257
times 0.626334 0.747557 0.113931 0.345132 0.733418 0.068712 -0.134629 0.530510 0.365453 0.626414
PutOuter 0.643774 0.572662 -0.129985 0.651913 0.720824 0.582694 0.091994 0.621384 0.002092 0.613951
lights 0.537788 0.439297 0.572060 -0.089694 0.550046 0.794332 0.163666 0.158099 0.195281 0.213933
whole 0.376228 0.401787 0.209512 0.401504 0.395761 0.345565 0.245972 0.359036 0.227972 0.135906
pinpricks 0.160824 0.425019 0.408487 0.140780 0.243301 0.050846 0.642614 0.610966 0.777606 0.058134
distance 0.816867 0.090514 0.119247 0.049662 0.712410 0.076475 0.521759 0.789366 0.082357 0.062039
beadyeyed -0.053580 0.422394 0.806085 0.202536 0.459062 0.097953 0.593973 -0.010731 0.340704 0.530051
able 0.686261 0.754177 0.212895 0.061498 -0.011647 0.251485 0.201249 0.518268 0.390472 0.838787
pavement 0.046881 0.665459 0.347915 0.502238 0.385720 0.703925 0.473672 0.086124 0.365407 0.310390
slipped 0.737972 0.691941 0.240917 0.553517 0.546449 0.531942 -0.169981 -0.051781 0.453318 0.288978
moment 0.121458 0.490305 0.469931 0.676546 0.226437 0.637032 0.011061 0.288440 0.553619 0.818902
spoke 0.493522 0.102596 0.567460 0.743562 0.409802 0.338964 0.134052 0.631584 0.447771 0.405859
Fancy -0.044654 0.753991 0.070177 0.831655 -0.060621 0.644533 0.510445 0.672603 -0.066839 0.510409
seeing 0.124413 0.371894 0.866492 -0.001636 0.263134 0.072206 0.174528 0.272156 0.467875 0.407850
here 0.388477 0.827989 0.851508 0.204391 0.162502 0.091732 -0.031187 -0.021507 0.365040 0.731226
Professor 0.381643 -0.055517 0.508289 0.784708 0.361662 0.140074 0.827216 0.530238 -0.008151 0.241079
McGonagall 0.037944 0.141994 0.210579 0.753972 0.563513 0.429269 0.373043 0.128240 0.736267 0.066527
smiling 0.316691 0.423109 0.147142 0.687401 0.645357 0.396476 0.011625 0.269359 0.212249 0.185973
rather 0.538721 0.184990 0.523847 0.464260 0.040951 -0.122006 0.873341 0.274520 0.827712 0.212133
severelooking 0.197648 0.458318 0.793143 0.005476 0.553795 0.097028 0.761798 0.723211 0.471449 -0.018315
woman 0.414627 0.598347 0.100062 0.588850 0.203772 -0.023103 0.624562 0.264561 0.496753 0.224728
square 0.015895 0.503456 0.052335 0.684241 0.331824 0.740927 0.813777 0.670952 0.294052 0.056992
glasses 0.363120 0.510145 0.229208 0.337172 0.478311 0.119850 0.115532 0.123292 0.440757 0.626547
exactly 0.247826 0.226349 0.420456 0.629464 0.432168 -0.079764 0.812463 0.615299 0.075418 0.689263
shape 0.028150 0.357219 0.350998 0.241447 0.666556 0.067103 0.608050 0.815714 0.712151 0.162157
emerald 0.603446 0.535291 0.557082 0.725155 0.357162 -0.031331 0.386401 0.538000 -0.029538 0.705322
Her 0.114911 0.632616 0.420165 0.573461 0.217564 -0.004269 0.225408 0.781752 0.082163 0.710182
black 0.161563 -0.035298 0.406765 0.799051 0.832674 0.226724 0.664596 0.227024 0.206813 0.075017
drawn 0.586984 0.057379 -0.010089 0.749287 0.758265 0.249584 0.078214 0.418712 0.303998 0.447020
tight 0.464347 0.276013 0.391904 0.206621 0.836517 0.600711 0.024608 -0.021478 0.784917 0.032293
distinctly -0.113347 0.193955 0.599619 0.387830 0.486173 0.359792 -0.007548 0.326718 0.751961 0.695432
ruffled 0.664881 0.470756 0.485837 0.139412 0.459782 0.725542 -0.070925 0.320214 -0.066572 0.717652
asked 0.724703 -0.104732 0.559820 0.480166 0.611408 0.776859 0.495392 0.230497 0.212235 -0.113192
My 0.580632 0.614608 -0.094426 0.238988 0.379241 0.670021 0.635090 0.397438 0.405453 0.366260
ve 0.053846 0.791568 0.331572 0.451041 0.755817 -0.029428 0.599628 0.245125 0.338529 0.423332
sit 0.409751 0.420760 0.450148 0.697046 0.004792 0.057750 0.236796 0.656726 0.121019 0.324875
Youd 0.110846 0.249305 0.674911 0.063043 0.762508 0.166330 0.196206 0.538220 0.090790 0.743056
stiff 0.142483 0.521498 0.327601 0.381177 0.727374 0.063140 0.348127 0.562066 0.707489 0.197116
brick 0.055600 0.057943 0.705043 0.414557 0.168415 0.582704 0.424226 0.285474 0.281353 0.626627
All -0.032416 0.107798 0.189909 0.602062 0.744495 0.164483 0.389279 0.786659 0.555607 0.004798
dozen 0.644032 0.306665 -0.058987 0.241042 0.291808 0.466413 -0.000049 0.703280 0.851090 0.034972
feasts 0.499281 -0.033607 0.205245 0.051454 0.235560 0.592814 0.267539 0.512036 0.796585 0.679706
parties 0.588067 0.271437 0.794235 0.795652 0.526574 0.097929 0.661981 0.357851 0.134982 0.712918
sniffed 0.286560 0.046398 0.408023 0.261323 0.408286 0.280477 0.078147 0.608030 0.564209 0.507251
everyones 0.571715 0.627829 0.638444 0.682034 0.518435 0.430529 0.730382 0.520586 0.400461 0.121442
impatiently 0.528197 0.775742 0.642988 0.249943 -0.066322 0.812836 0.374593 0.625893 0.021383 -0.081869
theyd 0.597982 0.104453 0.725913 0.043347 0.312931 0.078623 0.266460 0.276209 0.365374 0.435062
careful 0.181817 0.236571 0.721130 0.404680 0.195056 0.046868 0.309144 0.586379 0.285706 0.423730
somethings 0.537388 0.347847 0.391277 0.253816 0.001524 0.262798 0.585750 0.783604 0.240169 0.776605
dark 0.117019 0.023680 0.485281 0.112475 -0.027503 0.677892 0.687641 0.761201 0.617583 0.663503
livingroom 0.483354 0.462341 0.356454 0.810657 0.047932 0.050253 0.739582 0.862463 -0.113095 0.161401
Flocks 0.336268 0.350810 0.100687 0.791071 0.298683 0.702269 -0.015384 0.508726 0.738686 -0.076861
theyre 0.625708 0.625404 0.834691 -0.048626 0.519948 0.502586 0.053169 0.659620 0.468626 0.048778
completely 0.727845 0.275893 0.127160 0.425599 0.512224 0.542650 -0.045921 0.300857 0.184853 0.446898
bound 0.161544 0.622478 0.374029 0.427336 0.409615 0.093276 0.469632 0.393787 0.554852 0.806355
notice 0.723160 0.122915 0.176526 0.052903 0.133669 0.366205 0.710946 0.360643 0.025713 0.569509
Ill 0.676451 0.662747 0.241638 -0.061545 0.235157 0.109463 0.607569 0.330394 0.859857 0.394369
bet 0.151984 -0.028411 0.274413 0.760574 0.664554 0.550058 0.391214 0.324082 -0.081771 0.686989
Dedalus 0.217602 -0.037984 0.724691 -0.059287 0.530830 0.631499 0.495833 0.420084 -0.095302 0.803654
Diggle 0.630499 0.132452 0.356890 0.730417 0.382855 0.331822 0.731849 0.730006 -0.102392 0.384595
sense 0.694644 -0.055915 0.272916 -0.075522 0.627683 0.353096 0.583143 0.647548 0.623555 0.287468
You 0.213409 0.360038 0.164157 0.054927 0.219647 0.174641 0.685790 0.463390 0.221439 0.497269
cant -0.050893 0.100549 0.530824 0.675825 0.414599 0.600991 0.588636 0.561852 0.530656 0.470053
gently 0.356208 0.685628 0.106512 0.314599 0.257744 0.416091 0.178898 0.627333 0.792657 0.038758
Weve 0.467828 0.811267 0.130232 -0.119936 0.394575 0.384572 0.368365 0.635613 0.261676 0.894172
precious 0.800510 0.085693 0.332453 0.297925 0.105610 0.191189 0.895050 0.261484 0.130710 0.263198
celebrate 0.368789 0.415418 0.427497 0.343786 0.868278 0.714729 0.188889 -0.104475 0.559869 0.755167
eleven -0.065284 0.733495 -0.117233 0.789772 0.761641 0.514909 0.017366 0.255839 0.700090 0.166798
irritably 0.238187 0.895996 0.486985 0.620586 0.120099 0.267530 0.670511 0.191302 -0.008809 0.099450
lose 0.511410 0.656929 -0.057945 0.371760 -0.014443 0.051951 0.515461 0.660054 0.796820 0.427113
heads 0.679382 -0.014016 0.118625 0.437794 0.485128 0.615373 0.641490 0.653796 0.432905 0.256887
downright 0.076088 0.104693 0.256556 0.120763 0.329027 0.594922 0.239863 0.790527 0.258194 0.527991
careless 0.514468 0.175861 0.009558 0.673345 0.233818 0.469585 0.266918 0.571610 0.328624 0.297175
streets 0.282195 -0.041805 0.190240 0.359596 0.275692 0.611747 0.440552 0.668983 0.162133 0.607067
swapping 0.135075 -0.043169 0.190614 -0.026159 0.504218 0.065069 0.509232 0.579304 0.029778 0.928045
rumors 0.011381 0.148845 0.015215 0.710604 0.589573 0.661595 0.359044 0.159955 0.360593 0.455897
threw 0.260308 0.745214 -0.106395 0.242520 0.430096 0.016432 -0.062531 0.294128 0.565333 0.753934
sharp 0.257314 0.634100 0.688237 0.499174 0.431251 0.338287 -0.256175 -0.057959 0.503733 0.249305
sideways 0.782176 0.326991 -0.151227 0.369086 0.185804 0.908826 -0.017779 0.304224 -0.013420 0.148135
glance 0.326581 0.084161 0.098912 0.440463 0.568119 -0.011838 0.395792 0.414572 -0.096294 0.817857
fine -0.108367 0.652043 0.269932 -0.022328 0.581436 0.169967 0.673119 0.419600 0.241402 0.664975
seems 0.507673 0.562942 -0.014691 -0.136481 0.173644 0.769753 0.659685 0.045927 0.318028 0.566013
disappeared 0.149225 -0.102879 0.572499 0.547458 0.417203 0.679775 0.090303 0.068872 0.653307 0.466976
us 0.680334 -0.038407 0.542224 0.169958 0.479568 -0.122458 0.500214 0.176711 -0.033247 0.683402
really 0.556794 0.519039 0.519586 -0.054530 0.711375 0.008418 0.455754 0.376404 0.108354 0.539691
certainly -0.023955 0.175034 0.279848 -0.052604 0.164700 0.544797 0.139237 0.633655 0.562312 0.433221
We 0.444403 0.541655 0.039160 0.694937 -0.154637 0.216682 0.252480 0.609175 0.494726 0.511627
thankful 0.072539 0.046590 0.595025 0.629448 0.016908 0.093389 0.108286 0.734484 0.162483 0.620883
Would 0.558180 0.369635 0.311036 0.545561 0.716277 0.011299 0.653835 0.152430 0.425405 -0.051380
care 0.164442 -0.089806 0.494084 0.791900 -0.014374 -0.144749 0.227934 0.838885 0.348752 0.471173
lemon 0.276861 0.366828 0.231668 0.448374 0.193705 0.197609 0.221594 0.766741 0.487176 0.076113
drop 0.045989 0.385237 0.156654 0.421293 0.759548 0.353632 -0.050804 0.339937 0.803364 -0.030916
Theyre 0.600319 0.392044 0.648549 0.686879 0.358410 0.568597 -0.026243 0.401525 -0.093721 0.118281
sweet 0.454551 0.065622 0.132529 0.567829 0.775827 0.037921 0.132560 0.369662 0.502001 0.200880
Im 0.186209 -0.089513 -0.138990 0.148465 0.468460 0.545595 0.569717 0.514621 0.189853 0.720210
fond 0.501279 0.702232 0.555042 0.513818 -0.037313 0.165655 0.041487 0.028426 0.369597 0.208232
coldly 0.600990 0.655851 -0.186374 0.729263 0.477530 0.388266 0.396010 -0.134155 0.289796 0.677310
drops 0.163145 0.187699 0.058273 0.842210 0.253980 0.281034 0.119559 0.752388 0.813895 0.675575
surely 0.256715 0.768151 -0.104345 0.420066 0.180001 0.526058 0.711002 0.813569 0.396367 0.463789
sensible -0.242662 0.640515 0.583402 -0.034598 0.503635 0.331039 0.697084 0.778844 -0.203222 0.701417
person 0.720012 0.750191 0.030407 0.457569 0.274235 0.439091 -0.108825 0.480907 0.201467 0.165714
call 0.659023 0.659864 0.249086 -0.035225 -0.145698 0.599499 0.072044 0.858217 0.341338 0.270627
KnowWho 0.485766 -0.021265 0.774412 0.337407 0.067422 0.397852 0.214878 0.705980 0.170961 -0.007220
trying 0.226525 0.678655 -0.035077 0.528920 0.793108 0.189764 0.345004 0.049238 0.638559 -0.027936
persuade 0.419860 0.211746 0.391483 0.505394 0.258652 0.242148 0.182113 0.605098 0.031174 0.493260
proper 0.215241 0.566345 0.704753 -0.101945 0.558907 -0.002461 0.466356 0.872068 0.089514 0.049457
Voldemort 0.207219 0.175545 0.132673 0.412506 0.252946 0.237246 0.442280 0.645418 0.316512 0.343656
flinched 0.234563 0.487437 0.502624 0.396710 0.391718 0.491685 -0.072290 0.699126 0.696679 -0.003363
unsticking 0.406553 -0.027407 0.233875 0.095654 0.412981 0.639471 0.727923 -0.083544 0.595175 0.066812
gets 0.402472 0.683219 0.713896 0.262950 -0.050485 0.182139 0.719870 0.466914 0.714351 -0.160286
confusing -0.055693 0.649156 0.635670 0.759204 0.121616 0.382416 -0.134275 0.017455 0.468611 0.237023
we 0.518634 0.152984 0.505526 0.044021 0.310759 0.184768 0.145131 0.278890 0.609196 0.509491
keep -0.185358 -0.081624 -0.006160 0.404220 0.567040 0.835225 0.375946 0.700437 -0.006994 0.712824
frightened 0.453589 0.406587 0.005672 0.155822 0.007282 0.392107 0.436159 0.795413 0.236743 0.568342
Voldemorts 0.320646 0.175379 0.149106 0.471276 0.644560 -0.057924 0.108574 0.594505 0.394283 0.556459
haven 0.108117 0.017571 0.487298 0.102703 0.012467 0.840283 0.723749 0.154391 0.194847 0.387722
t -0.054160 0.623489 0.541948 0.307801 0.623661 0.598123 -0.222896 0.198182 0.689403 0.593876
sounding 0.612442 0.198638 0.779218 0.260697 -0.014602 0.128136 0.144716 0.194653 -0.037587 0.767310
exasperated 0.411399 0.658755 0.601302 0.469941 0.014918 0.146390 0.206917 0.579676 0.485851 0.034537
admiring 0.333340 -0.089918 0.418562 0.115112 0.355955 0.149554 0.764937 0.055378 0.352215 0.685883
youre 0.735590 0.403423 0.394574 0.641177 0.365990 0.599232 0.529264 0.347186 0.271266 0.099121
Everyone 0.555423 0.537302 0.353047 0.079250 0.338642 0.703746 0.529941 0.233286 0.152971 0.008807
knows -0.086009 0.092127 0.672357 0.600827 0.397048 0.854893 0.647675 0.250022 0.160596 -0.004421
YouKnow 0.040951 0.215074 0.306126 0.345586 0.190497 0.293954 0.482056 0.776475 0.639040 0.108474
oh 0.079902 0.232169 -0.004248 0.395991 0.648948 0.825403 0.203369 0.343831 0.311537 0.322916
flatter 0.230250 0.704917 0.365279 0.156328 0.472914 0.203277 0.432936 0.255032 -0.015199 0.787610
calmly 0.594795 0.172472 0.334774 0.351268 0.589822 0.521883 0.010327 0.384689 0.732997 0.069431
powers 0.006354 0.498615 0.424019 0.612795 0.221118 0.049237 0.378254 0.782869 -0.003853 0.178393
will 0.678944 0.282860 0.250360 0.250888 0.168011 0.345094 0.576115 0.362950 -0.071711 0.609293
Only 0.050920 0.333982 -0.120389 0.131009 0.143284 0.851190 0.684737 0.333696 0.511989 0.574982
noble -0.097821 0.177233 0.577870 0.447871 0.766351 0.795939 0.558752 0.419159 0.339354 0.239458
use 0.661210 0.694756 0.259480 0.375467 0.371120 0.341275 0.244119 0.629615 0.118078 0.275893
Its 0.042320 0.625625 0.156457 0.234637 0.618607 0.413889 0.464977 0.184153 0.354485 0.568533
lucky 0.768453 0.634600 0.407457 0.231719 0.084723 0.635156 0.074148 0.089697 0.205080 0.301032
blushed 0.214936 0.433475 0.343152 0.283201 0.597336 0.521509 0.099543 0.748788 0.119416 0.593537
Madam -0.131684 -0.022868 0.212894 0.824612 0.780152 -0.047051 0.280357 0.738959 0.494043 0.620404
Pomfrey -0.023562 0.129061 0.059259 0.665159 0.143983 0.590873 0.014209 0.558393 0.679177 0.495425
liked 0.847626 -0.017456 0.424055 0.225787 0.740805 0.321419 -0.079229 0.321407 0.612846 0.103499
earmuffs 0.389019 0.161677 0.144942 0.587690 -0.109102 0.515978 0.476386 0.131206 0.720763 0.835094
shot 0.124716 0.069358 -0.071272 0.858284 0.661056 0.234309 0.796557 -0.028443 0.841029 0.068087
About 0.727151 0.015635 -0.080422 0.158547 0.403541 0.154774 0.476752 0.309899 0.739726 0.787125
hes 0.610615 0.184736 0.201727 0.650654 0.339931 0.512551 0.059113 0.192648 0.205969 0.507070
reached 0.337381 -0.040678 0.060708 0.198985 -0.065162 0.879502 0.346631 0.258216 0.687823 0.609106
anxious -0.135661 -0.076020 0.567593 0.577653 0.502670 0.615381 0.719065 0.179149 0.777919 0.283177
discuss 0.217503 0.672629 0.012817 0.038782 0.672441 0.295190 0.196343 0.796033 0.078437 0.876573
real 0.009616 0.545476 0.601649 0.821117 0.697126 -0.084461 0.308294 0.567976 0.001527 0.424271
cold 0.437304 0.535269 0.157633 0.532714 -0.172878 0.728446 0.408744 0.286880 0.494105 0.773440
hard 0.029518 0.810683 0.731664 0.271555 0.019307 0.520883 0.117697 0.005513 0.444378 0.072254
neither 0.189488 0.045852 0.001066 0.880979 0.725024 0.509150 0.812519 0.252134 0.685850 0.170242
piercing 0.496575 -0.060235 0.659899 0.560089 0.129315 0.242537 0.763123 -0.033166 0.457554 0.097255
plain 0.090226 0.258580 0.380052 0.129708 0.431454 0.050626 0.004436 0.313913 0.769596 0.839212
everyone 0.590396 0.601513 0.046294 0.120762 0.225373 0.168447 0.194424 0.476031 -0.064554 0.557213
believe 0.036679 0.602136 0.684571 -0.029544 0.675495 0.018431 0.537084 -0.031468 0.518309 0.037746
true 0.235513 0.403684 0.012347 0.403378 0.466401 0.498452 0.434702 0.426032 0.285284 0.307317
choosing -0.006080 0.456341 0.735623 0.228570 0.682085 -0.079329 0.246528 0.449858 0.484418 0.320844
answer 0.234105 0.263135 0.255545 0.671662 0.470663 0.477506 0.068427 0.605993 0.506493 0.578684
pressed 0.268257 0.488265 0.015988 0.360933 0.496969 0.684283 0.687062 -0.023773 0.320133 -0.119714
is 0.555878 0.336189 0.302023 0.299750 0.285195 -0.103361 -0.001035 0.073230 0.290096 0.819394
Godrics 0.911788 -0.009286 0.011551 0.239935 0.673799 -0.063893 0.452641 0.749907 0.180336 -0.063858
Hollow 0.505130 0.103780 0.477016 0.018560 0.148904 0.623150 0.088903 0.268739 0.620976 0.283260
find 0.470741 -0.000619 0.163211 0.680092 0.042414 0.145702 0.889133 0.267435 0.397791 0.455831
rumor 0.316815 0.632140 0.023488 0.703553 0.543688 0.750185 0.109394 0.686133 0.816876 0.110751
Lily 0.830821 0.190485 0.124596 0.242463 0.831997 -0.032551 0.341554 0.525347 -0.118533 0.728666
James -0.003227 0.327330 0.591531 0.727461 0.660685 0.619193 0.470091 0.039105 0.476199 0.286503
bowed 0.415507 0.259556 0.276309 -0.004610 0.551020 0.169272 0.353894 0.696926 0.260361 0.052388
gasped 0.768683 -0.091437 0.338731 -0.052137 0.314072 0.328685 0.456235 0.750292 0.003198 0.684737
patted 0.598804 0.768549 -0.098771 -0.093229 0.754697 0.789253 -0.062222 0.327505 0.091913 0.823402
shoulder 0.718022 0.035636 0.441474 0.104199 0.032176 0.386441 0.524455 0.228707 0.641895 0.069820
heavily -0.047426 0.510877 0.198750 0.794269 0.676677 0.039519 0.163670 0.058752 0.802388 0.182317
McGonagalls 0.524268 0.492657 0.557439 0.168589 0.102157 0.013461 0.432424 0.555869 0.147092 0.289348
trembled 0.755948 0.058983 0.570817 0.315431 0.354211 0.806298 0.306752 0.225430 0.208534 0.265875
Thats 0.337884 0.779353 0.052692 0.531991 -0.102088 0.672563 -0.106674 0.478961 0.737571 0.757386
kill 0.465201 0.821278 0.240630 0.429713 0.056838 0.232935 0.400647 0.302100 -0.039898 0.292340
power 0.645305 0.394583 0.231982 0.721065 0.208256 0.043515 -0.111824 0.516646 0.625970 0.712258
somehow 0.086243 0.696898 0.407627 0.026796 0.356494 0.663340 0.201120 0.416830 0.309175 0.233369
broke 0.416760 0.396459 -0.034078 0.503678 0.384961 0.690930 0.108259 0.684549 0.261453 0.363351
nodded 0.173858 0.224442 0.682102 0.235127 0.750908 0.156175 -0.012144 0.661794 0.270578 0.260957
glumly 0.704654 0.856962 -0.008086 0.315233 0.621848 0.293605 0.021346 0.078317 0.155206 0.131478
faltered 0.579079 0.189658 0.176983 0.559760 -0.036861 0.193468 0.452205 0.699687 0.579882 0.714911
done 0.452799 0.430993 0.144386 0.348387 0.171375 0.618549 0.090511 0.239464 0.081406 0.617311
killed 0.012679 0.710271 0.081510 0.063793 -0.003628 0.476670 0.862728 0.594333 0.400339 0.282410
astounding 0.035841 0.560078 0.438909 0.737195 0.366251 0.117392 0.709623 0.283131 0.418595 -0.057804
stop 0.601402 0.379934 0.421289 0.332888 0.112532 0.465701 0.590942 0.240841 -0.075307 0.395931
heaven -0.085154 0.690230 0.571436 0.695377 0.238600 0.400583 0.102135 0.869700 0.013884 0.247421
survive -0.065225 0.628243 -0.062658 0.480852 0.223300 0.399776 0.495784 0.218034 0.756418 0.252818
guess 0.067513 0.192927 0.766403 0.188348 0.734690 0.750392 0.757271 -0.040378 0.130283 0.295923
may 0.879585 0.733519 0.324042 -0.032331 0.655960 0.421057 0.320172 0.656997 -0.111284 0.491396
lace 0.508643 0.328599 0.044583 -0.012938 0.258832 0.168501 0.159849 0.590019 0.876622 0.632593
handkerchief 0.115046 0.206233 0.279130 0.222025 0.238500 0.151654 0.141771 0.010159 0.114866 0.628003
dabbed 0.503431 0.224374 0.156534 0.457961 0.814491 0.750260 -0.071929 0.074913 0.199211 0.613632
beneath 0.081969 0.763099 0.431695 0.019121 0.135299 0.639939 -0.052735 0.323432 0.739924 0.340572
great 0.133334 0.065736 0.151583 0.750928 0.518636 -0.000489 0.846532 0.241009 0.177020 0.054004
sniff 0.683005 0.658068 -0.010998 0.460928 0.163736 0.055065 0.091628 0.624846 0.487465 0.180793
took -0.047490 0.439921 0.612622 0.669188 0.425072 0.584228 0.459811 0.655446 0.100566 0.317933
golden 0.000878 0.280884 0.404950 0.653436 0.490259 0.486566 0.019591 0.128638 0.588702 0.260526
watch 0.649689 0.739045 0.660486 -0.230393 0.350107 0.388343 0.118064 -0.015171 0.552865 0.470409
examined -0.062420 0.105261 0.469417 0.528307 0.413016 0.743221 0.450990 -0.015517 0.079868 0.200959
odd 0.629797 0.234229 0.567516 0.650309 0.647537 0.066604 -0.076901 0.635148 0.209777 0.250665
twelve -0.002836 0.559962 0.596098 0.320897 0.521730 0.286375 -0.029493 0.186314 0.528676 0.492657
hands 0.350444 0.838507 0.148433 0.724492 0.053716 0.096496 0.202028 0.127739 -0.062503 0.514001
numbers 0.285969 0.766565 0.093141 0.317045 0.196413 0.727861 0.011935 0.587088 -0.036264 0.581375
planets 0.038066 0.433669 0.537356 0.203013 0.208861 0.032432 0.551146 0.413611 0.161141 0.338277
moving -0.145715 0.835225 0.031891 0.502700 0.089792 0.247207 0.614543 0.485822 0.378403 0.480620
Hagrids 0.493183 0.605649 0.625980 0.675200 0.745484 0.644691 0.367416 -0.108545 0.366376 0.168253
late -0.071635 0.653702 0.335318 0.096747 0.669097 0.164806 0.617919 -0.062326 0.511391 0.517455
Id 0.411975 0.481391 0.463981 0.561058 0.075541 -0.085602 0.249302 0.386761 0.476674 0.084148
places 0.429737 0.541694 0.382931 0.126646 0.437442 0.204821 0.076477 0.660154 -0.195004 0.555140
Ive 0.853613 0.390630 0.251830 -0.016233 0.343339 0.019849 -0.044315 0.720898 -0.078782 0.671175
bring 0.853458 0.079926 0.082604 0.725759 0.365288 0.285121 0.235629 -0.029503 0.329591 0.121919
aunt 0.590702 0.451530 0.422038 0.501390 -0.006757 0.531820 0.094072 -0.115692 0.254138 0.535461
uncle 0.428111 0.497157 0.065572 0.033698 0.616550 0.493895 -0.073024 0.007054 0.470792 0.770894
family 0.869879 0.117647 0.085303 0.880142 0.301096 0.574704 -0.038165 0.071879 0.243913 0.304339
mean 0.051914 0.090784 0.797376 0.538646 -0.203035 0.833171 0.503716 -0.047301 0.263384 0.777030
live 0.615668 0.588026 0.515870 0.422915 0.005582 0.868429 0.007700 0.161890 0.087075 0.292881
