77573 10
Harry 0.161721 0.492583 0.325929 0.602890 -0.153170 0.752679 0.665952 0.394743 0.401139 0.011971
Potter -0.032794 0.820652 -0.154331 0.046438 0.252174 0.395683 0.462505 0.770113 -0.072797 0.626722
and 0.001592 0.227039 0.088072 -0.072597 0.668539 0.463028 0.294603 0.519476 0.001675 0.496273
the -0.185626 0.467263 0.380858 0.314599 -0.138075 0.229112 0.548170 0.668106 0.215084 0.413624
Sorcerers 0.709922 0.057253 0.198047 0.457246 0.530592 -0.164703 -0.040259 0.379152 0.202754 0.523375
Stone 0.178455 0.090938 -0.215661 -0.069509 0.091468 0.726335 0.233198 0.756998 0.747304 0.466032
CHAPTER 0.774194 0.544559 0.373891 0.539885 0.668399 0.691261 0.363370 0.023966 0.425370 0.720722
ONE 0.353661 0.393468 0.783495 0.199670 0.601013 0.771739 0.333418 0.494237 0.706045 0.026827
THE -0.128315 0.324914 0.693841 0.051233 0.756884 0.471575 0.766424 0.415297 0.363062 0.259837
BOY 0.631658 0.496599 0.627416 0.463951 0.220531 0.766015 0.455649 0.726966 -0.078724 0.128949
WHO 0.071924 -0.117142 0.795049 0.499336 0.429651 0.473208 0.800428 0.132785 0.108364 0.607117
LIVED 0.670463 0.785951 0.176898 0.781271 0.736988 0.247247 -0.166826 -0.146677 0.286089 0.693592
Mr 0.103489 0.516700 0.595208 0.626481 0.652062 0.768452 -0.074986 0.242643 -0.027888 0.383526
Mrs 0.104437 0.107649 0.535014 0.725587 -0.168120 -0.058034 0.387328 0.368984 0.027413 0.697434
Dursley -0.031364 0.714792 0.082059 0.022873 0.153744 0.730697 -0.049259 0.203039 0.237707 0.202127
of 0.404837 -0.145284 0.029821 0.568284 -0.045014 0.387214 0.653107 0.491645 0.156500 0.203360
number -0.027437 -0.004642 0.381168 0.129440 0.076776 0.456757 0.308615 0.313466 0.549899 0.067498
four 0.001559 0.363945 0.139355 -0.141813 0.071933 0.364156 -0.072727 0.936280 0.268159 0.549240
Privet -0.087908 0.390326 0.022762 0.656757 0.049698 0.183885 0.113798 0.387489 0.286236 0.568624
Drive -0.097631 0.421218 0.534196 0.667702 -0.114101 -0.103996 0.602308 0.731812 -0.221539 0.367942
were 0.670862 0.692780 0.160133 0.232502 -0.211084 -0.013701 0.641719 0.208591 0.055211 0.170027
proud -0.081696 0.364954 0.154995 -0.136449 0.615335 0.272741 0.421400 0.318109 0.662708 0.166946
to 0.312491 0.488429 -0.141638 0.140791 0.305582 0.429078 -0.037592 0.227263 0.569964 0.500914
say 0.277905 -0.059841 0.256508 0.414107 -0.159335 -0.072091 0.517750 0.553807 0.642009 0.364178
that 0.280124 0.497006 0.202316 0.524036 0.086669 0.056133 0.372747 0.288940 0.461799 -0.031222
they 0.071603 0.074011 0.351342 0.581167 0.486525 0.629708 0.261149 0.505397 -0.286762 0.350799
perfectly -0.038382 -0.002393 0.128560 0.125683 0.546461 0.487850 0.655718 0.471402 0.097470 0.204194
normal 0.057075 0.084881 -0.205576 0.401427 0.176049 0.476256 0.611304 0.622241 0.510553 0.143588
thank 0.006373 0.111290 0.377864 0.379768 0.515311 -0.016511 0.154021 0.630478 0.274815 0.109649
you 0.495032 0.695335 -0.117484 0.068181 0.188906 0.182498 0.000091 0.647543 -0.028530 0.445703
very 0.420025 0.216301 0.627129 0.707384 -0.156997 0.233961 0.292918 -0.033896 -0.105158 0.228970
much 0.017838 0.275956 0.208298 0.811301 -0.025920 0.413415 0.669003 0.152161 0.063475 -0.083653
They -0.112686 0.153601 0.418531 0.262415 0.023590 0.215348 -0.078500 0.656344 0.507787 0.727173
last 0.659345 0.440257 -0.150542 -0.027505 -0.014331 0.023189 0.590100 0.075184 0.472962 0.321375
people 0.078049 0.317513 -0.079562 0.323770 0.283999 -0.169333 0.589689 0.416247 0.097169 0.809076
youd 0.174917 -0.091150 0.482583 0.627970 0.059284 0.378204 0.190000 0.132167 0.289755 0.396301
expect -0.133132 0.604211 0.485430 0.480040 0.568352 0.258663 0.572565 0.519825 0.066629 0.103258
be 0.445767 -0.127125 0.478754 0.475579 -0.152102 0.139297 0.064550 0.735341 0.526274 0.189178
involved 0.021073 0.042802 0.585221 0.079818 -0.040475 0.581759 0.074501 0.137189 0.686103 0.328965
in 0.565845 0.776829 -0.142276 0.126559 -0.155479 0.440029 0.199674 0.496028 0.231892 0.156272
anything 0.250049 -0.093274 0.154515 0.172339 -0.156860 0.329738 0.527694 0.189617 0.330369 0.861408
strange 0.388219 0.614310 0.079552 0.280359 0.203330 0.311117 0.053887 0.076606 -0.054798 0.735321
or -0.061277 0.620999 0.481922 0.052993 0.036972 0.275616 0.681256 0.056771 0.309102 0.149113
mysterious -0.082238 0.280404 -0.036455 -0.234280 0.639438 0.227913 -0.087809 0.604184 0.604353 0.783808
because 0.484276 0.034642 -0.147292 0.272294 0.515547 0.057283 0.362037 0.508125 0.271725 0.313682
just 0.195802 0.807070 0.210222 0.112782 0.256861 -0.092980 0.580965 0.308473 -0.021150 0.116276
didnt 0.717115 0.109189 0.118073 -0.125092 0.562428 0.203351 0.478174 -0.148201 0.633350 0.202544
hold 0.099779 0.272059 0.494003 0.065115 0.101806 0.460600 0.508496 0.381296 0.111431 0.467567
with 0.743324 0.165349 0.160062 0.053071 0.705674 0.002500 0.225271 0.376449 0.124424 -0.053015
such 0.447567 0.260729 0.453847 0.196677 0.272215 0.223558 0.116471 0.333073 0.101870 0.187765
nonsense -0.286646 0.653165 0.529347 -0.276748 -0.070586 0.646913 0.593726 0.483617 0.632229 0.478934
was 0.557369 0.107544 0.155573 0.219591 0.431757 0.242985 -0.070839 0.584385 0.311724 0.472322
director 0.140504 0.658278 0.122733 0.685029 0.215566 0.285747 0.337714 -0.056804 0.166939 0.240453
a 0.526859 0.570420 0.403540 0.309161 0.135288 0.647277 0.562196 -0.146440 -0.234204 0.541919
firm 0.670384 0.752191 0.183152 0.409042 0.565809 0.101097 -0.154285 -0.174176 -0.040579 0.799442
called 0.610860 -0.119615 0.049508 0.736587 -0.204372 0.373471 0.268231 0.053725 0.770471 0.154371
Grunnings 0.121659 -0.024166 0.708439 0.716783 0.424838 0.252778 0.265665 -0.048833 0.228140 0.686706
which 0.494467 0.439521 0.405808 0.233785 0.650129 0.334249 0.160175 0.593618 0.389063 0.163087
made -0.006816 0.241504 0.332303 0.304029 0.268145 0.779705 0.699958 -0.041045 0.578070 0.775844
drills 0.507117 -0.055078 0.360582 -0.096058 -0.087636 0.681539 0.729328 0.530225 0.328224 0.204496
He 0.329951 0.625500 0.555673 0.039393 -0.046660 0.687028 0.662428 0.302965 -0.243613 0.372011
big 0.606342 0.047266 0.560398 0.682331 -0.195639 0.194175 0.363318 0.386966 0.598942 -0.279187
beefy 0.415810 0.672162 0.457536 0.578013 0.015014 -0.195592 0.573320 0.094326 0.074428 0.367232
man 0.646599 0.102604 0.486416 0.008442 0.465043 -0.131453 0.266616 0.391827 0.386610 0.448139
hardly 0.692462 0.125037 0.607104 0.518853 0.010174 -0.046226 0.481742 0.212982 0.119722 0.125616
any 0.447578 -0.250593 0.428927 0.155844 -0.269853 0.638788 0.619002 0.589159 0.642860 0.037546
neck 0.278930 0.022207 0.180172 -0.046443 0.444675 0.318925 0.496533 0.747770 0.157083 0.382917
although 0.717645 -0.167741 -0.085502 0.730611 -0.234048 0.572936 0.398858 0.397328 0.186533 0.505238
he 0.190455 0.098652 0.646344 0.166087 -0.252621 0.429340 0.111959 0.631687 0.189729 0.714353
did 0.716521 0.063737 -0.020901 -0.098692 0.373696 0.180636 0.412009 -0.049977 0.605496 0.564397
have 0.430211 0.040369 0.040463 -0.076213 0.123152 0.569922 0.397933 0.430973 0.037958 0.585767
large 0.320926 0.762303 0.244613 -0.118212 0.268336 0.629081 -0.180530 0.131629 0.636155 0.147280
mustache 0.506095 0.716604 0.119906 0.038144 0.053695 -0.236853 0.547367 -0.032141 0.637316 0.717035
thin 0.554442 0.122948 0.623140 0.005468 -0.023702 0.486442 0.107356 0.637041 0.222533 0.307004
blonde 0.176242 0.645740 -0.058411 0.233361 0.264455 0.018295 0.280662 0.698213 0.207545 0.530459
had -0.032486 0.684951 0.736076 0.306009 -0.055301 -0.032500 -0.005163 0.402574 0.721378 0.132531
nearly 0.027546 0.791873 -0.095395 0.346076 0.112119 -0.117257 -0.138138 0.679326 0.628472 0.716815
twice 0.602352 0.444362 -0.037918 0.487911 0.491967 -0.098837 0.573725 -0.107636 0.180666 0.152967
usual 0.524252 0.287131 0.020031 0.541825 -0.105253 0.365832 0.279864 0.105835 0.542113 0.281610
amount 0.477597 0.707262 0.628698 0.472922 -0.264349 0.052280 0.362981 0.188421 0.467290 -0.044210
came 0.337846 0.456199 0.092786 0.690517 0.177671 0.071515 0.053596 0.582119 0.440362 0.388767
useful 0.409584 0.782471 0.686506 0.089592 0.400070 -0.126020 0.530168 0.321873 0.130188 -0.124776
as 0.612703 -0.062886 -0.092747 0.708432 0.032309 0.541150 0.571983 0.291170 0.361531 -0.154816
she 0.544156 0.542615 0.001436 -0.027225 -0.026712 0.139344 0.137554 0.064704 0.811639 0.603670
spent 0.418451 0.688914 0.074374 0.777911 -0.117865 -0.197889 0.188228 0.768809 0.234576 0.125182
so 0.396744 -0.183862 0.751175 0.513336 -0.122408 0.671341 0.019744 0.208289 0.430865 0.383855
her 0.256150 -0.139885 0.608568 0.559218 0.701524 -0.008662 0.604286 -0.255449 0.464802 0.306440
time 0.559669 0.594739 0.427820 -0.161847 0.107013 0.427240 0.406232 0.638644 0.210212 0.554918
craning 0.017080 -0.005608 0.421788 0.222328 0.641509 0.651122 0.376123 -0.031639 0.186318 0.212966
over 0.770905 0.075565 0.231935 0.441548 -0.048170 0.096620 -0.085909 0.707697 0.094600 0.529278
garden 0.465021 0.678675 0.070260 0.113524 0.568667 -0.102546 0.100219 0.405895 0.372307 -0.084636
fences 0.124552 -0.046767 0.498454 0.028226 0.109134 0.712758 0.828637 0.683310 -0.121094 0.253157
spying 0.442094 0.182362 0.166037 -0.014878 0.460839 0.045519 0.754725 0.407488 -0.011899 0.431419
on 0.032000 0.104690 0.547298 0.265970 0.189237 0.221710 0.467468 0.683859 0.034090 0.153543
neighbors 0.325333 0.254284 0.207532 0.183840 0.364135 0.061658 0.026809 0.223202 0.538431 0.515559
The 0.025075 0.330440 0.394079 0.039210 0.525292 0.188859 0.204358 0.824323 0.639623 0.041091
Dursleys 0.637005 0.479431 0.015720 0.352994 0.314260 0.460182 -0.000981 0.209007 -0.036180 0.786687
small -0.106917 0.527609 0.366009 0.130600 0.646462 0.206157 0.492149 0.587428 -0.062022 0.203261
son 0.117551 0.674848 0.662815 0.185555 0.318696 -0.037325 0.167348 0.651841 0.015903 0.105789
Dudley 0.653955 0.495812 0.543315 -0.216944 0.366387 0.401157 -0.117284 0.462999 -0.123179 0.614241
their 0.641133 0.233201 0.093047 0.117726 0.572182 0.739785 -0.192222 0.593200 0.321385 0.027134
opinion 0.037209 0.200570 0.021557 0.368255 0.817199 0.112392 0.555466 -0.012019 -0.052845 0.693209
there -0.028347 0.437037 0.276249 0.342886 0.570778 0.434632 -0.070668 0.361588 0.357208 0.271429
no 0.061970 -0.111297 0.622538 0.497654 0.617224 0.330265 0.371375 0.069269 0.615809 0.399418
finer 0.466308 0.147606 0.250390 0.681092 0.074047 -0.068626 0.043918 0.410230 0.676813 0.067593
boy 0.568199 0.751567 -0.228481 -0.007118 -0.094955 0.512524 0.518368 0.157456 0.299854 0.558129
anywhere 0.419124 0.292805 0.096288 0.416251 -0.132604 0.558323 0.640207 0.103819 -0.028783 0.397755
everything 0.292419 0.839709 0.025784 0.553041 0.214034 0.135663 0.018477 0.005958 0.091145 0.401451
wanted 0.585802 0.212695 0.357295 0.452119 0.289194 0.312883 0.353247 0.511744 0.494364 -0.222450
but 0.212883 0.008091 0.397424 0.634152 0.414760 0.411951 0.585273 0.570982 0.027525 -0.142646
also 0.306456 0.742385 0.609667 0.164901 0.408048 0.372165 -0.008489 0.178794 0.360058 0.174705
secret -0.044464 0.530949 -0.113638 0.702694 -0.078011 0.463941 0.444342 0.177135 0.229350 0.616864
greatest 0.190145 0.050974 0.069182 0.555924 -0.014186 0.193629 0.806227 0.504669 0.062682 0.470760
fear 0.420611 0.416652 0.455514 0.617698 -0.024818 -0.119932 0.063985 0.491902 0.734104 -0.104240
somebody 0.658465 -0.114706 0.000182 0.556841 0.493803 -0.011845 0.199113 0.680898 0.136576 0.679953
would 0.603929 0.446740 0.725413 0.111060 0.256344 -0.024443 0.526936 0.455430 -0.075187 0.046268
discover -0.061339 -0.153747 0.278666 0.640338 0.365830 0.466390 0.498690 0.356453 0.762853 -0.034185
it -0.018324 0.411505 0.294126 0.415483 0.560171 0.005934 0.275973 0.104183 0.689621 0.177922
think 0.288927 0.205136 0.190646 0.493425 0.297762 0.445121 0.617039 -0.091368 0.243289 0.380860
could 0.356241 -0.095228 0.542661 0.106337 0.279611 0.406382 -0.007751 0.613198 0.572090 0.145231
bear 0.270584 0.385808 0.271054 0.423570 0.519628 -0.028918 0.034764 0.730029 0.281386 0.234413
if 0.272412 0.542815 0.642894 0.045508 0.535312 0.754352 -0.013068 0.423115 -0.096083 0.011160
anyone 0.411859 0.566628 0.102738 -0.010462 0.027820 0.248732 0.665472 0.228984 0.166402 0.377068
found 0.810387 0.199860 0.332532 0.160786 -0.207908 -0.123415 0.829587 0.412508 0.666639 -0.010882
out 0.508562 -0.029832 0.357005 0.431695 0.232570 0.106613 0.170250 0.600913 0.450715 0.272384
about 0.140607 -0.028420 0.610443 0.233591 0.118951 0.359460 0.333118 0.782324 0.666704 0.001776
Potters 0.086878 0.080612 0.175054 0.550141 0.334637 -0.027849 -0.008612 0.172623 0.350884 0.907148
sister 0.024418 -0.058619 0.065231 0.252647 0.755227 0.233645 0.721078 0.112404 0.403027 0.426364
hadnt 0.448364 0.729560 0.641533 -0.012375 0.046343 0.349296 0.134032 0.099106 0.462738 0.336783
met 0.320514 -0.052120 0.561604 0.765013 0.083750 0.154017 0.576599 0.578608 0.148556 0.029708
for 0.396071 0.113159 0.795735 0.000860 0.020038 0.288184 0.685631 0.212127 0.254049 0.021084
several 0.508419 0.127572 0.239726 -0.083248 0.408787 0.458964 0.826159 0.093652 0.836506 -0.096298
years 0.137421 0.055043 0.505605 0.031472 0.124811 0.688942 0.756260 0.199396 0.100252 0.247826
fact 0.159816 0.642759 0.179974 0.767488 0.238959 0.056017 0.692917 0.464840 0.035273 -0.043987
pretended -0.018839 0.300570 0.260012 0.636103 0.162332 -0.105313 0.616515 0.476031 0.492639 0.051556
goodfornothing 0.469423 0.469303 0.024927 0.119937 0.508283 -0.268919 0.634348 0.754411 0.367585 0.630815
husband 0.499037 0.128864 0.456311 0.768769 0.157755 -0.059619 0.289144 -0.181157 0.562243 0.534616
unDursleyish 0.495913 0.493429 0.066412 0.265849 0.608723 0.482254 0.412179 0.824250 -0.153014 -0.096071
possible 0.016388 0.018906 0.053958 0.409544 0.699966 0.346439 0.434536 0.491301 0.192996 0.618842
shuddered 0.780149 0.586893 0.418732 0.051829 0.191405 0.519680 0.259671 0.072902 0.572832 -0.152741
what 0.643544 0.037841 0.074843 -0.084167 0.179222 0.551222 0.519078 0.191689 0.774939 0.164299
arrived 0.070552 0.022110 0.557702 0.056683 0.105520 -0.005853 0.693041 0.278983 0.731831 0.715544
street 0.509436 0.613318 0.077281 -0.020876 0.081704 -0.052479 0.404042 0.842666 0.295540 -0.080773
knew 0.196053 0.476413 0.637197 0.720954 -0.031925 0.383664 0.509795 0.370886 0.343472 0.735807
too 0.133171 0.490195 0.190048 0.636110 0.179062 -0.053839 0.578562 0.291185 -0.039181 0.495505
never -0.075731 -0.139816 0.640469 0.185685 0.178896 0.729932 0.303100 0.092565 0.529812 0.318865
even 0.217211 -0.153066 0.392824 0.308871 -0.068162 0.719864 0.414781 0.300488 0.606079 0.447652
seen 0.490470 0.507138 0.323585 0.511059 0.360856 0.438059 0.210232 0.402815 0.018864 0.436607
him 0.668750 0.016012 0.733778 -0.002296 0.134123 0.023898 0.224384 -0.154452 0.346062 0.705217
This 0.717398 -0.127894 0.479874 0.420229 -0.051309 0.251256 0.533956 0.352160 -0.045638 0.280045
another 0.126689 0.033489 0.060783 0.043546 -0.001909 0.546724 0.893925 0.028923 0.007605 0.660290
good 0.074338 0.607529 -0.070293 0.621586 0.295536 0.223070 0.085362 0.647695 0.224013 0.105090
reason 0.522060 0.354106 0.553131 0.550468 -0.100394 0.687137 0.082427 0.615021 0.453762 -0.171294
keeping 0.099517 0.189830 0.105647 0.809472 -0.076614 0.077877 0.523623 0.397272 0.386895 0.179460
away 0.667865 -0.031271 0.574986 0.340986 0.359377 0.078523 0.249494 0.612149 0.616068 0.112468
want 0.347807 -0.052944 0.375666 0.586293 0.690020 0.279543 0.133319 0.459780 -0.177664 0.395600
mixing 0.638300 -0.149291 0.508617 0.285390 0.485297 0.341230 0.479277 0.338178 0.373601 0.140903
child 0.448307 0.205492 0.517298 0.059946 0.572496 0.394991 0.088235 0.416284 -0.080451 0.436422
like 0.724376 0.656317 0.482647 -0.029446 0.233686 0.038476 0.362255 0.142725 0.109819 0.074028
When 0.658251 -0.057872 -0.095154 0.399672 0.655162 -0.050599 0.081251 0.637159 0.372965 0.493526
woke 0.101959 -0.117334 0.793597 0.373393 0.730297 0.184235 0.073002 0.350791 0.136290 0.289074
up 0.150235 0.477129 0.462100 -0.293528 0.559448 0.666688 0.320651 0.595015 0.165909 0.215159
dull 0.832740 -0.114084 0.018089 0.215114 0.196041 0.590248 -0.132560 0.620566 0.365959 0.231379
gray 0.423557 -0.050223 0.492129 -0.098345 0.329409 0.706971 0.215699 -0.194727 0.444253 0.635388
Tuesday 0.772855 0.145426 0.111137 0.717664 0.020852 0.665125 -0.057505 0.127834 0.054947 0.364004
our 0.087472 -0.057968 0.713920 0.177424 0.485439 0.595662 0.625424 0.629869 -0.155896 -0.121776
story 0.057405 0.034042 0.340624 0.586687 0.128156 0.616777 0.089747 0.567867 0.480486 -0.040735
starts 0.837561 0.111714 -0.031174 0.138069 0.429737 0.481038 0.327765 0.092556 0.341275 0.146138
nothing 0.769735 0.718906 -0.134291 0.319539 -0.109132 0.141933 0.149974 0.534418 -0.148643 0.670009
cloudy -0.111468 0.622027 0.360973 -0.076619 0.578186 0.437088 0.036941 0.516442 0.274287 0.599875
sky 0.159350 -0.096618 -0.042753 0.813171 0.289880 0.088409 0.599992 0.629564 0.405402 0.077184
outside 0.680786 0.612963 0.583212 0.238955 0.461220 0.479747 0.430550 -0.140331 -0.041303 0.188693
suggest 0.688388 0.525632 0.191011 0.097949 -0.060253 0.649675 0.323688 0.200599 0.078856 0.326880
things 0.053347 0.407088 0.307905 0.180002 0.582968 0.285518 0.282856 0.049004 -0.030987 0.600688
soon 0.110495 -0.021455 0.764724 0.427152 0.646002 -0.045704 0.266303 0.622432 0.595033 0.216406
happening 0.238256 0.307724 0.571480 0.471664 0.253818 -0.042540 0.072721 0.323267 0.220156 0.603214
all 0.073324 0.147535 0.041364 0.006054 0.298529 0.387375 0.909203 0.788190 0.142221 -0.061030
country 0.744180 0.083863 0.572189 0.120109 -0.148021 0.103054 0.197110 0.775949 0.348116 0.140780
hummed 0.318761 0.450577 0.015223 0.528074 0.263387 0.343218 0.433003 0.122413 0.452874 0.100064
picked 0.769528 0.549319 0.539599 -0.103646 0.334909 -0.162096 -0.081339 0.756748 0.510527 0.396824
his 0.652870 -0.149068 0.484808 0.148801 0.674211 0.807950 -0.093118 0.421000 0.159265 0.065993
most 0.587381 -0.243549 0.424433 0.275623 0.677334 0.005724 0.663281 0.012573 0.678006 0.040858
boring 0.580583 0.228494 0.139099 0.284078 0.016472 0.647855 0.209951 0.493039 0.456087 0.239684
tie 0.513775 -0.108220 0.724892 0.108097 0.729657 0.076505 0.335375 0.390768 0.613300 -0.182462
work 0.429017 0.373835 0.533166 -0.033758 -0.104344 0.592690 0.448309 0.504618 -0.127636 0.155892
gossiped 0.605827 0.535231 0.014017 0.167279 0.061169 -0.023956 0.446510 0.609190 -0.121214 0.783756
happily 0.306295 0.462477 0.179887 0.235980 0.410306 0.778173 0.282285 0.143934 0.353435 0.098262
wrestled 0.079279 0.106879 0.744043 -0.026936 0.435285 0.451794 -0.068839 0.746286 0.606769 0.035191
screaming 0.360281 -0.248877 0.486040 0.002876 0.629773 0.446050 0.234260 0.516978 0.587706 0.351494
into 0.426796 0.622479 0.143553 0.476203 0.022343 0.430186 0.593633 -0.063993 0.110834 0.480061
high 0.592052 0.541718 0.151670 -0.078276 -0.177482 0.695163 0.614471 0.482134 0.495407 0.200069
chair 0.595630 0.275081 0.420994 -0.032319 0.727109 -0.146256 0.620890 0.625651 0.414832 -0.235743
None 0.526449 0.254674 0.556338 0.469247 0.153316 0.036772 0.438056 0.234061 0.210911 0.053773
them 0.703515 0.620246 0.287185 0.390401 0.322666 0.197621 0.185013 0.020245 0.640601 0.655991
noticed 0.206160 0.016736 0.481755 0.255315 0.732953 0.296564 0.574073 0.440036 -0.077684 0.494359
tawny 0.029859 0.516136 0.629977 0.599764 0.122829 0.440583 0.402863 0.119716 0.623805 -0.014378
owl 0.788021 0.682855 0.033096 0.196403 0.692605 0.178019 -0.187084 -0.037766 0.574056 0.538065
flutter 0.562900 0.234126 -0.039732 0.493024 0.475965 0.635695 -0.184802 0.678961 0.493522 0.127859
past 0.228536 0.421123 0.607024 -0.017470 0.078918 0.185702 0.561020 -0.151998 0.256830 0.784305
window 0.588557 -0.171599 0.187783 0.150445 0.767054 0.373374 0.473136 0.084579 0.206265 0.549226
At 0.493325 0.694669 -0.013158 0.244686 0.024177 -0.137261 0.780566 0.037385 0.154242 0.754522
half 0.190080 -0.024030 0.133932 0.105913 -0.076515 0.223154 0.502093 0.679879 0.202227 0.769610
eight 0.308166 0.535393 0.126673 0.228624 0.252995 0.489663 0.231566 0.288716 0.739493 0.056751
briefcase -0.025143 0.324693 0.395524 0.440538 0.375880 0.391685 0.601635 0.059968 0.274119 0.373331
pecked 0.737962 0.224156 0.270805 0.455219 -0.134661 0.415397 0.336160 0.711561 -0.047720 0.236959
cheek 0.704582 0.452273 -0.226190 0.045583 0.586365 0.734761 0.466433 0.620348 -0.040955 0.279691
tried 0.874077 0.180178 0.370652 0.362086 0.379770 0.350771 0.393658 0.154029 0.234399 -0.036336
kiss 0.075439 0.434203 0.821678 0.392074 0.045564 0.553514 0.213913 0.104129 0.709870 -0.138634
goodbye 0.679477 0.292968 -0.045299 0.782221 0.163595 0.767697 0.252354 -0.127193 0.540781 -0.071751
missed 0.740193 -0.133117 0.036551 -0.063729 0.605617 0.418897 -0.127564 0.646477 0.668516 0.575907
now 0.403013 0.190721 0.549157 0.633360 0.108078 0.386279 0.405705 0.583061 0.186000 0.022982
having 0.527570 0.434235 0.672922 0.601814 0.648049 0.318067 0.331648 0.478782 -0.148489 -0.128517
tantrum 0.087317 0.437035 -0.020082 0.772633 0.589572 0.374144 0.109326 0.308556 0.264337 0.222600
throwing -0.081133 0.635925 -0.138236 0.451661 0.743886 0.483689 0.611649 0.391038 0.260530 0.284583
cereal 0.654818 0.259727 -0.025866 0.317792 0.365870 0.317087 -0.147815 0.284657 0.474523 0.619433
at 0.811212 0.424884 0.322341 0.287743 -0.034043 0.474235 0.095355 0.496210 0.585688 0.061515
walls 0.883152 0.259287 0.448308 0.485490 0.388483 0.259794 0.689963 -0.018163 0.231621 -0.064746
Little 0.344873 0.708532 0.533986 0.197883 -0.160509 0.426773 0.514966 0.205178 0.085163 0.587809
tyke 0.047912 0.363713 0.593315 0.019737 0.121537 0.061417 0.594110 0.583596 -0.054091 0.753095
chortled 0.061206 0.530877 0.510359 0.552833 0.367763 0.039167 0.378650 0.194826 0.137801 0.647715
left 0.209556 0.289668 -0.028297 0.688032 0.142722 0.688758 -0.033094 0.410777 0.078464 0.726173
house 0.455111 0.034278 -0.084433 0.060717 0.319152 0.679211 0.474296 0.571754 0.756411 0.321691
got -0.092286 0.123807 0.751897 0.073849 0.008940 0.602387 0.747462 0.467603 0.371277 0.290189
car 0.774693 0.178416 0.550823 0.188844 -0.144300 0.542846 0.539106 -0.062883 0.114544 0.618570
backed 0.854939 -0.079558 0.041860 0.205125 0.524020 -0.090304 0.493475 0.655281 0.852240 -0.088935
fours 0.382384 0.403492 0.096965 0.299094 0.117339 0.671997 0.094496 0.533040 -0.044113 0.473305
drive 0.657839 0.494148 0.411814 0.349683 -0.065242 -0.135802 0.706274 0.557932 0.418290 0.168190
It 0.382416 0.037556 0.666520 0.033864 0.343005 0.346130 0.601042 0.649494 -0.062580 0.176808
corner 0.655779 -0.020496 0.284724 -0.064275 0.726531 0.273306 0.605673 -0.053191 0.487888 0.242531
first -0.024486 -0.136297 0.058363 0.379294 0.232601 0.255977 0.486035 0.190929 0.720189 0.886729
sign 0.583555 0.418854 -0.002172 0.033577 0.696676 0.079299 -0.041324 0.526789 0.677901 0.506364
something 0.357701 0.086008 0.574652 0.583358 0.635937 0.544471 0.450773 -0.110981 0.463536 0.653747
peculiar 0.271487 0.026311 0.805909 0.322047 0.654834 0.542696 0.169348 0.121212 0.046087 0.285912
cat 0.398365 -0.046706 0.636142 -0.076217 0.589828 0.689535 0.663067 -0.062591 0.792732 -0.115994
reading -0.031184 0.577510 0.095836 0.686804 0.340263 0.318650 0.502992 0.326524 0.619793 0.028618
map 0.560181 0.491505 0.346354 0.077228 0.170482 0.315972 0.751613 0.565489 -0.194502 0.318905
For 0.079228 0.780924 0.550875 0.702083 0.482878 -0.028507 0.353008 0.410149 -0.009675 0.124640
second 0.330804 0.262984 0.754378 -0.008480 0.003137 0.496622 0.473912 0.105799 0.504950 0.325183
realize 0.335306 0.624387 0.501378 0.045080 0.677945 -0.033736 0.399053 0.004892 0.372532 0.055722
then 0.531854 0.700066 0.310959 0.133693 0.364572 0.693776 0.286069 0.845745 -0.207343 -0.135399
jerked 0.464905 0.735506 0.487086 0.453951 -0.069251 0.249327 0.668662 -0.034040 0.465813 -0.131324
head 0.703236 0.384938 0.343104 0.014163 0.749323 0.524424 0.668778 0.480269 -0.121678 0.197536
around 0.065469 0.657146 0.206067 0.297360 -0.207541 0.328919 0.596778 0.545891 0.705842 0.375276
look 0.657713 0.199044 0.456293 0.101017 0.072888 0.283735 0.414218 0.446801 0.687421 -0.074410
again 0.305664 0.618252 0.340960 0.319029 0.668876 0.734157 -0.173126 0.653382 -0.071080 0.383086
There 0.527042 0.491374 0.292803 0.129348 -0.226539 0.172875 0.557723 0.320870 0.441891 0.636875
tabby 0.626705 0.503643 0.294252 0.744492 0.297417 0.082620 0.036201 0.094019 0.548852 0.249689
standing 0.010998 -0.012903 0.669225 0.194826 0.772910 0.181734 0.010944 0.444813 0.409848 0.490814
wasnt 0.995221 0.270874 0.566188 0.089213 0.089087 0.472714 0.067807 0.090645 0.058336 0.532907
sight 0.227677 0.563215 0.378688 0.622671 -0.019044 0.035410 0.664074 0.595488 0.337477 0.604535
What 0.479064 0.097654 0.262326 0.181979 0.594012 0.350776 0.469873 0.772581 -0.084551 0.335237
been 0.354050 0.566377 -0.118444 0.351262 0.399393 0.017053 0.756284 0.617707 0.094036 0.224874
thinking 0.084361 0.230980 0.227262 0.257668 0.105065 0.433534 0.549621 0.386365 0.190255 0.532908
must 0.748784 0.012353 0.528326 0.253886 0.692539 0.383641 -0.132106 0.183320 0.793536 0.004854
trick 0.916499 0.135841 -0.077554 0.115240 0.525110 0.078793 0.182660 0.804363 0.032094 0.405727
light 0.319517 0.183726 0.472314 0.618685 0.729816 0.693026 -0.037551 0.167309 0.052351 0.230403
blinked 0.494163 0.656089 0.732914 0.651753 -0.220510 0.061077 0.277261 0.553024 0.344907 0.028629
stared 0.338693 0.090430 0.448932 -0.035375 0.783614 0.865430 0.520250 0.068999 0.144541 0.284909
back 0.164703 0.260836 0.735516 0.234806 0.295503 -0.098836 0.675784 0.113280 0.657062 0.505193
As 0.798674 0.135659 0.256790 0.586855 0.186459 0.478948 0.170696 0.054953 0.036428 0.164487
drove 0.343294 0.590110 0.032031 0.597909 0.318452 0.462368 0.249487 0.219173 0.750706 0.126098
road 0.741013 0.026922 0.162342 0.676835 0.299075 0.770633 0.518568 -0.010014 0.200437 -0.008474
watched 0.363604 0.075087 0.175649 0.639324 0.090282 0.058472 0.191618 0.675177 0.108880 0.727461
mirror 0.252991 0.692089 0.163457 0.207164 0.609134 -0.092233 -0.012946 0.498436 0.731402 0.316842
said 0.165577 0.612289 0.665126 0.014495 0.389642 0.312544 0.461775 0.521721 0.147621 0.299418
looking -0.070300 0.767772 0.789317 0.377161 0.654595 0.484997 -0.064996 0.075267 0.113650 0.237173
cats 0.389983 0.124027 -0.048050 0.559367 0.216183 0.045858 0.738269 0.655846 0.796655 -0.018073
couldnt 0.522616 0.280953 -0.150686 0.181736 0.519561 0.685880 0.253063 0.243319 0.577929 0.648367
read 0.674319 0.075238 -0.139765 0.777685 0.485709 0.069268 0.584879 0.419439 0.429055 0.597434
maps 0.700128 0.617060 0.706113 0.343055 -0.069493 -0.060066 0.361355 0.478307 -0.166047 0.736621
signs 0.658365 0.560217 0.129819 0.282902 0.379040 0.366826 0.513849 0.338758 -0.059458 0.538449
gave 0.461092 0.534609 0.152596 0.552117 0.685361 0.717735 0.516506 0.199320 0.004057 0.368755
himself 0.698008 0.550710 0.277509 0.478227 -0.105047 0.484516 0.674844 0.209809 0.734502 -0.075174
little 0.326711 0.033370 0.303311 0.008660 0.412623 0.108097 0.163935 0.876625 0.780372 0.399344
shake 0.515817 0.744777 0.057386 -0.148374 0.683909 -0.018123 0.689397 -0.001433 0.163518 0.762335
put 0.445915 0.098731 0.312465 -0.051313 -0.009584 -0.090209 0.395971 0.908655 0.114266 0.043899
mind -0.083971 -0.097065 0.301665 0.523785 0.410600 0.275119 0.489464 0.733147 -0.120913 0.491219
toward 0.465242 -0.001945 0.084743 0.576305 0.176643 0.268590 0.807678 -0.087707 0.648066 0.204243
town 0.168149 0.141369 0.289213 0.542720 0.655175 0.106253 -0.077475 0.239574 0.318119 0.714904
thought 0.117055 0.381018 0.114214 0.661172 0.318880 0.200925 -0.032263 0.559967 0.761186 -0.166255
except -0.161213 0.240757 0.170706 0.497578 0.233421 0.405948 0.478615 0.781365 0.068581 0.623411
order -0.222950 0.095751 0.541895 0.374342 0.714631 0.314490 -0.110303 0.315505 0.421958 0.740078
hoping 0.272071 0.346416 0.250217 0.594268 0.334617 0.461456 0.374085 -0.207179 0.529076 0.347054
get 0.080375 0.391943 0.602031 0.083035 -0.090955 0.241045 0.630698 0.190231 0.690647 0.020953
day 0.272450 0.777877 0.036384 0.358876 0.026087 0.721757 0.044821 0.407775 0.648514 -0.157272
But -0.027565 0.601545 -0.206031 0.527557 0.139171 0.296720 0.720026 0.719583 0.282448 0.152829
edge 0.082329 0.311761 0.254077 0.521986 0.095135 0.069534 0.866100 0.621102 0.038771 -0.008878
driven 0.267928 0.722642 -0.127671 0.173003 0.524374 0.656655 0.205047 0.003784 0.366003 -0.068072
by 0.712637 0.330234 -0.077599 -0.088804 0.522265 0.440097 0.250447 0.091319 0.361974 0.438344
else -0.046017 0.495126 0.141051 0.308377 0.601797 0.053557 0.164647 0.666712 0.448991 0.201970
sat 0.051108 0.274079 0.275801 0.120237 0.304879 0.683430 0.740579 0.275397 0.074726 0.327490
morning 0.498197 -0.021702 0.083486 0.197564 0.286794 0.410620 0.642627 0.360407 0.797462 0.024052
traffic 0.215700 0.138220 0.137718 0.209478 0.750242 0.262936 0.244324 0.265621 0.145167 0.150133
jam 0.123355 0.317036 0.420448 0.488808 -0.135518 -0.102994 0.198103 0.125958 0.737911 0.616326
help 0.447318 -0.043003 0.188564 0.638830 0.178307 0.357601 0.537283 -0.132351 0.593140 0.492509
noticing 0.666945 -0.050017 0.312355 0.520028 0.362779 0.499653 0.366453 0.577312 -0.119139 0.649082
seemed 0.039864 0.459061 0.077826 0.387021 -0.022957 0.798730 0.251989 0.553862 0.083690 0.262047
lot 0.407324 0.161340 0.170471 0.327215 -0.003524 0.618010 0.177715 0.460303 0.484342 0.035379
strangely 0.522662 0.458347 0.317855 0.080253 0.596588 -0.001412 0.675545 0.118381 0.639271 -0.104002
dressed 0.640052 0.311504 -0.010555 0.131695 0.763429 -0.046353 -0.002306 0.532742 0.340585 0.218358
People 0.714044 0.033739 0.638969 0.025512 0.514583 0.159909 -0.018488 0.105427 0.438695 0.343570
cloaks 0.498181 0.131450 -0.000291 0.371762 -0.049586 0.307979 0.552014 0.202638 0.237428 0.432402
who 0.343012 0.382079 0.295827 0.304915 0.252007 -0.051999 0.500020 0.666292 0.660484 -0.106676
funny 0.774962 0.392292 -0.163772 -0.028180 0.120752 0.456349 0.328592 0.613783 0.275366 0.292862
clothes 0.306508 0.113001 -0.080150 0.451616 0.584950 0.026151 0.403585 0.602405 0.178727 0.487404
getups 0.128395 0.213753 0.199922 -0.038345 0.490705 0.432037 0.160381 0.096970 0.813107 0.514024
saw 0.216097 0.180937 0.018390 0.082813 0.708265 0.608693 0.260005 0.224657 0.136893 0.309300
young 0.497608 0.010626 0.330995 0.254780 0.013495 -0.222176 0.725655 0.707581 0.590598 0.586356
supposed 0.129045 0.500126 -0.145994 0.007142 -0.035495 0.675120 -0.018367 0.514411 0.726956 0.738770
this 0.645572 -0.154500 0.194145 -0.049000 0.497579 -0.172123 0.441621 0.656171 0.629686 0.368192
some 0.235665 -0.040473 0.460176 0.379811 0.651762 0.075024 0.835224 0.399037 0.139346 0.271155
stupid 0.575736 0.024706 0.692503 0.484457 -0.123938 0.246959 0.192846 0.088390 0.247993 0.325806
new 0.614572 0.022597 -0.084456 0.743891 0.691282 -0.024527 0.288065 0.025256 0.418649 0.081895
fashion 0.029801 0.249386 0.539668 0.616761 0.584292 -0.153125 0.689227 0.302343 0.474941 -0.073897
drummed 0.357834 0.286921 -0.222734 0.155135 0.453722 0.516984 0.405330 0.398177 0.391602 0.549036
fingers 0.002189 0.104813 0.344000 0.261849 0.728421 0.213475 0.265896 -0.019186 0.539136 0.548663
steering 0.737204 0.381566 0.381157 0.799879 -0.075307 -0.119184 0.762188 0.161887 0.398293 -0.036123
wheel 0.168622 -0.058106 0.005422 0.151857 0.075338 0.458684 0.617370 0.632451 0.776372 0.392873
eyes 0.453097 0.528313 0.602145 0.599310 0.181169 -0.127389 0.096365 0.229836 0.740982 0.145828
fell 0.277258 0.484384 -0.109110 0.110838 0.345231 0.681795 0.322108 0.512212 0.377868 -0.083593
huddle 0.231485 -0.034986 0.680516 0.387365 0.750251 0.244192 0.522582 -0.044384 0.360560 0.259242
these -0.228701 0.164172 0.411748 0.518677 0.470307 0.604009 0.689380 0.480018 0.699696 -0.055483
weirdos -0.017089 0.301043 0.288540 0.260785 0.272666 0.803222 0.656232 0.111464 0.490888 -0.083406
quite 0.218210 0.335408 0.600741 0.455921 0.050958 0.180534 0.647289 0.051324 0.460629 0.563965
close 0.564029 0.354760 -0.143581 0.683995 -0.088402 0.357815 0.646395 0.249386 0.480968 -0.067579
whispering 0.175526 0.527616 0.467898 0.375996 0.343971 0.475624 -0.251144 0.745995 0.485114 0.477096
excitedly 0.609037 0.246372 -0.188298 0.577193 0.086708 0.586374 0.245772 0.643348 0.479878 0.594786
together 0.368429 0.092075 0.036550 0.303495 -0.064005 0.355956 0.261957 0.864218 0.285063 0.446620
enraged 0.331613 0.548061 0.460572 0.078856 -0.296738 0.425843 0.613543 0.530601 0.351794 0.670421
see -0.033132 0.443321 0.332409 0.577992 0.039827 0.363170 0.701234 0.342035 0.597825 -0.160480
couple 0.613664 0.321699 0.312310 -0.023036 0.081971 0.478894 0.036434 0.688365 0.317537 0.151639
werent 0.093185 0.223995 0.503803 0.547524 -0.036077 0.704258 0.727922 0.694587 0.034377 0.060376
why 0.236162 -0.049321 0.379234 0.111327 0.136634 0.291969 0.313628 0.280995 0.639401 0.456316
older -0.085076 0.116349 0.328566 0.458348 0.275128 0.343011 0.621924 0.287245 0.699300 0.050531
than 0.103144 0.612452 0.642541 0.153890 0.594001 0.669864 -0.081131 -0.077689 0.043439 0.552600
wearing 0.271092 0.199102 -0.213280 0.684269 0.129864 0.588209 0.591956 0.540067 0.185654 0.453951
an 0.126893 0.567950 0.120777 0.469347 0.518698 0.440928 0.495677 0.697201 0.325102 0.488418
emeraldgreen 0.321611 0.078251 0.347076 0.373482 -0.082811 0.381174 0.164383 0.899640 0.246258 0.418323
cloak 0.272385 -0.255169 0.339922 0.172756 0.655195 0.734659 0.686188 0.065009 0.710080 0.676629
nerve 0.148108 0.208407 0.230042 0.124541 0.188375 0.840871 0.713060 0.307146 0.455524 0.421743
struck 0.227593 0.247191 0.071523 0.205081 0.570145 0.471308 0.006681 0.129772 0.071827 0.219644
probably 0.274720 0.728547 -0.047739 0.278561 0.113087 -0.095119 0.862237 0.094770 0.653120 -0.053005
silly -0.112510 0.387417 0.612653 0.330094 0.297047 -0.026542 0.295479 -0.088814 0.376423 0.666441
stunt 0.121984 0.223175 0.109896 0.226551 0.114338 0.126064 0.314240 0.786929 0.258224 0.274133
obviously 0.502557 -0.131792 0.194860 0.287938 0.179913 0.564525 0.208276 0.672343 0.177487 0.534651
collecting 0.548570 0.560562 -0.124576 0.429252 0.736825 0.352422 -0.058364 0.602905 0.046749 0.323455
yes 0.742500 -0.192136 0.247833 0.186261 0.436002 0.109180 0.006123 0.635170 0.002534 0.447660
moved -0.136641 0.554911 -0.000068 0.019582 0.883050 0.596515 -0.001151 -0.025553 0.684735 0.008690
few -0.060593 -0.184114 0.490635 0.252307 0.377652 0.682496 0.235456 0.047960 0.387463 0.841036
minutes -0.136354 0.427033 0.612880 0.508732 0.045297 0.445249 0.566113 0.269474 0.263265 0.423107
later -0.130891 0.632624 0.740883 0.065697 -0.099947 0.562496 0.072809 0.094807 0.406772 0.338484
parking 0.656542 0.387831 0.580199 0.648551 0.048608 0.782000 0.201667 0.044530 0.384744 0.162597
always 0.420346 0.583875 0.776637 0.224710 -0.047406 0.366270 0.628156 0.016732 -0.115992 0.213798
office 0.046769 0.147731 0.656273 -0.025211 0.530466 0.443660 0.083304 0.693352 0.205513 0.693458
ninth -0.054141 0.672414 0.427467 0.459196 0.019752 0.534350 0.198002 0.097191 0.244763 0.448257
floor 0.143191 0.632929 0.600049 -0.001338 0.387151 -0.330200 0.185236 0.575415 0.510354 0.374826
If 0.331462 0.313377 0.454557 0.177339 0.432771 0.450421 0.354577 -0.052431 0.474223 0.680922
might -0.020009 0.044101 0.289054 0.425539 0.045209 0.213413 0.506772 0.037373 0.533991 0.646888
harder 0.049283 0.534264 0.666648 0.168981 0.235532 0.314678 0.267138 0.078224 0.485921 0.161526
concentrate 0.037509 0.355297 0.457691 0.436395 0.586178 -0.091340 0.418392 0.050477 0.311435 0.215758
owls 0.402168 0.205526 0.593022 0.720389 0.086397 0.103494 0.043210 0.736253 0.311634 0.000380
swoop 0.070105 0.276141 0.253742 0.036507 0.800136 -0.182017 0.179648 0.795997 0.319746 0.267547
ing 0.298437 0.379553 -0.057028 0.871396 0.269102 0.386690 0.102081 0.173891 -0.043552 0.300382
broad 0.031482 0.041833 -0.056680 0.291531 0.576338 0.755733 0.424280 0.371333 0.097399 0.083894
daylight 0.348194 0.073610 0.330665 0.769993 0.302010 0.000955 -0.016515 0.118338 0.439411 0.209988
though 0.479282 0.365816 0.222373 0.328838 -0.192825 0.356814 0.480044 0.095214 0.623003 0.335040
down -0.135077 0.323458 0.657555 0.696513 0.183413 0.363351 0.236713 -0.031799 0.711491 -0.088212
pointed -0.085615 0.565052 0.209291 0.131009 0.621859 0.373410 0.585889 -0.029306 0.577639 0.590320
gazed 0.674098 0.569713 0.320179 0.183666 0.371133 0.336051 0.018567 0.424198 -0.015522 -0.062529
open 0.183777 0.272233 0.199927 0.443047 -0.071089 0.376421 -0.082030 0.787016 0.435615 0.443735
mouthed 0.550102 0.740172 0.091290 0.182728 0.494674 0.484020 0.609944 0.354103 0.269289 -0.135637
after 0.229351 0.697982 0.217992 0.056918 0.588113 0.450628 0.201737 0.344123 0.041486 0.591181
sped 0.383660 0.584246 0.506021 0.377547 0.469303 -0.206039 0.568506 0.451647 0.556665 0.187808
overhead 0.732985 0.137472 0.074792 0.788495 -0.045341 -0.149073 0.502143 0.145166 -0.134593 0.740860
Most 0.235505 0.200472 0.524644 0.405586 0.125182 0.417291 0.476623 0.338053 0.602169 0.291528
nighttime -0.002004 0.102935 0.695966 0.403399 0.287002 -0.073086 0.456202 -0.021827 0.652449 0.293830
however 0.300779 0.503200 -0.252023 0.383585 0.294822 0.451210 0.257859 0.176514 0.761309 0.125168
owlfree 0.009802 0.289761 0.686715 0.362982 0.696340 -0.253171 0.280432 0.350583 0.666361 0.002211
yelled 0.205306 0.234943 0.635355 0.431747 -0.014232 0.351996 0.175463 0.035592 0.493549 0.262159
five 0.189703 0.053949 0.124727 0.481157 0.308785 0.588254 0.038227 0.337412 0.126702 0.304622
different -0.152605 0.094574 0.320985 0.733746 0.701314 0.452522 -0.075861 0.819338 -0.106467 0.478579
important -0.031943 0.681978 0.446820 0.029096 0.370091 0.013647 0.392291 0.131502 0.756216 0.426939
telephone 0.016504 0.378133 -0.030565 0.324256 0.549142 -0.125979 0.215085 0.323259 0.636651 0.769258
calls 0.663156 0.516926 0.032171 0.697796 0.257859 -0.174147 0.315940 0.261056 0.067274 0.625950
shouted 0.668026 0.694380 0.163871 -0.044927 0.503461 0.504863 -0.059110 0.564695 -0.100077 0.259428
bit -0.037961 0.432562 0.130585 0.164972 0.599660 -0.069393 0.766883 0.437140 -0.047396 0.804804
more 0.159076 0.329547 0.614153 -0.004299 -0.039457 0.493956 0.309412 0.064859 0.393855 0.514986
mood 0.342654 0.411686 0.270341 0.687568 -0.000099 0.281654 0.494555 0.708153 0.574717 0.364207
until 0.430203 -0.042005 0.173332 0.258159 0.013743 -0.132830 0.723416 0.280065 0.527933 0.620762
lunchtime 0.554357 -0.041001 0.622678 0.433475 0.625506 0.358825 0.300063 0.254785 -0.064101 0.191668
when 0.195551 0.623164 0.279034 0.217279 0.432670 -0.156846 0.119166 0.630040 0.105957 0.634169
hed -0.108573 0.047633 0.689136 0.543901 0.519555 0.491749 0.295285 0.301769 0.123720 0.519752
stretch 0.703517 0.689506 0.089914 0.359279 0.476241 -0.091263 0.313350 0.391498 0.306657 0.006780
legs 0.427359 0.603879 0.229562 0.755104 0.326048 0.065326 0.338417 -0.097216 0.463265 0.332510
walk 0.402912 0.400273 0.392073 0.244174 0.325342 0.166094 0.617010 0.558914 0.163281 0.278044
across 0.684875 0.727009 0.542618 -0.065707 0.280451 -0.257458 0.009451 0.489892 0.469683 0.433734
buy 0.411297 0.164696 -0.128712 0.773089 0.512600 -0.185274 0.380727 0.449662 0.466724 0.290335
bun 0.725420 0.472592 -0.108844 0.768925 0.200908 0.064056 0.683984 0.757648 0.460638 -0.115196
from 0.205425 0.797245 -0.135590 0.026411 0.374769 -0.047892 0.710089 0.481078 0.164903 0.691980
bakery 0.266371 0.094441 0.645723 0.786887 0.103896 0.429270 0.337886 0.660014 0.119275 0.097472
Hed 0.615091 0.714127 0.042251 0.499156 0.118245 0.111565 0.618593 0.528126 0.296947 -0.046308
forgotten 0.347308 0.684720 0.587963 0.459034 -0.076206 0.059933 0.516244 0.247430 0.308587 -0.097514
passed 0.087571 0.306163 0.545938 0.742767 -0.051549 -0.206216 -0.064856 0.210917 0.828268 0.863932
group 0.124450 -0.051606 -0.094307 0.150944 0.764733 0.159795 0.859537 0.343460 0.601205 0.132585
next 0.220574 0.740256 0.107782 0.828930 -0.169475 -0.075387 0.234375 0.758762 0.476562 0.045848
bakers 0.099013 0.606962 0.311000 0.017660 0.481911 0.309425 0.230215 0.418494 0.054842 0.653192
eyed 0.051899 0.776632 0.343396 -0.039875 0.313595 -0.003508 0.534806 0.400944 0.624803 0.121867
angrily -0.033273 0.258870 0.312142 0.824442 0.609618 -0.121483 -0.044778 0.694153 0.059451 0.678973
know 0.374658 0.098833 0.261769 0.299124 0.413134 0.355403 -0.092452 0.704493 0.550841 0.081750
uneasy 0.194573 0.107160 0.034665 0.383556 0.104289 0.766794 0.562093 0.517008 0.216631 -0.031246
bunch 0.500206 0.738780 0.754856 0.641727 0.239407 -0.065448 -0.090260 -0.053203 -0.064396 0.813371
single 0.393921 0.762887 0.720271 0.857393 0.048935 0.790255 0.092378 0.700500 -0.114093 0.395806
tin 0.066969 0.407988 0.655232 0.261299 0.722556 -0.083877 0.788360 0.747566 0.542199 0.225206
way 0.794545 0.387561 0.704182 0.643779 -0.058089 0.383626 0.022046 0.264132 0.601758 -0.047251
clutching 0.211502 0.778227 0.167421 0.233683 0.315458 0.591416 0.289029 0.655948 0.339939 -0.165065
doughnut 0.328012 0.159571 0.360076 0.372116 0.110395 0.190663 0.809827 0.259603 0.489231 -0.073234
bag 0.654587 -0.049129 0.561648 0.054051 0.663665 -0.131133 0.543472 0.395627 0.007750 0.396472
caught 0.135788 0.318579 -0.102550 0.520290 -0.015655 0.392111 0.139462 0.805488 0.418392 0.317794
words 0.498976 -0.244161 0.697291 0.309373 0.336186 0.409048 0.532832 -0.112116 0.312358 0.586018
saying 0.291622 0.246589 0.006579 0.509225 0.060386 0.745676 0.520321 0.582300 -0.077734 0.184848
thats 0.452079 0.296027 0.653357 0.052984 -0.042790 0.471824 -0.120176 0.557241 0.540647 0.263695
right 0.225418 0.379799 0.689831 0.209077 0.298597 -0.031418 0.793675 0.016578 -0.091560 0.599879
I 0.187637 0.107340 0.447822 0.441501 -0.070703 0.299355 0.336270 0.718021 0.327742 0.631733
heard 0.339125 0.083048 0.261177 0.563038 -0.052952 0.661161 0.496788 -0.071092 0.770046 0.085523
stopped 0.673379 -0.194901 -0.080298 0.457646 0.512780 0.293872 0.235447 0.631872 0.527202 0.191559
dead 0.080120 0.550089 0.634945 0.716393 -0.167143 0.651515 0.601171 0.620586 0.098502 -0.193252
Fear 0.238009 0.742311 0.498644 0.324969 -0.007302 0.103357 0.225018 0.555310 -0.095594 0.496244
flooded 0.562587 0.536440 0.194505 0.648925 0.723792 -0.100664 0.347303 0.678627 0.369264 -0.159006
looked -0.021199 0.070052 0.664209 0.740718 0.680125 0.193037 0.312998 0.462814 -0.060021 0.312111
whisperers 0.099168 0.342809 0.262461 0.323480 0.455850 0.298849 0.018616 0.636141 0.322347 0.274916
better 0.462327 0.706167 -0.076740 0.535660 -0.065256 0.742463 0.061455 -0.012433 0.718120 0.355041
dashed 0.393391 0.402117 0.057195 0.084248 0.357040 0.220385 0.568666 0.508286 0.528383 0.154008
hurried 0.267720 -0.032045 -0.103842 0.510913 0.199628 0.155818 0.612945 0.489332 0.520033 0.520631
snapped -0.058623 0.058330 0.181744 0.568361 0.483059 0.347136 0.221081 0.211114 0.833203 0.185639
secretary 0.499499 0.513919 -0.022411 0.474369 0.217572 0.344620 0.538376 0.193448 0.668011 0.399563
not 0.532485 0.137928 0.730974 0.305624 0.384014 0.334471 0.100554 -0.001239 0.554671 0.023690
disturb 0.033624 0.529965 0.430762 -0.100873 0.436457 0.158042 0.580196 0.405431 0.416967 0.582510
seized 0.639305 0.822991 0.561804 -0.170354 -0.063213 0.196837 0.522051 0.744321 0.011023 0.339948
almost 0.277549 0.506897 -0.017773 0.045734 0.209161 0.597283 0.688028 0.266008 0.228226 -0.071353
finished 0.369587 0.612737 0.661323 0.078858 -0.144405 -0.017865 0.429898 0.566146 0.545330 0.440928
dialing 0.328033 0.767651 0.639402 0.026174 0.550616 0.508644 0.565910 0.346570 -0.100432 0.133828
home 0.612266 0.689152 -0.023482 -0.089269 0.507189 0.164993 0.117717 0.719463 0.612091 0.372655
changed -0.044859 0.400503 0.603666 0.064591 0.711720 0.245463 0.079284 0.920532 0.024729 -0.098946
receiver 0.264981 0.576364 0.805724 0.103951 0.861543 -0.065226 0.147152 0.233585 0.263865 -0.005127
stroked 0.765993 0.491921 0.136711 0.292764 0.370989 -0.098393 0.397070 0.390000 0.127498 0.268508
being -0.037349 0.812021 0.151106 0.081108 0.521751 0.282306 0.433997 0.310015 0.154085 0.594315
unusual 0.075321 0.538152 0.105310 0.351751 0.505349 0.599922 0.691348 0.001090 0.343656 0.696495
name 0.285539 0.261931 0.765708 -0.208800 0.772892 -0.066315 0.662177 0.220720 0.087412 0.646914
sure -0.051921 0.052459 0.525089 0.540098 0.681737 0.658714 0.101411 0.577059 0.541818 0.527956
lots 0.064557 0.812413 0.233605 0.495698 0.057902 0.105360 0.720605 0.030976 0.151961 0.677801
Come 0.686831 -0.094951 0.237942 0.779892 0.698862 -0.081269 0.318589 0.705906 0.311439 -0.087220
nephew -0.051273 0.584793 0.148582 0.734916 0.078812 0.423105 0.611951 0.644357 -0.089402 -0.122819
Harvey 0.393848 0.156977 0.513040 -0.023206 -0.051009 -0.101683 0.407377 0.761047 0.645022 0.764978
Or 0.525421 0.555078 0.528736 0.327726 -0.081687 -0.008342 0.117341 0.747550 0.220072 0.553579
Harold 0.438182 0.504113 0.182270 0.353522 0.239440 0.047398 0.706151 0.158731 -0.066468 0.566871
point 0.318083 0.278254 0.133361 -0.069075 0.038577 0.135001 0.586577 0.765507 0.566302 0.355390
worrying 0.732224 0.189893 0.937307 0.134240 0.231822 0.191859 0.123617 0.426082 0.306866 -0.169349
upset 0.043935 0.170945 0.778900 -0.231718 0.736915 0.763494 0.699361 0.509905 -0.078244 0.230270
mention 0.532854 0.556140 0.274834 0.003715 0.724654 0.271093 0.079688 0.736825 0.578477 0.592813
blame 0.553939 0.581950 0.290664 0.074218 0.506748 0.564132 0.531628 0.310621 0.191768 -0.061594
same 0.381963 0.113236 0.319509 0.561527 0.067042 0.541006 0.761964 0.020961 -0.065282 0.237484
those -0.113101 0.551682 0.352774 0.155457 -0.096046 0.315313 0.561696 0.647680 0.608754 0.732342
afternoon 0.062891 0.573483 0.794180 -0.068032 0.400267 0.062329 0.212803 0.008717 0.783951 0.534836
building 0.446344 0.627792 -0.264066 0.350521 0.348605 0.358617 0.678683 0.395925 0.368761 0.506514
oclock 0.469873 0.462595 0.750114 0.474316 0.422387 0.599966 0.744884 0.122589 0.080883 0.663730
still 0.025261 0.763728 0.364034 0.223093 0.518051 0.046790 0.206893 0.660439 0.130749 0.359752
worried 0.216827 0.170059 0.738624 -0.091833 0.446907 0.557811 0.649410 0.123064 0.084473 0.405592
walked 0.722077 0.563359 0.162073 0.266535 -0.030010 0.308779 0.184976 0.709796 0.269787 -0.016752
straight 0.727101 0.152817 0.095865 0.678101 0.615870 0.402784 -0.094929 -0.013083 0.562333 0.449769
someone 0.236036 0.435213 0.690540 0.270817 0.480845 -0.127504 -0.036378 0.290542 0.618283 0.624423
door 0.088359 0.331471 0.381624 0.625895 0.148840 0.567152 0.682219 0.346998 0.004245 -0.066959
Sorry 0.669874 0.160186 0.769940 0.028575 0.178494 0.154041 0.977034 0.190738 0.125563 0.069928
grunted 0.770589 0.476483 0.119411 0.104204 0.113759 0.211576 0.285273 0.080655 0.318282 0.746124
tiny 0.831807 -0.008530 0.249446 0.237157 0.126823 0.286173 0.073276 0.631327 0.401272 0.218532
old 0.376331 0.238494 0.593578 0.598319 0.247144 0.083451 0.375461 0.397857 0.151435 0.467324
stumbled 0.621894 0.693088 0.279152 0.595279 -0.053720 0.006644 0.575072 -0.064883 0.733344 0.107124
seconds 0.172221 0.417623 -0.239358 0.690449 0.682276 0.205140 0.655514 0.127467 0.161010 0.729429
before 0.501260 0.099608 0.501965 0.738510 -0.089061 0.693202 -0.050948 0.197520 -0.077138 0.798210
realized 0.278982 0.580133 0.227504 0.067840 -0.094629 0.608204 0.479836 0.744353 0.662185 0.492196
violet 0.458349 0.628584 0.815867 0.623640 -0.092033 -0.040333 0.402818 0.266678 0.261426 0.063614
seem 0.389083 0.285956 0.722940 -0.023168 0.619521 0.180500 0.417620 0.680385 0.128035 0.155490
knocked 0.520299 0.026924 0.025318 0.650780 -0.092570 0.708537 0.425640 0.222262 0.743518 0.595347
ground 0.684661 0.599982 0.266629 0.110564 -0.040968 0.067891 0.562421 0.238260 0.530849 0.019329
On 0.302486 0.630039 0.695340 0.472083 0.056973 0.403150 0.739283 -0.048551 0.380240 -0.087808
contrary 0.710799 0.803350 -0.025403 -0.174085 0.709994 0.441180 0.045601 0.280055 0.004976 0.715255
face 0.264107 0.374461 0.214636 -0.077904 0.656330 0.603945 0.158336 0.205639 0.648689 0.637761
split 0.022088 0.451783 0.267002 0.579535 0.498098 0.213866 0.397806 0.483882 0.525416 -0.146535
wide 0.416525 0.664033 0.246344 0.225855 0.624111 -0.098233 0.018182 0.740712 0.512135 0.111332
smile 0.123680 0.552304 0.060445 0.126306 0.525920 -0.017492 0.158334 0.282560 0.585994 0.610692
squeaky 0.825747 0.083904 0.223370 -0.060255 0.306446 0.554980 0.149146 0.440872 0.147969 0.515428
voice -0.126664 0.581136 0.170279 -0.012526 0.617698 0.571704 0.441372 0.591040 0.643389 -0.029128
passersby 0.807346 -0.077794 0.143466 -0.036546 0.439108 0.417274 0.131638 0.009268 0.825268 0.597602
stare 0.776702 0.391817 0.499474 0.725486 0.458122 -0.072172 0.000827 0.678614 -0.084329 0.004487
Dont 0.288503 0.722686 0.112007 0.213020 0.451382 0.636946 -0.006666 0.829101 0.212954 0.610132
sorry 0.224950 0.082189 0.292270 0.452252 0.332691 0.024916 0.709416 0.418240 0.169189 0.351942
my 0.127134 0.640544 -0.101814 0.600488 0.784207 0.251120 0.164131 0.229020 0.721639 0.239686
dear 0.486143 0.814029 0.681401 0.793940 0.205717 0.111910 0.422594 0.006310 -0.118899 0.447499
sir 0.805483 0.151683 0.584656 0.157240 0.691601 -0.031872 0.165870 0.887331 0.063143 -0.115766
me -0.102141 0.504471 0.241701 0.522579 0.369540 0.295159 0.736653 0.266933 0.052676 0.693061
today -0.029355 0.414738 0.161740 0.646212 0.790118 -0.053369 0.664841 0.225319 0.270792 0.540116
Rejoice 0.224005 0.375720 0.163734 0.097120 -0.037692 0.514998 0.167223 0.378023 0.785009 0.240310
YouKnowWho 0.412593 0.216261 0.254571 -0.103132 0.623352 0.664426 0.834317 0.815497 0.315742 0.057138
has 0.489375 0.020123 0.397230 0.654484 0.613550 0.409044 0.150312 -0.066950 0.611148 0.534875
gone 0.660893 -0.036880 0.587167 0.612604 0.791334 0.565687 0.228833 0.473833 0.219040 -0.178633
Even 0.540373 -0.070246 0.234704 0.845531 -0.039603 0.443724 0.564445 0.031071 0.385286 0.569527
Muggles 0.239213 0.325400 0.606924 0.743677 -0.143548 0.053303 0.865223 0.014351 0.784871 -0.016951
yourself 0.230948 0.261703 0.406496 0.102528 0.244292 0.203788 0.128514 0.249632 0.659123 0.588381
should -0.097690 0.580387 0.765792 0.281433 -0.056646 0.599916 0.422003 0.109420 0.742285 0.574411
celebrating 0.046200 -0.083604 0.574237 0.107780 0.711468 0.537225 0.720224 0.460845 0.380587 0.317592
happy 0.037972 0.676958 0.767642 -0.117886 0.249002 0.253646 0.585261 0.537247 0.591321 0.131277
And 0.049562 0.177856 -0.018685 0.727500 0.784404 0.713592 0.083339 0.065625 0.560254 -0.017403
hugged 0.586733 0.393623 0.351789 0.031038 0.004696 0.030408 0.736760 0.474399 0.340803 0.161580
middle 0.810098 0.063093 0.153219 0.045186 -0.056160 0.304990 0.760680 0.310945 0.726084 0.015725
off 0.343655 0.101801 0.538088 0.556936 0.336863 0.071334 0.705515 0.448550 -0.090546 0.593298
stood 0.345910 0.502933 0.301141 0.676918 0.063505 -0.049357 0.052219 0.267291 0.307372 0.612867
rooted 0.185975 0.586719 0.312895 -0.069097 0.817121 0.124625 0.240135 0.508727 0.665691 0.225417
spot 0.326014 0.357324 0.480374 0.050234 0.285727 0.182848 0.554873 0.369169 0.592142 0.533548
complete 0.562478 0.338319 0.312611 0.759633 -0.023021 0.144805 0.176903 0.518910 -0.038136 0.869532
stranger 0.335515 0.632433 0.510383 0.143030 0.342856 0.723529 0.440097 0.300242 0.439827 0.325782
Muggle 0.776672 0.622715 0.191510 0.230660 0.505211 0.657246 0.011102 0.712189 -0.090085 -0.073969
whatever 0.253376 0.627743 0.748801 0.582625 -0.186654 0.498653 0.515522 0.281127 0.565877 0.208775
rattled 0.625909 0.605514 0.207372 0.559144 0.003603 0.570884 0.430976 -0.043486 0.217665 0.648892
set 0.372897 0.564745 0.161917 0.328743 0.505455 -0.107075 0.146424 0.689801 0.328726 0.610214
imagining 0.723242 0.100984 0.296289 -0.056964 0.077367 0.296108 0.699939 0.768867 0.308619 0.740450
hoped 0.294386 0.665599 0.040768 0.719020 -0.035156 0.058190 0.266813 0.834414 0.213880 0.100221
approve -0.028716 0.731713 0.568717 -0.166517 0.182973 0.455706 0.183008 0.805699 0.127745 0.811495
imagination 0.537825 0.559341 0.102116 -0.049294 0.767075 -0.134534 0.584322 0.358185 0.214348 0.402153
pulled 0.359233 0.269314 0.560621 -0.106999 0.613802 -0.087362 0.492468 0.704588 0.646646 0.129901
driveway -0.023360 0.555851 0.563822 0.514605 0.579289 0.346876 0.669151 0.583361 0.280809 0.008267
thing 0.806959 0.650532 0.135247 0.113009 0.419183 0.437604 0.339363 0.017703 0.474559 0.550233
improve 0.119989 0.664678 0.203368 0.398418 0.862272 0.079293 0.326416 0.531617 -0.079051 0.349498
spotted 0.744374 0.280417 0.400736 0.786800 0.077313 0.119912 0.477561 0.223556 0.152245 0.192592
sitting 0.209120 0.871290 0.530042 -0.114719 0.102354 0.199920 0.124231 0.756898 0.138168 0.792499
wall 0.850896 0.517108 0.535281 0.201753 0.252060 0.737238 0.102432 0.316503 0.464295 -0.006120
one 0.655659 0.411562 -0.019101 0.175433 0.035000 0.681766 0.344569 0.080773 0.607051 0.732616
markings 0.799319 -0.197541 0.765986 0.096699 0.693562 0.704948 -0.132766 0.473865 0.131091 0.585173
its 0.046084 0.200598 0.882533 0.487623 0.344937 0.211613 0.488810 0.018292 0.191650 0.431418
Shoo 0.668249 0.066629 0.563308 0.124375 0.400532 0.536883 0.554339 0.019265 0.230170 0.733423
loudly 0.396413 -0.026947 0.010765 0.592028 -0.015374 0.579426 0.503171 0.855408 0.824373 0.299458
move 0.781606 0.599914 0.759998 0.482171 0.640990 0.510445 0.040769 -0.158760 0.591245 0.542896
stern 0.108812 0.785771 0.050852 0.473089 0.215431 0.469432 0.934281 0.079907 0.288901 -0.038983
Was -0.113215 0.836317 0.045607 0.857105 0.316291 0.075341 0.509940 0.028053 0.641173 0.681923
behavior 0.798833 0.496790 0.552074 0.068599 -0.030715 0.043784 0.535910 0.581022 0.744321 0.591156
wondered 0.869156 0.258110 -0.001217 0.520989 0.592331 0.143366 0.734028 0.226348 -0.100624 0.369744
Trying 0.406767 0.044429 0.128341 0.359869 0.279875 0.746600 0.275181 0.041084 0.551843 0.725253
pull 0.623298 0.472712 -0.061529 0.606276 0.710241 0.267105 0.399831 0.090092 0.474059 -0.081700
let 0.254520 0.677252 0.458624 0.311474 0.301223 0.779028 0.070521 0.125711 -0.054215 0.629495
determined 0.266036 0.288652 0.054156 0.511336 -0.063070 0.665303 0.772051 0.272081 0.394817 0.105152
wife 0.468754 0.538187 0.755575 0.628213 0.160031 0.389638 0.469283 -0.029478 0.661468 -0.197794
nice 0.686409 -0.004477 0.207612 0.801936 0.689203 -0.097868 0.616519 0.148405 0.408694 0.492184
She -0.086969 0.726990 0.735122 0.316042 0.483798 0.438766 0.159278 0.272404 0.435837 0.471228
told 0.191004 0.196145 0.663998 0.610387 0.687807 0.019091 0.047403 0.095682 0.363072 0.410702
dinner 0.370119 0.038752 0.162845 0.682356 0.034020 0.769657 -0.057425 0.573371 -0.010636 0.681421
Next 0.220566 0.191005 0.536983 0.149436 0.810867 0.350463 0.580740 0.590363 0.148336 0.057689
Doors 0.091151 0.250938 0.573947 0.048973 0.403950 0.097806 0.436456 0.685454 0.369116 0.807185
problems 0.664619 0.739725 0.169439 0.145040 0.603754 0.511005 0.338337 0.654703 -0.073918 0.285600
daughter -0.052825 0.096551 0.309042 0.450645 0.690621 0.647307 0.322403 0.639403 0.706527 0.000048
how 0.102789 0.642897 0.177599 0.713418 0.394017 0.227310 0.402468 0.248480 0.393774 0.204595
learned 0.160788 0.762763 0.327500 0.606018 0.499023 0.336959 0.760234 0.452748 0.232073 -0.019508
word 0.843130 0.581035 0.222950 -0.079873 0.112941 0.674624 0.154328 0.084088 0.108336 0.733572
Wont 0.904748 0.364457 -0.032138 0.094976 -0.028112 0.606834 0.105142 0.901543 0.213803 0.222053
act 0.073599 0.215208 0.358860 0.797574 0.217928 0.728569 0.758315 0.072714 0.074524 0.157300
normally 0.112650 0.205212 0.454774 0.185089 0.760428 0.082191 0.779241 0.128742 0.336527 0.110544
bed 0.371784 0.377633 0.828680 -0.106046 0.567624 0.524424 0.392411 0.607773 0.236850 0.635257
went 0.800649 0.119957 0.294698 0.316520 0.292613 0.542646 0.493546 0.643352 0.761107 -0.050321
living 0.100344 0.231909 0.764843 0.000608 0.475249 0.726040 0.036183 0.564623 0.340636 0.654041
room -0.083488 0.402516 0.575445 0.242027 -0.022345 0.632492 -0.102844 0.810836 0.674902 0.752280
catch 0.537970 0.554549 -0.044778 0.603732 0.525144 0.319056 0.242546 0.691518 0.534485 0.014007
report 0.961479 -0.023039 0.214881 -0.040374 0.389181 0.610105 0.141369 0.125673 0.215852 0.752377
evening 0.774224 0.546625 0.345366 0.616144 0.454343 0.152948 -0.119233 0.523911 0.091264 0.551502
news -0.007837 -0.040901 0.546313 0.712548 -0.035888 0.578154 0.558751 0.791997 0.360074 0.358123
finally 0.222593 0.098885 0.301444 0.471844 0.791719 0.353479 0.339570 0.618539 0.663782 -0.056157
birdwatchers 0.487320 0.368007 0.679752 0.568014 0.621285 0.576930 0.233196 0.487333 -0.015289 -0.071083
everywhere 0.041101 0.622986 0.472578 0.693316 0.357481 0.817221 0.103434 0.107421 0.150373 0.508131
reported 0.392377 0.201038 0.277376 0.085713 0.285747 0.273512 0.169154 0.139654 0.818486 0.270012
nations 0.732288 0.074477 0.422363 0.261163 0.627302 0.103307 0.163380 0.803889 0.289758 0.543575
behaving 0.347818 0.015755 0.661021 0.507420 0.100093 0.527557 0.775739 0.070668 0.769306 0.730139
unusually 0.193290 0.395959 0.601336 0.354623 -0.041806 0.203688 0.701562 0.698216 -0.029711 0.055386
Although 0.760963 0.586900 -0.095772 0.493404 0.278207 0.076930 0.724428 0.153953 0.649832 0.631559
hunt 0.260656 0.545423 0.275944 0.424479 0.345060 0.181675 0.172826 0.441233 0.042827 0.109957
night 0.598438 0.272939 0.267735 -0.030751 0.312143 0.539904 0.039199 0.143411 0.555852 0.388957
are 0.545111 -0.018863 0.050819 0.170690 -0.059290 0.161084 0.428681 0.705692 0.652912 0.451978
ever 0.719454 0.107120 0.127858 0.283494 -0.043890 0.322938 0.694310 -0.077571 0.513748 0.383251
hundreds 0.195922 0.096608 0.726740 0.448866 0.619986 0.161918 0.413851 0.031294 0.681102 -0.171036
sightings 0.172129 0.023080 0.464673 0.717318 0.296785 0.662137 -0.004001 0.099691 0.309409 0.581949
birds 0.514523 0.583081 0.316254 0.174328 0.374109 0.132146 0.311454 -0.092579 0.772943 0.189625
flying 0.024070 0.333755 0.614602 0.324758 0.374101 -0.079890 0.145074 0.679317 0.543570 -0.120014
every 0.033624 -0.026310 0.148413 0.035603 0.406703 0.355225 0.518513 0.621431 0.231487 0.496391
direction 0.265525 0.613523 0.572864 0.402487 0.328565 0.060602 0.365470 0.395528 0.132014 -0.134349
since 0.491255 0.639379 0.101725 0.155967 0.650892 0.378135 0.343293 0.131464 0.534253 0.290578
sunrise -0.003550 0.324666 0.165255 0.342881 0.193419 0.636361 0.545097 0.543622 0.336475 -0.074795
Experts -0.005053 0.770197 0.039873 0.562282 0.267912 0.833951 -0.009733 0.572538 0.308545 -0.120489
unable 0.589574 -0.068393 0.425628 -0.020948 -0.031639 0.789647 -0.077763 0.728575 -0.003786 0.724978
explain 0.029003 0.823126 -0.074988 0.054964 0.784619 0.397430 0.486142 0.053651 0.663540 -0.051002
suddenly 0.116223 0.745315 0.057527 0.113033 0.506421 -0.113924 -0.009611 0.381611 0.753374 0.403487
sleeping 0.781554 0.574620 0.513283 0.280249 0.332513 -0.200580 -0.038560 0.250279 -0.010036 0.672719
pattern 0.732675 0.451193 0.161043 0.463273 0.441255 0.008197 0.343161 0.145710 0.411447 -0.112601
newscaster 0.290509 0.039261 0.759048 0.406780 0.561863 -0.248470 0.775377 0.437254 -0.071906 0.559076
allowed 0.050140 0.671154 0.492238 -0.108476 0.423199 0.574980 0.307423 0.656343 0.273472 0.163024
grin 0.494256 0.309677 0.355858 0.563687 0.018505 0.730084 0.287897 0.113942 0.086636 0.280166
Jim 0.276698 0.242473 0.029704 0.672987 -0.180736 0.523851 0.715020 0.533521 0.227365 0.222282
McGuffin 0.454662 0.572494 0.368120 0.282053 0.634756 -0.046073 0.279183 0.183434 0.598639 0.556265
weather 0.297073 0.088633 0.586940 0.748186 0.558548 -0.035676 0.113583 0.586391 0.413723 0.233357
Going 0.590999 0.489519 0.634041 0.020968 0.723890 0.599401 -0.130067 0.332596 -0.080832 0.233968
showers 0.699025 0.166713 0.349036 0.542887 0.349244 0.056531 0.487993 0.390357 0.025881 -0.001577
tonight 0.288970 0.475487 0.916786 0.216073 0.021819 0.032127 0.324108 0.294519 0.039881 0.245920
Well 0.712632 0.287983 0.374278 0.463421 -0.069506 0.426624 0.587056 0.252145 0.155082 0.322645
Ted 0.178359 0.387627 0.354104 -0.033430 0.193965 0.546647 -0.051031 0.603304 0.547320 0.628596
weatherman 0.244712 0.268072 0.719372 0.145635 0.134369 0.336838 0.582654 0.138572 0.018688 0.326284
dont 0.192397 0.608779 0.024324 0.459521 0.657997 0.126923 0.755584 0.569656 0.558153 0.412514
only 0.136751 0.193566 0.691896 0.291329 0.409911 0.480640 0.410899 0.259260 0.260732 0.570987
acting -0.138022 -0.112884 0.755767 0.342505 0.791516 0.485047 0.239053 0.292866 -0.016158 0.754178
oddly 0.087386 -0.044657 0.797550 0.210789 -0.116862 0.748800 0.447585 0.347225 0.327896 0.544030
Viewers 0.703639 0.385800 0.596841 0.534981 0.518160 0.091096 -0.133949 0.345343 0.703313 0.303206
far 0.301748 0.751147 0.427654 0.785629 0.645896 0.061381 -0.083232 0.631258 0.085422 -0.170131
apart 0.715874 -0.076949 0.418132 0.208665 0.106638 0.607564 0.463661 0.543385 0.636901 -0.127628
Kent 0.771694 0.219386 0.298245 0.291133 0.134126 -0.077970 -0.032331 0.516185 0.650514 0.529221
Yorkshire 0.271145 0.461040 0.612634 0.447377 0.491313 0.111374 0.733239 0.485247 0.263646 0.052735
Dundee 0.230294 0.262819 0.094209 0.614918 -0.102172 0.823547 0.817693 0.579206 0.121462 -0.097756
phoning 0.731880 0.665062 -0.027536 0.544978 -0.110405 0.371580 0.220137 0.088538 0.439884 0.467255
tell 0.028178 0.073638 0.454892 0.609237 0.430513 0.504967 -0.010973 0.091711 0.419050 0.524788
instead 0.563311 -0.037439 0.609506 0.045960 0.668705 -0.070894 0.289870 0.240896 0.390776 0.757872
rain 0.645996 0.016736 0.645804 0.262518 0.147863 0.068345 0.161366 0.088954 0.670268 0.698531
promised 0.427159 -0.017780 0.768088 0.338059 0.520500 0.310490 -0.041656 0.840143 0.357734 -0.151714
yesterday 0.318946 0.785222 0.492800 -0.105932 -0.198005 0.516568 0.739137 0.281538 0.554178 0.154439
theyve 0.271909 0.615757 0.167805 0.703216 0.517874 -0.061197 0.465305 0.440189 0.076680 0.319702
downpour 0.432106 0.438185 0.673753 0.167799 0.114462 0.052220 0.206137 0.455821 0.150475 0.298581
shooting 0.442092 0.361277 0.454150 0.725356 0.118844 0.077465 0.199056 -0.017861 0.704048 -0.017754
stars 0.426849 0.733336 0.642884 -0.131208 0.090893 0.320032 0.106728 0.659751 0.477178 0.405787
Perhaps 0.684107 -0.015135 -0.036209 -0.033513 0.354412 0.458607 0.325418 0.743104 0.071990 0.467139
Bonfire 0.365347 0.371332 0.157578 0.416128 0.339553 -0.098571 0.606601 0.521165 0.643942 0.060071
Night 0.291368 -0.030001 0.023004 0.814827 0.621216 0.139274 0.793885 0.017206 0.628913 -0.013850
early 0.038439 0.029727 0.092681 0.405554 0.332357 0.378425 0.831454 0.052844 0.678203 0.269752
week 0.106277 0.712386 0.636169 0.586592 0.484816 0.788066 -0.067683 0.315613 -0.002708 0.379846
folks 0.201845 0.776453 0.104210 0.335668 0.436618 -0.120645 0.703076 0.803970 0.164531 0.456803
can 0.668080 0.466277 0.535375 -0.067489 -0.164817 0.544211 0.522989 0.710060 0.341686 0.044216
promise 0.279471 -0.089876 0.422439 0.503718 0.357000 0.314263 0.418362 0.272457 0.457699 0.613874
wet 0.088613 0.075706 0.592264 0.811310 0.254862 0.784610 0.282787 0.004680 0.273392 0.105681
frozen 0.190437 0.458555 0.089963 -0.154882 0.258059 0.860249 0.534502 0.528001 0.347030 0.369907
armchair 0.138061 0.186242 0.773535 0.298393 0.636968 0.627874 -0.058723 0.488274 0.131756 0.636776
Shooting 0.284696 0.836053 0.891242 0.235080 0.083917 -0.065605 0.093772 0.922901 0.000161 -0.075021
Britain 0.218394 0.350895 0.706891 0.050460 -0.066976 0.067712 0.006810 0.737264 0.771921 0.656372
Owls 0.148535 0.536846 0.655196 0.352170 0.131382 -0.088092 0.714108 0.239931 0.056743 0.696994
Mysterious 0.199102 -0.018945 -0.005500 0.458837 0.180418 0.286919 0.272155 0.895688 0.399661 0.464384
place 0.779322 0.199634 0.596147 0.029487 0.118282 0.252901 0.408896 0.243390 0.476209 0.060673
whisper -0.042636 0.521242 0.282855 0.656650 -0.127820 0.390467 0.787645 0.241077 0.464809 0.165337
carrying 0.599857 0.237333 0.184929 0.861680 -0.051247 0.360338 0.378274 0.203909 0.159478 0.098164
two 0.307539 0.601108 0.065094 0.312969 0.709958 0.179082 0.081017 0.401920 0.329358 0.458308
cups 0.126280 0.628366 0.420418 -0.124653 0.234461 0.595013 0.623804 0.125711 0.706844 0.615692
tea 0.007485 0.770862 0.645107 0.048489 0.705572 -0.011285 -0.046049 0.860930 0.464793 0.485552
cleared 0.118721 0.589282 0.280097 0.058340 0.452986 0.780009 0.341556 0.521418 0.370845 0.108992
throat 0.403820 -0.029812 0.117433 0.118338 0.132531 0.638905 0.498354 0.812678 0.436903 0.722494
nervously 0.215143 0.271601 0.450618 0.190646 0.750176 0.658756 0.235294 0.012594 0.094182 0.816177
Er 0.139967 0.144898 0.436742 0.812223 0.191275 0.620800 0.255520 0.454151 0.693316 0.108235
Petunia 0.679525 0.443313 0.354715 0.494106 0.445873 0.466746 0.342315 0.482482 0.163035 0.217531
havent 0.373027 0.526647 0.566347 0.522666 0.351577 0.253134 -0.065823 0.785021 -0.081245 0.696631
your 0.427808 0.505338 0.227598 0.113871 0.193634 0.309307 0.311777 -0.005263 0.732128 0.362155
lately 0.630843 0.573303 -0.017179 -0.154499 -0.067309 0.702245 0.259559 0.639827 0.353326 0.531248
expected 0.489603 0.173887 0.771860 0.013383 0.205561 0.742621 0.035279 0.198534 0.439516 0.109008
shocked 0.296036 0.692408 0.705818 0.644542 -0.111507 0.732125 0.741959 -0.117243 0.104163 0.285936
angry 0.202100 0.078542 -0.116376 0.742687 0.742862 0.687315 0.435658 0.390587 0.499903 0.122568
After 0.496307 0.745778 0.676544 0.071637 0.119157 0.768142 0.304769 0.206331 0.352302 0.008373
No 0.144611 0.421269 0.078656 0.361403 0.728417 0.695198 0.403275 0.428181 0.750303 0.106922
sharply 0.181356 0.769156 0.519363 0.133676 0.278504 0.273864 0.777175 0.339354 0.566071 0.043498
Why 0.314287 0.638957 0.180990 0.681036 0.590105 0.639694 0.160121 0.151967 0.434183 -0.098185
Funny 0.475762 0.444479 0.354678 0.511469 0.518302 0.135172 0.316830 0.626010 0.496824 0.415952
stuff 0.704300 0.075536 -0.030325 0.756151 0.434516 0.685741 0.573598 -0.134870 0.093923 0.518529
mumbled 0.652492 0.544873 0.588354 0.501497 0.342812 0.664461 0.002550 0.090411 0.171737 -0.118000
funnylooking 0.063471 0.510837 0.822984 0.053703 0.690076 -0.003677 0.809571 0.216661 0.202644 0.801778
So -0.015378 0.375139 0.659211 0.795599 0.354530 0.636822 0.265685 0.013989 0.254979 0.143617
maybe 0.027960 0.756618 0.495160 0.081131 0.398533 -0.024036 -0.021838 0.302453 0.746492 0.529530
do 0.659128 0.727988 0.019524 0.660021 0.663383 0.345876 0.616421 0.051203 0.340091 0.754792
crowd 0.523345 0.601619 0.299588 -0.063953 0.651797 0.298747 0.053748 0.680482 0.421842 -0.048198
sipped 0.107868 0.771848 0.780772 0.683562 -0.003974 0.532474 0.324739 -0.065925 0.558028 0.452771
through 0.428004 0.084372 0.414943 0.605358 -0.040314 -0.062701 0.554505 0.563238 0.379930 0.581491
pursed 0.390210 0.129507 0.534362 0.317872 0.389670 0.678214 -0.137023 0.893013 0.721974 0.005900
lips 0.256550 0.683623 0.200536 0.481374 0.250412 0.080759 0.430340 0.637758 0.781216 0.669115
whether 0.637735 -0.014116 -0.024992 -0.021711 0.124909 0.857735 0.836394 0.647662 0.116197 0.766910
dared -0.038684 0.693314 0.451141 0.237101 0.214933 0.675246 0.502653 0.317202 0.084717 0.089015
decided 0.031203 0.165082 0.811316 0.660952 0.801747 -0.119941 0.316176 0.094308 0.547855 0.629592
dare 0.143219 0.081996 0.556368 -0.071001 0.071229 0.621310 0.743833 0.580208 0.416801 0.245553
Instead 0.089134 0.185311 0.623098 0.786991 0.711127 0.139737 0.230471 -0.015096 0.490182 0.223041
casually 0.474208 0.262968 0.840279 0.822462 -0.140805 0.267816 0.624648 0.052179 0.645617 0.522912
Their 0.657948 0.515774 0.775019 0.223009 -0.054021 0.662776 0.082899 0.612362 0.785203 0.142941
Dudleys 0.695381 0.211223 -0.006128 0.573761 0.029832 0.387583 0.193433 0.663005 0.150497 0.520386
age 0.425486 0.406399 0.789671 0.151714 0.603856 -0.026290 0.734700 0.460349 0.082169 0.305618
wouldnt -0.008229 0.638624 0.047932 0.186351 0.451687 -0.008628 0.154461 0.910332 0.341388 0.810870
suppose 0.029853 0.447616 0.356804 0.652305 0.762797 0.024494 0.607831 0.609666 0.016330 0.075747
stiffly 0.565014 0.604045 0.317516 0.228940 0.292023 0.202757 0.201094 0.849195 0.422696 0.705608
Whats 0.338564 0.300626 -0.005875 0.843014 0.124674 0.249456 0.524938 0.361818 0.398284 0.074962
Howard 0.579856 0.224051 0.149986 0.660135 0.380577 -0.062697 0.441589 0.422113 0.132614 0.734721
isnt 0.724889 0.339524 0.571746 -0.058624 0.108674 0.258016 0.414745 0.659229 -0.103732 0.826813
Nasty 0.647269 -0.127078 0.759089 0.619142 0.307322 0.503679 0.060782 0.654528 0.354675 0.327131
common 0.491739 0.701764 0.632684 0.633274 0.679814 0.244298 0.504179 0.718048 -0.234942 0.091494
ask -0.092621 0.521524 0.731860 0.340933 0.802292 0.712640 0.030425 0.347316 0.170949 0.507492
Oh 0.536345 0.285550 0.293475 0.735369 -0.148263 0.229842 0.574121 0.053027 0.637680 0.775720
heart 0.017209 0.479178 0.000700 0.625676 0.057380 0.513612 0.208193 0.816311 0.608859 0.183526
sinking 0.561992 0.340314 0.614906 0.463003 0.656822 0.499053 0.685738 0.602977 0.335535 0.410765
horribly 0.347467 0.157303 0.734374 0.362471 0.321027 0.479073 -0.065169 0.808131 0.425170 0.488479
Yes 0.166524 0.630557 0.409181 0.742285 0.542118 0.338733 0.255685 0.034082 0.011677 0.544562
agree 0.822541 0.130899 0.118326 -0.008695 0.600567 0.019287 0.022210 0.922536 0.370748 0.390191
subject 0.053666 0.599325 0.618928 0.434269 0.146449 0.108128 0.368294 0.879962 0.609091 -0.093369
upstairs 0.836478 0.173321 0.641427 0.257873 0.083393 0.249030 0.498978 0.242009 0.017722 0.083183
While 0.353392 0.186401 0.030542 0.920510 0.039334 -0.098321 0.843995 0.062348 0.336659 0.722542
bathroom 0.421220 0.051764 0.329773 0.695118 -0.131314 0.675758 0.764106 0.044268 0.693519 0.369282
crept 0.704462 0.647708 0.397886 0.328322 0.509068 0.491513 0.453394 -0.025282 0.763492 0.300091
bedroom 0.259829 0.092307 0.188332 0.233495 0.121184 0.379326 0.357910 0.525903 0.846161 0.224167
peered 0.520174 0.591690 0.098286 0.686581 -0.030247 0.295260 0.000439 0.330806 0.717179 0.112079
front 0.241018 0.645468 0.524038 0.704254 0.142246 0.507147 0.058066 0.072570 0.672071 0.293134
staring 0.366136 0.303853 0.414362 0.766275 -0.017078 0.316298 0.159727 0.539183 0.705590 0.038715
waiting 0.319405 0.541221 0.165177 0.569198 0.431647 0.329659 0.409770 -0.062057 0.783565 0.455678
Could 0.257037 0.029838 0.600638 0.308710 0.227326 0.780914 0.522502 0.230016 0.091283 0.206410
related 0.346943 0.127568 0.190018 0.121211 -0.016147 0.169364 0.625557 0.513180 0.914391 0.555053
pair 0.750012 0.202138 0.292215 0.701854 0.257441 0.370485 0.221937 0.341411 0.468185 0.450661
well 0.737511 0.093281 0.407518 0.321899 0.538764 0.662661 0.323144 0.609321 -0.072117 0.640008
asleep -0.002728 -0.119567 0.244883 0.616933 0.389295 0.006716 0.581815 0.575641 0.731341 0.645471
quickly 0.296065 0.578432 0.400328 0.539748 0.101859 0.309080 0.192500 0.420452 0.239299 0.299019
lay 0.699137 0.166638 0.518323 0.076269 0.588742 0.418599 0.739697 0.483356 0.152934 -0.058461
awake 0.234520 0.649168 0.201944 0.126696 0.869785 0.109343 0.059617 0.077960 0.333479 0.576305
turning 0.147752 0.845532 0.386827 0.175250 0.620278 0.199917 0.100133 0.308184 0.492918 0.232271
His 0.647166 0.818574 0.420021 0.481519 0.000344 0.623274 0.151197 -0.047243 0.777241 0.437439
comforting -0.088919 0.128020 0.653997 0.031795 0.362985 0.830027 -0.093605 0.377336 0.718460 0.671356
come 0.635439 0.414583 -0.016436 0.377024 0.678296 0.358713 0.106995 0.339260 0.559672 0.363695
near -0.095762 0.639209 0.753244 0.764024 0.202500 0.760657 0.109111 0.761308 -0.094307 -0.089118
kind 0.071482 -0.044166 0.161199 0.771124 0.454242 0.067925 0.743308 0.455066 0.629288 0.797391
mixed 0.393738 0.207146 0.578045 0.238717 0.703627 0.416337 -0.036678 0.138036 0.067190 0.435317
going 0.299455 0.116743 0.027445 0.427199 0.491171 0.232625 0.420124 0.544208 0.729093 0.268759
yawned 0.601022 0.676848 0.134236 0.034445 0.115986 0.349945 0.808574 0.154738 0.174226 0.377604
turned 0.164735 0.270323 -0.060635 0.671964 0.237415 0.092409 0.711059 0.298870 -0.173916 0.519972
affect 0.435390 0.311637 0.410736 0.109979 0.304316 0.216902 0.308587 0.140804 0.686921 0.035986
How -0.046543 -0.062591 0.345702 0.085625 0.152053 0.821445 0.090908 0.623744 0.351838 0.735672
wrong 0.152220 -0.081037 0.278432 0.164643 0.325529 0.411598 0.350785 0.367863 0.092339 0.865595
drifting 0.580787 -0.065893 -0.046106 0.653716 -0.004294 0.581766 0.536826 0.165608 -0.011479 0.616615
sleep 0.598990 0.317741 -0.231811 0.568031 0.234141 0.741592 0.485839 0.305072 0.407867 0.416582
showing 0.298393 0.531696 0.646592 0.009979 0.688877 -0.156067 -0.178263 0.695409 0.137790 0.680833
sleepiness 0.156972 0.684927 0.688231 0.002072 0.261255 0.177234 0.409873 0.208069 0.140918 0.743755
statue 0.158294 0.705912 0.660604 0.260255 0.336076 0.312386 0.102931 0.071367 0.114496 0.570016
fixed 0.330678 0.508652 0.145659 -0.001746 0.497495 0.435538 0.597617 -0.035979 0.251146 0.576560
unblinkingly 0.675712 0.678719 -0.037944 0.491692 0.663652 0.053559 0.473791 0.018184 0.020034 0.728589
quiver 0.050737 0.755397 0.177131 0.304992 -0.203822 0.404065 0.664033 0.416940 0.147218 0.501717
slammed 0.579555 0.733253 0.321610 -0.044762 -0.090626 0.381279 0.139260 0.308235 0.231869 0.379403
nor -0.032305 0.414445 0.081786 0.332961 -0.205623 0.443316 0.496279 0.574717 0.692883 0.679131
swooped -0.155091 0.714656 0.429015 0.626653 0.295012 0.364437 0.508157 -0.082097 0.196266 0.826494
In 0.381532 0.614983 0.260133 -0.108322 -0.065030 0.378890 -0.072036 0.783085 0.773891 0.076613
midnight 0.508238 0.400457 0.347912 0.393728 0.011695 -0.061746 -0.088865 0.719357 0.354638 0.310981
A 0.639491 0.316517 -0.010626 0.419582 0.459693 0.759036 0.407915 -0.145084 0.022933 0.412294
appeared 0.235704 0.134109 0.705663 0.244006 0.733321 0.649083 0.199861 -0.040473 0.003810 0.342004
watching 0.074252 0.621839 0.599279 -0.257118 0.286480 0.125498 0.788467 0.658943 0.254826 0.182009
silently -0.004810 0.485016 0.068464 0.269879 0.510948 0.109882 0.112292 0.303686 0.243524 0.703955
popped 0.548738 0.720933 -0.142319 -0.003089 0.371830 0.443349 0.373699 0.299259 0.694717 0.487831
tail 0.183719 0.711586 0.095841 0.259531 0.444630 0.209649 0.576937 0.497562 0.006394 0.724384
twitched 0.473809 0.375482 0.768980 0.337096 0.399848 0.695030 -0.001874 0.554626 -0.054170 0.290186
narrowed -0.073914 0.233934 0.019621 0.598307 0.652616 0.098004 0.669088 0.694792 0.409238 0.312417
Nothing 0.680238 0.793433 -0.119798 0.686386 0.732659 0.554951 -0.004651 0.631249 0.364145 0.836940
tall 0.176699 0.867031 0.575829 0.563908 -0.005567 0.054567 0.080803 0.591237 0.199531 0.697630
judging 0.671374 0.176885 0.382556 0.236583 -0.072011 0.197190 0.607939 0.480921 0.330363 0.125615
silver 0.658973 0.154734 0.423068 0.579898 0.120985 0.161128 0.808412 0.064620 0.095770 0.050702
hair 0.409831 0.385820 0.452944 0.110611 0.239231 -0.058828 0.543819 0.518660 0.105138 0.234564
beard -0.054275 -0.025712 0.494233 -0.015968 -0.017611 0.416783 0.442846 0.368519 0.809035 0.559452
both 0.868709 0.474905 -0.038264 0.453048 -0.102594 0.507240 0.035723 0.496042 0.455586 0.076570
long -0.120345 0.596058 0.060162 0.411542 0.662728 0.740539 0.277229 0.146290 -0.075832 0.652005
enough 0.164342 0.295982 0.388093 -0.034166 -0.181128 0.506407 0.543136 0.539739 0.781373 0.340048
tuck 0.487284 0.260519 0.441704 -0.043052 0.726265 0.522574 0.401070 -0.091313 0.664405 0.172351
belt 0.478861 0.594284 -0.132109 0.004783 0.150355 0.421201 0.546333 -0.037894 0.641254 0.724042
robes 0.285207 0.104543 0.567076 0.323049 0.159492 0.738529 0.037972 0.008533 0.519389 0.199297
purple 0.419836 0.664686 -0.071895 0.382488 0.459718 0.674972 0.727243 -0.078016 -0.161651 0.466052
swept 0.049606 0.449925 0.026236 0.250851 0.246705 0.425034 0.659079 0.303477 0.239297 0.575847
highheeled 0.688632 0.084242 0.195561 -0.075379 0.769483 0.867854 -0.041828 -0.004425 0.818208 0.270644
buckled 0.714236 0.401248 0.184926 0.627741 0.106046 0.626419 0.502921 0.677758 0.660124 0.131217
boots 0.601724 0.064721 0.130405 0.415965 0.451855 0.260951 0.387419 0.280303 0.582717 0.626950
blue 0.676306 0.486672 0.668396 -0.033968 0.068790 0.203522 0.083543 0.618905 0.686000 0.226752
bright 0.702491 -0.025450 0.090003 0.359897 0.073111 0.730298 0.377198 0.030040 0.366605 0.756895
sparkling -0.022896 0.227943 0.198517 0.154439 0.706704 0.291496 0.733246 0.291929 0.276912 0.401296
behind 0.478692 0.702594 0.386252 0.410220 0.001111 0.459309 0.567850 0.415138 0.110957 0.704634
halfmoon 0.740801 0.572886 0.038078 0.564635 -0.083396 0.682395 0.473141 -0.044573 0.340667 0.154271
spectacles 0.322925 0.410493 0.125240 0.683240 0.623047 0.407348 -0.120178 0.438168 0.123655 0.798604
nose 0.723460 0.548570 0.471928 0.113692 -0.004955 0.336638 0.163756 0.222480 0.109364 0.189707
crooked 0.497871 0.126880 0.683197 -0.100725 0.109851 0.393519 0.190210 0.298845 0.678059 0.690563
broken -0.002074 0.591717 0.512725 0.621816 0.392746 0.274795 0.474783 0.598689 0.346049 0.048860
least 0.212654 0.601034 0.542034 0.683319 -0.082603 0.620697 0.573025 0.507626 0.503874 -0.109777
mans 0.131844 0.720672 0.240331 0.193390 0.479088 -0.026977 0.268022 0.038801 0.868562 0.329354
Albus 0.464877 0.241560 -0.079732 0.354151 0.353822 0.165055 0.098780 0.173760 0.735718 0.765499
Dumbledore 0.583606 0.721541 0.628672 -0.048624 0.490328 0.044552 0.002930 0.466809 0.669212 0.201810
where 0.531330 0.231696 0.558501 0.246898 0.616233 0.051302 0.610905 0.575241 0.020221 -0.116377
unwelcome 0.086262 0.681732 0.559440 0.200082 0.247062 0.094888 0.583338 0.410890 -0.077054 0.628546
busy 0.057768 0.661969 0.368731 0.002518 0.052438 0.095455 0.404900 0.233656 0.530016 0.597742
rummaging 0.433709 0.466469 0.455762 0.312079 0.649109 0.409117 0.723970 0.503746 0.320730 -0.015475
other 0.045385 0.558386 0.265134 0.395457 0.520440 0.588255 0.070689 0.367574 0.682007 0.444095
end 0.510632 0.069067 0.614098 0.178836 0.676095 0.159265 0.319187 0.328247 0.159854 0.718427
amuse 0.717866 0.605578 -0.149953 0.329079 0.078796 0.514391 0.262514 0.584821 0.605432 0.675950
chuckled 0.111854 0.830212 0.022157 0.305739 0.842979 0.108564 0.434758 0.270959 0.294614 0.437700
muttered 0.553123 0.716061 0.292668 0.739200 -0.061304 0.056716 0.243542 0.142020 0.319446 0.028006
known 0.596129 0.150873 0.179560 0.160276 0.685928 0.814586 0.664673 0.104248 -0.013398 0.067350
inside 0.489411 0.804307 -0.123824 -0.043783 0.160498 0.653158 0.404710 0.276482 0.760833 0.313169
pocket 0.513105 0.189453 -0.029536 0.413130 0.264817 0.335595 0.832865 0.176665 0.696380 0.242870
cigarette 0.222520 0.239972 0.259600 0.579322 0.301725 0.567200 0.209206 0.100876 0.133590 0.663182
lighter 0.573926 0.425421 0.025259 0.007104 0.608977 0.256680 0.095077 0.575138 0.438478 0.664443
flicked 0.804040 0.476798 -0.040516 0.316095 0.049324 0.155254 0.463055 -0.028511 0.503445 0.674964
held -0.065280 0.647703 0.231283 0.657752 0.053627 0.514410 0.405000 0.732945 0.524498 0.253745
air -0.000510 0.668506 0.664442 0.163674 0.197368 0.088107 -0.001801 0.310198 0.922157 0.271973
clicked 0.411008 0.696463 -0.153121 0.291341 0.830802 0.249567 -0.087410 0.182610 0.795411 0.482926
nearest 0.395334 0.527307 0.359907 0.685513 0.335531 -0.010244 -0.075697 0.189815 0.810647 0.101955
lamp 0.156899 0.785822 0.394571 0.297572 0.293003 0.234486 0.770251 0.295282 0.280430 0.149767
pop 0.731626 0.469167 0.586321 -0.033887 -0.068062 0.050732 0.840176 0.272392 0.348892 0.486852
flickered 0.219492 0.748031 -0.075085 0.475433 0.206444 0.588428 0.326822 0.646176 0.592776 0.485020
darkness 0.258165 0.571947 0.206200 0.718483 -0.084469 0.461475 0.786294 0.367679 0.826575 -0.188362
Twelve 0.073444 0.104512 0.086559 0.749943 0.067300 0.915599 0.016904 0.485677 0.510547 0.021147
times 0.001199 0.184792 0.294222 0.638338 0.115579 -0.028249 0.605517 0.818110 0.380296 0.381570
PutOuter 0.633462 0.560198 0.445657 0.494935 0.125501 0.382060 0.316412 0.138958 0.201532 0.088021
lights 0.506216 0.641661 0.318932 0.318200 0.786127 -0.054900 0.546884 -0.091479 0.397176 0.326639
whole 0.194536 0.827875 0.119214 0.265727 0.265048 0.179445 0.756264 0.888962 0.107165 -0.004445
pinpricks 0.591168 0.320510 0.487556 0.728681 0.080844 0.305355 0.020170 0.410918 0.057276 0.509083
distance 0.815455 0.541506 -0.041925 0.087446 0.248414 0.384614 0.186324 0.480116 0.540316 0.378060
beadyeyed 0.391525 0.899737 0.081703 0.160798 0.281050 -0.072885 0.137814 0.195634 0.335158 0.856908
able 0.480770 0.714285 0.354280 0.359542 0.097857 0.529146 0.456588 0.048661 0.026020 0.282905
pavement 0.480639 0.658841 0.151687 0.094864 0.108297 0.553761 0.227155 0.544597 0.397245 0.357041
slipped 0.784346 -0.004393 -0.136914 0.702681 0.202285 0.709669 0.537597 0.006256 0.588271 0.209875
moment 0.176141 0.051089 0.039358 0.417523 0.165307 0.389358 0.289263 0.192976 0.731040 0.691449
spoke 0.559398 0.296376 0.260398 0.590286 0.583338 -0.096950 0.178111 0.532872 0.701542 0.512280
Fancy 0.749350 -0.002064 0.644399 0.627804 0.714696 0.194906 0.021806 0.819287 -0.032794 0.027512
seeing 0.223054 0.578883 -0.040553 0.113580 0.379046 0.497027 0.721592 0.537321 0.318213 0.450169
here 0.658140 0.355914 0.705768 0.109673 0.353884 0.353789 0.321197 0.144677 0.197213 0.806410
Professor 0.840677 -0.062226 -0.178495 0.472426 0.374852 0.331099 0.776284 0.237919 0.395398 0.217267
McGonagall 0.675408 0.025232 -0.092546 0.118243 0.538918 0.380044 0.888434 0.799789 0.074999 0.026116
smiling 0.614490 0.853742 0.536602 0.159276 0.102284 -0.050759 0.054261 0.412766 0.841014 0.102274
rather -0.035520 0.702173 0.848420 0.307989 0.623965 0.737043 0.278975 0.096439 0.379022 0.036962
severelooking 0.710478 0.788227 0.311796 0.029421 0.273929 0.721540 0.137954 0.327837 0.583051 0.675770
woman 0.331229 0.667070 0.454230 0.439925 -0.066715 0.787960 0.376264 0.244779 0.340423 0.101972
square 0.449690 0.610447 0.392197 -0.034425 0.135294 0.617837 0.860108 0.043118 0.504181 0.200119
glasses 0.871347 0.224038 0.547085 0.482636 0.606342 -0.103653 0.368065 -0.129135 0.369363 0.499915
exactly 0.093746 0.240895 0.250391 0.787071 0.449244 0.710946 0.572668 0.036640 0.514821 0.005935
shape 0.674956 0.190640 -0.023858 0.233987 0.590854 0.422543 0.492454 0.193270 0.264687 0.263075
emerald 0.030743 0.787721 0.342110 0.409489 0.022223 0.205919 0.345252 0.609337 0.678931 0.181589
Her 0.332530 0.522891 0.340193 0.323939 -0.046218 0.652054 0.218957 0.681659 0.185928 0.661589
black 0.033103 0.001255 0.028754 -0.113423 0.883818 0.567713 0.383439 0.300357 0.827221 0.830332
drawn 0.579581 0.301291 0.532445 0.064885 0.067502 0.279618 0.355872 0.483994 0.206303 0.851448
tight 0.401757 0.650423 0.558557 0.766472 -0.007985 0.376603 -0.040080 0.061174 0.711150 0.171936
distinctly 0.471897 0.763642 0.717407 0.735264 0.542393 0.246810 0.427763 0.135804 -0.041643 0.219985
ruffled 0.508943 0.687477 0.216525 0.072088 0.560022 0.072814 0.305434 0.406529 0.167597 0.530993
asked -0.033406 0.793828 0.466371 -0.015194 0.587840 0.549912 0.121305 0.473183 0.275726 0.392761
My 0.514924 0.082607 0.784818 0.426692 0.130349 0.162304 0.752705 0.086543 0.480233 0.260848
ve 0.533554 0.767944 0.666839 -0.020331 0.090785 0.307997 0.384888 0.462069 0.133849 0.404853
sit 0.640351 0.476825 0.314348 0.445620 0.158826 0.795879 0.347064 0.584282 0.313325 0.364003
Youd 0.605375 0.360056 0.628498 0.057109 0.590718 -0.020029 0.020126 0.841455 0.205655 -0.031874
stiff 0.042594 0.710713 0.100034 0.164247 0.090285 0.687628 0.830790 0.717102 0.585881 0.523192
brick 0.779550 0.603007 -0.067543 0.535870 0.415295 0.614036 0.400061 0.676657 0.662095 0.066654
All 0.640987 0.583548 0.719118 0.291837 0.729733 0.169613 0.136117 0.052623 0.743025 0.123172
dozen 0.606137 0.349986 0.797223 0.666794 0.555510 0.429620 0.606123 0.153602 -0.066171 0.319894
feasts 0.527324 0.540037 0.689458 0.141040 0.396253 0.749808 -0.136395 0.737794 0.280544 0.073806
parties 0.620205 0.568073 0.218672 0.440074 0.038253 0.083437 0.396727 0.738953 0.599782 0.243291
sniffed 0.370522 0.875754 0.138975 0.035903 0.358104 0.204049 0.611568 0.352378 0.469582 0.311196
everyones 0.415073 0.166843 0.504773 0.024928 0.845591 0.070155 0.297468 0.480439 0.316483 0.551311
impatiently 0.323512 0.493161 0.128086 0.538146 0.019070 0.309620 0.098258 0.371051 0.415687 0.653230
theyd 0.744776 0.028986 -0.052234 -0.031261 0.473483 0.711849 0.335179 0.274069 0.239548 0.841971
careful 0.088933 0.644299 0.162328 0.334146 0.546776 0.762716 0.190428 0.131412 0.277356 0.674624
somethings 0.656176 0.866639 0.032022 0.484789 0.157981 0.341660 -0.040160 0.260399 0.398952 0.251473
dark 0.204812 0.022529 0.657316 0.832962 0.100434 0.727760 0.304755 0.779103 0.448265 0.012649
livingroom 0.274288 0.052848 0.142149 0.536851 0.259811 0.586374 0.816519 0.493991 0.434158 0.066178
Flocks 0.020322 0.351969 0.658964 0.080556 0.372138 0.492582 0.352773 0.051283 0.736201 0.766501
theyre 0.698086 0.417102 0.124563 0.142058 0.128276 0.398103 0.033762 0.633506 0.637943 0.296123
completely 0.635270 0.856227 0.151735 0.004856 0.481808 -0.040577 0.747586 0.562294 0.463560 -0.004558
bound 0.761144 0.672399 0.265804 0.115216 0.363697 0.769243 0.482911 0.156787 0.443764 0.266984
notice -0.066039 0.833594 0.647772 0.178863 0.554643 0.284206 -0.073692 0.544412 0.493273 0.420187
Ill 0.632405 0.406565 0.061419 0.345934 -0.020692 0.609679 0.781278 0.109875 0.407594 0.451470
bet 0.726422 0.694412 0.158453 0.419069 0.056409 0.734344 0.169182 0.167058 0.729620 0.490869
Dedalus 0.637804 0.721962 0.625538 0.755116 0.223946 0.097379 0.049186 0.805656 0.060222 0.071594
Diggle 0.384146 0.855692 0.728464 0.498477 0.552924 0.107983 0.825685 0.181533 0.244346 0.741372
sense 0.448799 0.066485 0.521385 0.613522 0.464029 0.465927 0.863164 0.194212 0.681194 0.323757
You 0.204645 0.476422 -0.015298 0.492141 0.695925 0.525115 0.811120 0.400393 0.749386 0.740388
cant 0.177184 0.660669 0.566207 0.422065 -0.110942 0.457947 -0.093744 0.796733 0.292237 0.836884
gently 0.845257 0.088921 0.421240 0.256016 0.578062 0.198069 -0.005218 0.441296 0.777651 0.039971
Weve 0.177640 0.695339 0.581198 0.263549 0.040466 0.589297 0.218128 0.216594 0.000567 0.731194
precious 0.678535 0.333056 -0.067893 0.405691 -0.000330 -0.032820 0.638106 0.575676 0.822718 -0.017108
celebrate 0.184106 0.455985 0.652456 0.103474 -0.050172 0.575437 0.831548 0.037521 0.314388 0.804699
eleven -0.076546 0.374537 0.570107 0.822586 0.398594 0.105173 0.597788 0.779941 0.459992 0.021871
irritably -0.006828 0.432406 0.320333 0.658067 0.267648 0.505653 0.188463 0.772531 0.576250 0.031419
lose 0.215085 0.410147 0.782957 0.774506 0.405265 0.448412 0.660852 0.235847 0.175855 0.312378
heads 0.491677 0.362601 0.552381 0.331807 0.028726 0.582714 0.647569 0.113042 0.017476 0.411194
downright 0.856328 0.308840 0.120821 0.774350 0.106530 0.118744 0.211592 0.717025 0.012954 0.804992
careless 0.350782 0.217637 0.147030 0.375645 0.656257 0.274536 0.566568 -0.005308 0.230746 0.383170
streets 0.514927 0.167921 0.853963 0.204700 -0.046256 -0.078865 0.819875 0.668704 0.428611 0.847176
swapping 0.761593 0.766317 0.312823 0.640390 0.183151 0.332644 0.187581 0.819197 0.553272 0.590130
rumors 0.832520 0.412420 0.440707 0.271562 0.774625 0.369675 0.183497 0.168377 0.825026 0.393563
threw 0.768037 0.678055 0.340365 0.465718 0.478362 -0.072988 0.158348 0.087524 0.628760 0.455745
sharp -0.100200 0.779892 0.108500 0.279300 0.801499 0.007573 0.184968 0.225693 0.399900 0.254916
sideways 0.660625 -0.048367 0.774164 -0.058339 0.739319 0.195043 0.385868 0.383502 0.052819 -0.101141
glance 0.021954 0.120113 0.821146 0.467839 -0.097693 -0.180408 0.824046 0.009517 0.026426 0.718934
fine -0.182035 0.021845 -0.140743 0.323972 0.540584 0.567743 0.516300 0.657219 0.758224 0.218192
seems 0.113014 0.727390 0.132715 0.651806 0.063079 0.503764 0.570978 0.477463 0.391080 0.124531
disappeared 0.053305 0.387755 0.055886 0.658383 0.466034 0.410975 0.553828 0.202710 0.213679 0.517522
us 0.706923 0.419002 -0.094969 0.308624 0.471521 -0.165807 0.676312 0.372296 0.167313 0.232268
really 0.064532 0.430321 0.470514 0.321660 0.060136 -0.007805 0.644451 0.137761 0.725930 0.121479
certainly 0.384789 0.242050 0.704019 0.637921 0.168486 -0.081226 0.075234 0.222120 0.668086 0.104699
We 0.804589 0.388373 0.040401 0.305019 0.235557 0.393097 0.117937 0.380864 0.037255 0.385717
thankful 0.595471 0.285174 0.004947 -0.058920 0.363142 -0.111259 0.389198 0.693975 0.326408 0.744678
Would 0.182395 0.585400 0.057033 0.132912 0.596429 0.286402 0.548198 0.494806 -0.001455 0.002867
care 0.747405 0.663160 0.018528 0.440217 0.265592 0.474052 0.720877 0.718503 -0.081096 0.555536
lemon 0.251675 0.415099 0.497270 0.545489 -0.003631 -0.129213 0.256136 0.559235 0.288607 0.188700
drop 0.483161 0.189871 0.094404 0.414427 -0.003220 0.539048 0.199743 0.692682 -0.011123 0.679578
Theyre 0.145896 0.711477 0.148673 0.668957 0.505908 -0.122772 0.244175 0.183166 0.587401 0.143344
sweet 0.471916 0.218248 -0.055351 -0.147556 0.677636 0.193018 0.420323 -0.042092 0.695276 0.701915
Im 0.697200 0.625445 0.264450 0.122799 -0.062703 0.379459 0.469709 0.197263 0.018870 0.309595
fond 0.736655 0.048354 0.021272 0.409265 0.019364 0.065256 0.129495 0.306579 0.618158 0.547175
coldly 0.272675 0.268455 0.071547 0.088620 0.733106 0.080983 0.399416 0.274064 0.512982 0.241540
drops 0.278633 0.115045 0.789626 0.211695 0.642896 0.181764 0.383377 0.342886 0.136538 0.088235
surely 0.816544 0.572470 0.451062 0.087289 0.404789 -0.047028 0.687440 0.024380 0.720268 0.556144
sensible 0.449873 0.900668 -0.022481 -0.008974 0.332114 0.049757 0.220002 0.193305 0.720883 0.630580
person -0.074362 0.563327 -0.107671 0.744148 0.475306 0.009387 0.563070 0.739361 0.559981 -0.129542
call 0.472882 0.067267 0.479628 0.437451 0.502119 0.459984 0.180000 0.095626 0.032103 0.408983
KnowWho 0.555792 0.082206 0.640432 -0.112469 0.033307 0.263993 0.343296 0.781410 0.069567 0.569807
trying 0.486463 0.096711 0.054012 0.027996 0.286436 0.213180 0.209916 0.766911 0.439790 0.411681
persuade 0.071864 0.769069 0.083170 -0.087628 0.384169 0.543349 0.460638 0.075210 0.582179 0.374137
proper 0.753740 0.488830 0.253099 -0.131480 0.004656 0.415599 0.072435 0.913544 0.637957 0.352501
Voldemort 0.821573 0.122477 0.774702 0.695204 0.042732 -0.055498 0.180830 0.255947 0.518193 0.298076
flinched 0.551827 0.700470 -0.017411 -0.120132 0.489093 0.480574 -0.041556 0.270543 0.898402 0.348616
unsticking 0.394645 0.328788 0.783806 0.508673 0.162254 0.335053 0.566471 0.035866 0.070970 0.051396
gets 0.140049 0.418614 -0.087883 0.371375 0.774889 0.071956 0.232873 0.606689 0.577797 0.624878
confusing 0.453770 0.655687 0.433646 0.144938 0.050639 0.282816 0.130727 0.460892 0.481058 0.710160
we 0.474835 0.475385 0.010572 0.309085 0.666210 0.025096 0.550514 0.227611 0.141314 0.154144
keep 0.583441 0.333144 0.751366 -0.021421 -0.057927 0.047094 0.688834 0.407689 0.701856 -0.067863
frightened 0.610828 0.235863 0.790976 -0.041224 0.085233 0.323918 -0.025689 0.645724 0.695729 -0.049756
Voldemorts -0.040422 0.756080 0.634737 0.540065 0.224666 0.344366 -0.018404 0.602110 0.149703 0.150340
haven 0.284496 0.407875 -0.039076 0.212502 0.682770 0.100642 0.450984 0.493998 0.389182 0.469048
t 0.721494 0.749909 0.551923 -0.086322 -0.113250 -0.107460 0.650222 0.252879 0.441376 0.399490
sounding 0.634673 0.145339 0.043902 0.601196 0.334610 -0.086597 0.625188 0.458695 0.693951 0.361397
exasperated 0.772081 0.574513 -0.062635 0.609017 0.516486 0.074615 0.504809 -0.040348 0.454699 0.300934
admiring 0.510392 0.668879 0.540776 0.370858 0.287845 -0.075869 0.417229 0.419774 0.103064 -0.084355
youre 0.265110 0.636518 0.569940 0.580878 0.086723 0.221898 0.401496 0.685785 0.398997 0.284542
Everyone 0.305020 0.751672 0.319076 0.066462 -0.124480 0.063992 0.421802 0.617723 0.106239 0.532108
knows 0.047865 0.034103 0.730476 0.687626 0.031244 0.729050 0.089634 0.263379 0.632833 0.314935
YouKnow 0.882570 0.620966 0.621130 0.442980 0.148192 -0.136717 -0.105019 0.320664 0.571807 0.227991
oh 0.300693 -0.081052 0.875844 0.380376 0.206430 0.087855 0.281501 0.518998 0.195994 0.787833
flatter 0.349621 0.800101 0.497003 -0.118456 0.210826 0.756523 0.707794 0.608650 0.250287 -0.006181
calmly 0.119261 -0.009936 0.636322 0.570107 0.654583 -0.061357 0.048064 0.770082 0.768636 0.590549
powers 0.111086 0.481884 0.154399 0.239012 0.549046 0.191201 0.707283 0.437473 0.340405 0.472872
will 0.290627 0.462725 0.330748 0.026804 0.030082 0.144831 0.583085 0.787485 0.197400 0.616823
Only 0.589370 0.305196 0.583416 -0.115239 0.616191 -0.077522 0.468943 0.198757 0.802722 0.614788
noble 0.377319 -0.050514 0.474237 0.278228 0.774167 0.398247 0.445466 0.022678 0.606457 0.111159
use 0.169171 0.752837 0.460850 0.230717 0.209978 0.732287 0.068986 0.764869 0.012879 0.244500
Its 0.684259 0.154608 0.520264 0.347238 0.533528 0.310483 -0.067489 0.752361 -0.100686 0.763580
lucky 0.775998 0.497449 0.694682 0.395525 0.528323 0.571763 0.748265 -0.139167 -0.020010 -0.074015
blushed -0.005804 0.910184 0.223023 0.018789 0.435379 0.120833 0.461027 0.844778 0.345246 0.607045
Madam 0.338185 0.446669 0.017936 0.191358 0.717418 -0.092048 0.549200 0.797753 0.517635 0.728157
Pomfrey 0.497340 0.685357 0.577788 0.542518 0.412917 -0.060969 -0.030100 0.536350 0.765214 0.087467
liked 0.652803 0.465102 0.462246 -0.030094 0.089202 -0.036525 0.585995 0.472284 0.374953 0.472513
earmuffs 0.720438 0.258358 0.717244 0.136923 0.067620 0.094788 0.716384 0.079621 0.244370 0.333116
shot 0.365119 0.003655 0.727617 0.305724 0.665791 0.137536 0.065743 0.501889 0.278488 0.681888
About 0.415016 0.788321 0.381550 0.746701 0.511482 0.322996 0.147477 0.450331 0.135631 -0.109471
hes 0.861963 0.567968 0.071989 0.390323 0.518614 -0.019862 0.293181 0.865386 0.272801 0.350190
reached -0.043660 0.041169 0.125325 0.262918 -0.012303 0.648243 0.806402 0.558164 0.810714 0.190107
anxious 0.720032 0.214757 0.716899 0.652104 0.474519 0.664448 -0.101602 0.313813 0.012038 0.107031
discuss 0.552731 0.515228 0.081461 -0.095840 0.462833 0.713686 0.056525 0.601162 0.116270 0.331940
real 0.225868 0.457030 0.648537 0.653786 0.044226 0.345003 0.484981 0.416418 0.172914 0.197753
cold 0.000515 0.053311 0.123980 0.197831 0.701156 0.768573 0.221644 0.851689 0.130045 0.682434
hard 0.459981 0.284469 -0.007913 0.593781 0.474049 0.113834 0.622189 0.518329 -0.006614 0.547779
neither 0.685447 0.260158 0.132511 0.620157 0.739142 0.115837 0.303642 0.664904 0.013513 0.755842
piercing 0.761635 -0.058389 0.517960 0.654893 0.586463 0.055637 0.480531 0.631555 0.186976 -0.157963
plain 0.344090 0.695909 -0.032775 0.145020 0.365646 0.812537 0.392011 0.449808 0.402357 0.197101
everyone 0.457157 0.322649 0.457426 0.306184 0.159607 0.677832 0.310656 0.406831 -0.059104 0.459184
believe 0.500865 0.375125 0.583511 0.466211 0.679996 0.564155 0.368833 0.243616 -0.145786 0.119475
true 0.764138 0.507843 0.576068 0.629112 -0.186618 -0.056873 -0.045585 0.225509 0.564706 0.310759
choosing 0.803354 -0.084730 0.025929 0.106152 0.186330 0.757909 0.307070 0.038674 0.506422 0.345624
answer 0.864249 0.286683 0.229811 -0.131561 -0.095176 0.148103 0.223772 0.651431 0.299655 0.593796
pressed -0.006556 0.406332 0.708189 0.179388 0.233522 0.671743 0.185207 0.104543 0.588906 0.271943
is 0.253392 0.490143 0.785853 0.024653 -0.053918 0.172764 0.426407 0.496805 0.001729 0.284890
Godrics 0.331438 0.178876 0.635744 0.205569 -0.103757 0.587699 0.013335 0.679251 0.778044 0.468385
Hollow 0.461416 -0.173255 0.383969 0.009818 0.576284 0.614959 -0.105565 0.089575 0.628807 0.552661
find 0.545729 0.099020 0.584260 0.563034 0.511942 0.591475 0.396167 0.550306 0.321090 0.386322
rumor 0.484558 0.736257 0.614027 0.310797 0.626368 0.518072 0.172355 0.076603 0.266076 -0.059742
Lily 0.534004 0.347801 0.722886 0.024265 0.340113 0.225095 0.822613 0.064202 0.739590 0.092764
James 0.483623 -0.053082 0.719325 0.838045 0.646185 -0.063455 0.546146 0.159271 -0.069849 0.602838
bowed 0.813048 0.129993 0.730040 0.964501 -0.070657 0.055291 0.456975 0.257349 0.084778 -0.077556
gasped 0.481309 0.139104 -0.067444 0.744190 0.411352 0.569885 0.611802 0.282252 0.255680 0.020997
patted 0.011285 0.400485 0.091116 0.409322 0.118018 0.206178 0.560521 0.471196 0.279093 0.683872
shoulder 0.497778 0.139636 0.657168 0.127167 0.313939 0.563722 0.531568 0.139949 0.670796 0.672095
heavily 0.377284 0.824844 0.497407 0.731231 0.676615 0.316327 0.642986 -0.011153 0.118409 0.437768
McGonagalls 0.146809 0.791225 0.509798 0.808441 0.552833 0.548484 0.457536 -0.109620 0.843766 -0.218272
trembled 0.866666 0.313547 0.438273 0.713482 0.144555 -0.126597 -0.107785 0.780680 0.236201 0.510296
Thats 0.014433 0.362307 0.479154 0.673356 0.314700 0.328784 0.329561 0.621149 0.792176 -0.068318
kill 0.192798 0.303414 0.652382 0.227698 0.469356 -0.061400 0.637587 0.253291 0.192770 0.657742
power 0.206286 0.385697 0.776126 0.243722 0.537131 0.323170 0.789087 0.008822 -0.167205 0.593387
somehow 0.021744 0.355551 0.031095 0.381507 0.358087 0.121172 0.833002 0.316837 0.375278 0.614012
broke 0.285218 0.088419 0.301340 0.048798 0.488417 0.620486 0.105868 0.732391 0.182535 0.379466
nodded 0.731327 0.500111 -0.138795 0.810811 0.050473 0.092896 0.641182 0.084199 0.684759 0.710917
glumly 0.865565 0.233048 0.683013 0.497955 -0.139048 0.690921 0.442505 0.011386 0.582314 0.132588
faltered 0.158479 0.695563 0.118828 0.762306 0.236302 0.231630 0.224136 0.672070 0.449712 -0.039932
done 0.407867 0.494425 0.131876 0.540217 0.651514 0.097590 0.649448 0.306650 0.066025 0.634235
killed 0.060216 0.547720 0.034316 0.701491 0.598877 0.066488 0.833247 0.528130 0.778727 0.433183
astounding 0.493878 0.770108 -0.047759 0.127235 0.218564 0.368880 0.154626 0.656664 0.740699 0.588235
stop 0.277031 0.135099 0.266585 0.512217 0.349372 0.248521 0.371375 0.095837 0.560435 0.232457
heaven 0.671848 0.356802 -0.136900 0.405253 -0.135409 0.690209 0.800625 0.561378 0.256570 0.439489
survive 0.550955 0.494501 0.411797 0.333701 0.101649 0.706262 0.553607 0.614572 0.701962 -0.053468
guess 0.096610 0.438073 0.251751 0.804561 -0.081445 0.430223 0.120523 0.878440 0.220170 0.169713
may 0.640996 0.069961 0.347604 0.500297 -0.014415 0.804743 0.726181 0.474274 0.677114 0.458571
lace 0.403357 0.641597 0.019499 0.091780 0.762461 0.173083 0.655266 0.564968 0.447294 0.697132
handkerchief 0.090070 0.342607 0.199336 0.169113 0.598935 0.970790 0.736246 0.380294 0.452749 0.131461
dabbed 0.067544 0.207794 0.156353 0.796562 -0.001146 0.053151 0.555698 0.390073 0.161041 0.469391
beneath 0.662008 0.199804 0.034023 0.680566 0.082521 0.238145 0.101565 0.644640 0.119596 0.518319
great 0.267345 0.121562 0.719977 0.700914 0.031756 0.270254 0.134427 -0.047086 0.086287 0.792722
sniff 0.191874 -0.194931 0.357415 0.415576 0.398094 0.734836 0.066339 0.354722 0.614981 0.631616
took 0.321454 0.439478 0.056255 0.284286 0.555837 0.346790 -0.021909 0.407612 0.243000 0.335303
golden -0.178967 0.275013 0.635771 0.450719 0.724020 0.503822 0.313341 -0.046731 0.526935 0.636914
watch 0.210056 0.431212 0.090762 -0.038379 0.293931 0.533810 0.628120 0.308298 0.760042 0.104902
examined 0.012997 0.604596 0.034749 0.781454 0.744270 0.339579 0.688246 0.008059 0.063073 -0.001118
odd 0.096050 0.408700 0.857428 0.174305 0.274233 0.088092 0.574687 -0.092252 0.146688 0.514018
twelve 0.056748 0.397097 0.764178 0.314003 0.566413 0.254455 0.061363 0.429792 0.575530 0.295423
hands -0.137588 0.118881 0.801712 0.197361 0.166378 0.867526 -0.027649 0.652393 0.196374 0.690871
numbers 0.480901 0.203680 0.386428 0.568772 0.547490 -0.033165 0.383646 0.433951 0.433994 0.109450
planets 0.119654 0.359660 0.304282 -0.029385 0.723310 0.216740 0.315076 0.507414 0.589861 0.276745
moving 0.238639 0.622188 0.439619 0.580926 0.240951 0.436403 0.019368 0.312222 0.509063 0.129737
Hagrids 0.210154 0.425287 0.192698 0.644330 0.478573 0.147981 0.399627 0.605912 0.147918 0.076477
late -0.057886 0.010247 0.198596 0.210541 0.313042 0.997695 0.066067 0.841988 0.107522 0.126226
Id 0.097706 0.675418 0.507463 -0.096039 0.738645 0.193403 0.388976 0.625506 0.540792 0.180258
places 0.268316 0.185977 -0.060631 0.211708 0.162091 0.667933 0.279363 0.344614 0.727330 0.725486
Ive 0.374847 0.268719 0.695050 0.005997 0.876111 0.345897 0.175473 -0.042513 0.133678 0.239810
bring 0.468134 0.216963 0.532312 0.560159 0.525056 0.135058 0.171880 0.659355 -0.066453 0.556885
aunt 0.480080 0.508133 0.752657 -0.001015 -0.072738 0.733659 0.145627 0.439375 0.125825 0.234053
uncle 0.499772 0.188688 0.109355 0.076060 0.369778 0.657490 0.659072 -0.009657 0.250875 0.174264
family 0.043868 0.129945 0.783249 0.794568 0.188050 -0.034490 0.643827 0.513705 0.587968 -0.092746
mean 0.388338 0.272225 0.201963 0.391580 0.614962 0.123577 -0.077014 0.170780 0.684535 0.376514
live 0.719476 0.314980 0.043170 0.717633 -0.028073 0.240333 0.158506 0.565067 0.295040 0.631973
