77573 50
Harry 0.089959 -0.129075 0.040505 0.597504 0.428816 -0.172144 -0.079193 0.123166 0.269144 0.362555 0.694213 -0.250898 0.133656 0.524549 0.292180 -0.152582 -0.097933 0.606263 -0.050359 0.305436 0.509183 0.455737 -0.188687 -0.154335 -0.023809 0.284262 0.581105 0.773613 0.057340 0.500974 0.718717 -0.173782 0.168882 0.082264 0.558245 0.313843 0.007598 0.087566 0.150805 -0.009929 0.593177 0.619048 -0.007297 0.204701 0.303551 0.242299 -0.103732 0.099104 0.460520 0.266974
Potter 0.238234 0.453801 0.277502 -0.214987 -0.030431 0.501167 -0.090716 -0.102586 0.033617 0.329187 0.766912 0.730064 0.159558 -0.029189 -0.077315 -0.210213 -0.026168 0.414036 0.292560 -0.099150 0.552804 -0.181530 -0.037432 0.116827 0.679144 -0.188679 -0.082531 0.183380 0.212442 0.317672 0.286055 -0.270897 0.533973 0.342139 0.030834 0.758259 0.412792 0.302845 0.377135 0.750953 -0.257922 -0.034273 0.669920 0.065156 0.719080 0.494193 0.629084 0.348284 0.656133 0.583846
and 0.010860 -0.093520 -0.081174 -0.013687 0.410744 0.311873 -0.013917 0.149848 0.307782 0.123590 0.237130 0.298258 -0.307701 -0.282752 0.059825 0.304973 0.592552 0.255160 0.536292 -0.120196 -0.190134 -0.204725 0.340537 0.236580 -0.295310 0.258422 0.288776 0.494235 0.046717 0.090745 -0.129891 0.064564 0.293521 0.468900 0.104735 -0.175028 0.048863 0.428995 -0.029000 -0.094489 -0.062203 0.471169 -0.269917 0.041318 -0.014369 0.234523 0.066632 0.598063 0.510310 0.166402
the -0.022429 -0.102228 -0.183449 0.179570 0.129211 -0.002544 0.417769 -0.239743 -0.263269 -0.143182 -0.058697 -0.220340 0.111102 0.126872 0.240438 0.320492 0.215074 0.115364 0.227618 0.229548 0.673938 0.662827 -0.117014 -0.038651 -0.236215 0.436216 0.475757 -0.158033 -0.200307 0.568872 0.209435 0.059698 -0.110201 0.010274 -0.104002 0.597917 -0.124613 0.147365 0.276925 -0.101864 -0.053796 0.184690 0.252948 0.071663 0.096952 0.545495 -0.174156 -0.211654 0.273578 -0.297961
Sorcerers 0.477737 -0.337268 0.676409 -0.039976 0.376431 0.114184 -0.209234 -0.068806 0.010009 0.075756 0.634447 -0.321264 0.290411 0.586023 -0.104775 0.146804 0.440977 -0.099874 0.580111 0.528066 0.226219 -0.286753 0.028167 0.165548 0.582420 0.087547 -0.108226 -0.174588 0.194684 -0.264211 0.636076 0.668197 0.440482 0.322259 0.415618 0.498857 -0.087701 0.425595 -0.258367 0.108186 0.661733 0.373963 0.123019 0.008023 0.443607 -0.166092 0.215626 0.025072 -0.222522 -0.122093
Stone -0.223389 0.187961 0.176951 0.029562 0.234241 0.019574 0.661078 0.374989 0.534430 -0.230820 0.799303 -0.224787 0.147802 0.309796 0.092499 0.675703 0.365452 0.559462 0.570688 0.581728 0.530821 0.183975 0.020519 -0.103231 0.472379 0.795668 0.444485 -0.002625 -0.189518 -0.059160 0.150439 0.560534 0.683584 0.154214 0.332574 -0.072275 0.271283 0.176065 0.143844 0.208188 0.208760 -0.161529 0.465289 0.012231 0.456766 0.110772 -0.100329 -0.214412 0.031347 0.213250
CHAPTER 0.335789 0.796792 0.752974 0.123278 0.196931 0.157691 0.412120 0.574438 0.815863 0.550018 0.469055 0.236171 0.807334 0.236492 0.212432 0.400195 0.778067 -0.038539 0.044365 0.260931 -0.005221 -0.043563 -0.014813 0.615449 0.792948 0.769756 0.000165 0.768414 0.101448 0.382266 0.113232 0.161221 0.447484 -0.154086 0.767991 0.781577 0.615937 0.611372 -0.010855 0.033459 0.569825 -0.082925 0.440229 -0.107286 -0.084098 0.832423 0.293206 0.517834 0.419535 0.594158
ONE 0.297940 0.049318 0.623612 0.451324 0.585573 0.807501 0.512624 0.361167 0.394356 0.555177 0.902331 0.339759 0.294460 0.918649 0.606609 0.129988 0.557667 0.908575 0.011906 0.852680 0.328372 0.539130 0.361617 0.932472 0.393175 0.613658 0.176789 0.776694 0.064755 0.273961 0.004401 0.228372 0.784691 0.692461 0.874496 0.873548 0.671915 0.473032 0.076960 0.050877 0.931246 0.268673 0.245301 0.361047 0.794523 0.365347 0.531934 0.516824 0.644147 0.156421
THE -0.274907 0.307551 0.698668 0.656857 0.150613 0.192352 0.186707 0.383691 -0.013690 0.740351 0.364367 0.269071 0.695759 0.194408 -0.100766 0.674818 0.673039 0.114120 0.517901 0.106282 0.754031 0.333148 0.450867 0.286280 0.416583 0.595359 0.215773 -0.052571 0.630457 0.534704 -0.057631 -0.165051 -0.198637 -0.173587 0.658625 0.405006 0.178533 -0.125081 0.619087 0.479025 0.151103 -0.147171 0.353467 0.528214 0.375462 -0.002431 -0.053505 0.525970 -0.038446 -0.069276
BOY 0.604446 0.006570 0.197966 -0.037916 0.061777 0.159029 0.323372 -0.079687 0.564767 0.049635 0.696624 0.005121 -0.278215 0.048397 -0.069880 -0.169820 0.728967 -0.113064 0.524459 0.499427 0.388143 0.110123 0.485918 0.641700 0.165312 -0.274232 0.660776 0.563484 -0.065398 0.357587 0.185435 0.155413 0.535424 0.696019 0.653439 -0.049443 0.287171 0.121091 0.150430 -0.171363 0.456505 0.249646 -0.185205 0.122149 0.507951 0.023967 0.464024 0.735543 0.456772 0.608927
WHO 0.446352 0.064145 0.616419 0.032447 -0.117087 -0.146022 0.286386 0.324691 0.432386 0.418650 0.341070 0.055629 0.399698 -0.106601 -0.232845 -0.058129 0.426467 0.742679 0.503743 -0.163502 0.581567 0.655772 0.024126 0.607815 0.748431 -0.200316 -0.037606 0.717443 0.027658 0.133338 0.187487 -0.116604 -0.196907 0.512227 0.744200 0.150206 0.183332 0.211785 -0.248766 0.053603 -0.050833 0.107880 0.417805 0.453503 0.733771 0.745235 0.699223 0.234203 0.554945 0.323795
LIVED 0.455541 0.436938 0.727337 0.768625 0.714324 0.007504 0.509277 0.218839 0.506495 0.633854 0.426724 0.347611 -0.018957 0.199587 0.415785 0.199392 -0.141096 0.174171 0.415150 0.315441 0.430193 -0.243670 0.062208 0.242057 0.747457 0.166529 0.100675 -0.013279 -0.086181 -0.079334 -0.139200 -0.027549 0.211450 0.473545 0.069690 0.248443 -0.137917 -0.202703 0.241754 0.462337 0.638537 0.424486 0.474966 0.099242 0.009137 0.374706 -0.077281 0.354632 0.324999 -0.172326
Mr 0.225128 -0.026970 0.180214 0.310563 0.757402 0.663845 -0.237172 0.330587 -0.116501 0.532462 0.392794 0.448648 -0.018546 0.307136 0.594410 -0.132077 0.466224 0.609249 0.396087 0.590455 -0.053226 -0.148552 -0.239208 0.189008 0.676504 0.214019 0.107763 0.078949 0.571147 0.130355 0.506847 0.554456 0.722663 -0.066470 -0.019841 0.347948 0.203252 0.365363 -0.207213 0.000080 -0.206123 -0.011328 0.096760 0.288497 0.583038 -0.100981 -0.098113 0.564464 0.043075 0.382238
Mrs 0.432973 0.325885 -0.023299 0.093561 0.182070 -0.271163 0.260645 0.337330 0.681986 0.030004 0.199807 0.697882 0.503908 0.547433 0.151771 -0.021757 0.471326 0.365252 0.134308 0.405957 0.498516 0.299044 -0.227349 -0.104150 0.101008 0.706264 -0.066049 -0.150837 0.330137 0.490967 0.697020 0.273779 0.128476 0.666459 -0.172868 0.704693 0.778952 0.252191 0.295281 0.526783 -0.145236 0.339857 0.513609 0.463944 -0.161415 -0.056755 -0.312024 0.151813 0.155143 0.307432
Dursley 0.167084 -0.244954 -0.120745 -0.169465 0.046944 0.467329 0.186078 0.183915 0.071823 -0.169827 0.571781 -0.424392 0.437864 0.215711 0.121635 0.164604 0.628992 0.387978 0.123268 0.080043 0.028996 0.056000 0.199109 0.362693 0.301443 0.418664 -0.103947 0.006377 0.074491 -0.028989 -0.101447 0.256638 -0.161490 -0.089825 -0.009798 0.238939 0.342924 -0.214521 0.017985 0.584485 0.176785 0.150454 0.571402 0.081415 -0.176447 -0.280453 0.450344 0.391766 0.545738 -0.230926
of 0.448847 0.427597 0.374296 -0.305400 0.513730 0.040385 0.047630 0.371164 0.430228 -0.220682 0.408660 -0.247300 0.558451 0.103749 -0.154323 0.415649 0.236989 0.353643 0.454118 -0.356763 0.041292 -0.336524 -0.220062 0.277288 0.038397 -0.107514 0.378156 -0.210277 -0.098610 -0.143730 -0.117662 0.121718 0.392218 -0.218186 0.367097 0.414234 0.218041 -0.201448 0.104712 0.252368 0.304619 0.436407 -0.209634 0.199061 -0.239185 0.052859 0.439019 0.018433 -0.232366 0.033508
number 0.605944 -0.063492 -0.107657 -0.260008 -0.245243 -0.309316 0.516018 -0.195021 0.100344 0.683643 0.270584 -0.047183 0.168065 -0.177655 -0.206750 -0.186062 -0.240833 0.034940 -0.286387 0.101394 0.366188 0.441483 -0.049161 -0.277511 0.279495 0.306402 -0.328766 0.347688 0.304107 -0.055705 0.075360 0.384818 0.425401 0.207277 0.476222 -0.047458 0.442007 -0.259180 0.362440 0.441921 0.168079 0.358167 0.405293 0.229534 -0.333824 -0.179051 0.126205 -0.271345 -0.063325 0.601056
four 0.581679 -0.289330 -0.283920 0.295706 0.498922 0.326351 -0.321109 -0.345034 0.480079 0.003866 0.173443 -0.000520 0.050167 0.393015 0.465025 0.491426 -0.019465 -0.018352 0.339172 -0.352052 -0.235870 0.044004 0.144726 0.136314 0.232896 0.418130 0.019882 0.432729 0.165122 0.340152 0.160429 0.008948 0.325313 -0.334911 0.441269 0.084429 0.559056 0.389783 0.394892 0.509380 -0.012344 -0.001745 0.009514 0.192537 0.552970 -0.260210 0.299825 0.230624 -0.286696 0.130654
Privet 0.438048 0.121023 0.082666 -0.048242 0.306462 -0.288130 0.022478 0.625618 0.068511 0.620538 0.058602 -0.287137 0.136303 0.167496 -0.057752 -0.241990 0.611644 -0.116725 -0.158829 0.276366 0.117155 0.437716 -0.044027 0.126673 -0.034868 -0.202811 0.302071 -0.262742 -0.237946 0.593003 0.374639 0.445071 -0.030819 0.546980 -0.235752 0.411753 0.042474 0.026457 -0.164218 -0.212942 0.092630 -0.121267 0.040491 0.104937 0.466205 -0.005514 0.229534 0.035313 0.273817 -0.066442
Drive -0.045065 0.173603 0.301456 0.176934 0.172771 -0.110669 0.158569 -0.060287 -0.051325 0.321261 0.119870 -0.321091 0.314119 -0.128099 0.389121 0.518114 0.495586 0.408211 -0.373697 -0.109556 -0.307232 0.649041 -0.018449 -0.112393 0.224944 0.306753 -0.327784 -0.028579 -0.232873 0.117467 -0.114691 -0.198874 -0.023681 0.163208 0.040803 0.248565 -0.016185 -0.117650 0.178717 -0.362576 0.284999 0.443175 -0.161618 0.241970 0.526123 0.276502 0.331014 0.403875 0.594154 -0.131174
were 0.517392 -0.319181 0.231399 -0.025966 0.553018 -0.234160 0.066643 -0.307067 0.079285 0.702115 0.438013 0.267984 0.199035 -0.001222 0.163158 0.026840 -0.256084 0.325659 0.393482 -0.038773 -0.129254 0.060271 -0.155739 0.404111 -0.237343 0.643999 -0.066651 -0.108889 -0.216580 -0.045326 -0.209520 0.506965 0.108139 -0.202983 0.237799 0.212215 0.142159 -0.195409 -0.000211 0.320817 -0.073964 0.369367 0.227360 0.009442 0.242019 -0.386787 0.477783 0.191451 0.168156 -0.229189
proud 0.062203 0.426327 0.217258 0.138398 -0.272120 -0.263963 0.139760 0.157609 0.461992 0.165742 0.159014 0.304398 -0.016949 0.474570 -0.081525 -0.258682 0.014108 0.566614 -0.209840 0.392024 0.106787 0.391066 0.136583 -0.449052 0.367141 -0.278300 0.289348 0.578783 0.417512 0.250624 -0.380177 0.318069 -0.021628 0.401734 0.000050 0.128224 0.391410 -0.222274 0.318975 0.095661 -0.297825 -0.237516 0.580542 0.502013 -0.291068 0.286252 0.144503 -0.271046 0.560158 0.466231
to -0.088174 -0.167588 0.182755 -0.099616 0.562951 -0.063718 -0.179199 0.051625 0.251340 0.007173 -0.084597 -0.271365 0.070098 -0.247638 -0.200140 0.485925 0.449026 0.373967 -0.062741 -0.343925 0.030285 0.272981 0.070305 0.170342 0.543731 -0.125978 -0.028867 0.513550 0.444921 0.149134 0.689504 -0.056493 0.530442 0.369081 -0.118347 0.384897 -0.323154 -0.242912 0.263789 0.256697 0.137898 -0.277928 0.373685 -0.275121 -0.201403 0.579889 0.640695 0.051551 0.050900 -0.111396
say -0.184547 0.470473 0.427907 -0.061678 0.090265 0.263193 0.459599 0.213907 -0.151899 -0.372381 0.324283 -0.115398 -0.286781 0.001826 0.490051 0.239582 -0.187348 0.122334 -0.114650 0.513158 -0.174981 0.084280 0.470863 -0.314332 0.022191 -0.269018 0.297495 0.180552 0.537945 -0.266842 0.235995 -0.098722 -0.141666 0.418980 0.251906 -0.003567 -0.206650 0.117240 0.478416 -0.024016 0.485901 0.556976 -0.116325 -0.003574 -0.229811 0.463154 0.148083 0.176776 0.305559 -0.137997
that 0.347765 -0.319893 -0.170496 0.174789 0.005330 0.189682 -0.109985 0.429040 0.376464 -0.310302 0.058697 -0.234332 0.094926 0.225475 0.458653 0.219974 0.075461 -0.257312 -0.317410 0.299199 0.054686 0.210641 0.296288 0.483728 0.032945 0.385431 0.188301 -0.227700 0.500294 -0.203328 0.038701 0.388692 0.034749 0.340769 -0.100486 -0.375051 0.222680 0.549897 0.264430 0.299087 0.001706 -0.392437 0.281121 0.282820 0.041121 0.308177 -0.310169 0.442795 0.005039 0.247792
they 0.277592 0.485417 0.511469 -0.256884 -0.298811 0.459008 0.102526 0.295188 -0.375321 0.616197 -0.185027 -0.039979 -0.326716 0.102561 0.311462 0.319297 0.215385 0.365710 -0.144471 -0.250930 0.052790 0.183469 0.102447 0.144973 0.082696 0.507292 0.070010 -0.152357 -0.178501 -0.099197 0.223419 -0.303206 0.046935 0.514989 -0.066681 0.216295 0.274244 0.241027 0.012999 0.170396 -0.266333 0.380860 0.563773 -0.072073 0.027559 0.622658 0.456452 0.057317 0.238240 -0.178972
perfectly -0.073862 -0.128445 0.030230 -0.196520 0.472326 -0.085697 -0.422787 -0.036454 -0.230806 0.384965 0.185001 0.065811 -0.101336 0.307732 -0.298876 -0.193968 -0.241790 -0.031254 0.121996 0.444733 0.448988 0.396907 0.403530 -0.226171 0.587411 0.319819 0.004663 0.120609 0.493033 0.446416 0.241241 0.584864 -0.027678 0.028045 0.542618 -0.297014 0.220063 0.621681 0.132082 0.503318 0.236611 -0.105748 0.246028 0.314401 0.577491 -0.183263 0.032579 0.550128 -0.204243 -0.212209
normal 0.028608 -0.359114 0.490478 0.481485 0.273552 -0.223646 0.492761 0.305852 0.100574 0.272869 -0.009158 -0.015835 0.523679 -0.269502 0.546828 0.593417 0.300706 0.202923 0.162028 0.371646 -0.424369 -0.149523 0.268739 0.393748 -0.143738 -0.025271 0.036446 0.491623 0.113384 -0.144689 -0.281271 0.128488 -0.009596 0.079277 0.388925 0.256593 0.071882 0.306546 0.125333 0.178657 -0.216374 0.456249 0.292776 -0.094935 0.536664 0.102004 0.257583 0.429554 -0.233610 0.469907
thank 0.145768 0.352201 -0.324276 0.010465 0.121688 -0.102561 0.232054 0.339616 0.239297 0.570132 -0.042277 0.371375 0.076221 0.180836 0.283152 0.087213 0.340572 -0.258905 0.572161 -0.209786 0.035709 0.225401 0.129256 0.252258 0.220720 0.514024 -0.201857 0.577938 -0.338377 0.129727 0.043670 0.644789 -0.047983 0.317708 -0.002801 -0.087176 -0.161095 -0.136682 -0.219674 0.126104 0.449673 -0.188255 0.250790 -0.103703 -0.269062 -0.040948 0.211214 -0.091466 0.491577 0.563953
you -0.195632 -0.129411 0.312021 -0.010537 0.418678 0.458020 0.001287 -0.066729 -0.319030 -0.214628 0.558096 0.524602 0.370989 -0.129803 0.291601 0.308786 0.466042 0.225981 -0.063915 -0.163286 0.029578 -0.290941 -0.023108 -0.119066 -0.268376 0.047218 -0.178930 0.383729 0.040815 -0.052801 0.188383 0.405304 0.612202 -0.116398 -0.163987 0.061271 -0.103315 0.372274 0.263706 0.435637 0.364855 0.041876 0.487986 0.125082 0.394446 0.331578 0.540812 0.031539 -0.254926 -0.228730
very 0.110101 0.596292 0.057020 0.239673 0.446781 0.265805 0.526191 0.018738 0.281838 0.113956 0.053286 0.229769 0.389810 -0.432388 0.307119 0.054830 0.155779 0.088017 0.004291 0.046827 -0.275677 -0.025718 0.513382 0.447351 0.002981 -0.325738 -0.009845 0.163212 0.102729 0.623483 0.093981 -0.120403 0.053044 -0.120535 -0.210957 0.243864 -0.260483 0.096213 0.136294 0.590218 0.306521 0.152069 0.468210 -0.099402 -0.262177 0.214961 0.066268 -0.175480 -0.008202 0.003365
much -0.062280 -0.118206 -0.182021 -0.177537 -0.034613 -0.198068 -0.144798 0.545186 -0.226508 0.365533 -0.129930 0.008644 0.594518 0.443977 -0.018695 0.001818 0.428557 -0.114046 0.160835 0.175721 0.460746 -0.063788 0.159805 0.311101 -0.032269 0.636877 -0.244085 -0.330459 -0.068855 0.277691 -0.286754 -0.067943 -0.159300 -0.096071 0.088162 -0.252917 -0.230692 0.647080 -0.047447 0.272903 0.504622 0.423219 0.425079 0.601772 0.672302 0.491119 0.562033 -0.273368 -0.221404 -0.058054
They -0.174232 0.488938 -0.461287 -0.034214 -0.010709 -0.252391 -0.144207 0.408567 0.539873 -0.000317 0.054989 0.159397 0.496709 0.164446 0.088419 -0.013449 -0.231901 0.419969 0.130450 0.419062 0.441704 0.663937 0.292831 -0.310398 -0.005274 0.022462 0.411441 0.537359 -0.291015 0.121332 0.113116 0.363175 0.030913 0.169498 0.059894 -0.324779 -0.055612 0.424556 0.191865 0.486255 0.033087 0.453186 0.395176 0.192298 0.504956 -0.274251 -0.285445 0.068694 -0.260922 -0.210974
last -0.442429 0.140032 0.049927 0.463550 0.025832 0.304571 0.275872 0.465105 0.387381 0.213513 -0.239233 0.397303 -0.173050 0.284660 0.484271 -0.120356 0.093476 0.388267 0.574934 0.467482 -0.142397 -0.224307 0.286698 0.033774 0.208754 -0.079806 -0.285957 0.364916 -0.143243 0.170533 0.066980 -0.008160 -0.197388 0.424535 0.255151 0.399144 -0.205652 0.091448 0.543985 0.271218 0.430996 0.065623 0.310703 -0.068788 -0.128973 -0.225496 0.318037 -0.128366 0.549773 -0.224473
people 0.371671 0.198622 -0.175051 0.153770 0.114440 -0.028157 -0.338365 0.462097 -0.233598 0.448553 0.432719 -0.109507 0.029168 -0.105784 0.445557 -0.136061 -0.187583 -0.208708 0.428911 0.548685 0.250824 -0.129025 -0.045054 0.421396 0.095348 0.404486 -0.267932 0.347948 -0.277545 0.240469 -0.109864 0.430324 -0.141316 -0.384538 0.419536 -0.128989 0.404828 0.422245 -0.221859 0.529107 -0.354948 0.440645 0.183627 0.188975 -0.220423 0.416894 0.416089 0.356638 0.353660 0.618671
youd 0.317315 -0.257094 -0.076483 0.195106 -0.204482 -0.219336 0.619236 0.315175 0.529711 -0.118156 0.399545 -0.156833 -0.211321 -0.130554 0.626605 -0.136179 0.472682 0.040351 0.197946 -0.234602 0.053766 -0.146259 0.017708 0.281741 0.094193 -0.180362 -0.209845 0.360131 -0.263892 -0.219111 0.186084 -0.283605 0.141304 0.325202 -0.106617 0.002636 -0.150214 0.194488 0.053967 0.572643 0.623573 0.068037 0.183583 0.321607 0.358538 0.271780 0.020578 0.466012 0.231249 0.390087
expect 0.170532 -0.061283 0.300840 -0.056920 0.132768 0.035007 -0.088152 0.306792 -0.200657 0.068114 0.229139 -0.198872 0.301686 0.534514 -0.443967 -0.067450 0.538227 0.277116 0.508153 0.359196 0.443699 0.515775 0.405236 -0.254419 0.510200 0.558637 -0.402828 -0.308485 0.347532 0.113608 0.293321 -0.032049 -0.202333 0.384202 -0.009451 0.133786 -0.144800 -0.221226 0.188974 -0.294504 -0.273962 0.022190 0.283505 -0.343965 0.050608 0.383900 0.187150 0.202875 0.265790 0.506528
be 0.268999 -0.275908 0.502901 0.161933 0.610397 -0.387315 -0.079301 0.366000 0.150931 0.398561 0.408354 0.538676 -0.240216 0.184578 0.488782 0.017023 -0.081774 -0.069188 0.173799 -0.010786 -0.386822 -0.275752 -0.308398 0.636902 0.016734 0.280701 0.082974 0.089471 0.043337 0.340237 0.123187 -0.160203 0.496234 0.493938 0.201928 -0.427525 -0.205437 0.437326 0.038547 0.283624 0.524625 0.524313 0.112042 0.149003 0.156577 0.432540 -0.376539 0.514656 -0.124201 -0.042306
involved 0.419605 0.168475 0.175980 0.060711 0.236306 0.454410 0.470387 0.061315 -0.083383 0.540151 -0.308348 -0.339169 0.085726 -0.038252 0.500177 0.149202 0.572321 0.552309 -0.032685 0.435919 0.292272 -0.108845 -0.085954 0.070610 0.193592 -0.033904 -0.332558 -0.105602 0.574937 0.087586 -0.029229 -0.260047 0.376144 -0.065808 0.560007 0.283295 0.037565 0.256043 -0.116899 0.224188 -0.255913 0.196079 -0.151597 -0.006489 -0.084200 -0.073437 -0.118103 0.489908 -0.155508 0.285237
in -0.361741 -0.168599 0.262311 0.555702 0.149107 -0.143296 -0.002056 0.539827 0.552919 -0.070425 0.024148 -0.388232 0.261395 -0.175991 -0.357847 0.024512 -0.043977 0.525881 0.327034 -0.150697 -0.062386 0.568501 0.144694 -0.033718 0.047956 0.126220 0.140467 -0.079614 0.247055 -0.005835 0.086907 0.555319 -0.214700 -0.113784 0.559852 0.018844 0.513224 0.175115 -0.285825 -0.263624 0.134606 0.061224 0.367077 -0.051283 -0.163173 0.182893 0.498931 0.444900 0.442909 0.039308
anything -0.071661 0.023338 0.242781 0.394841 0.542968 0.023009 -0.190765 0.433500 -0.104329 0.269525 0.470485 -0.205776 -0.143013 0.503097 0.232490 -0.027920 -0.230461 0.552919 -0.071852 -0.010653 -0.115507 -0.131777 0.117076 0.180028 0.450207 -0.420800 0.428597 0.075849 0.037416 0.287634 0.457881 -0.226892 -0.112135 0.218662 0.068390 0.243963 0.148269 0.572445 -0.137696 0.118261 0.469184 -0.168478 0.497352 -0.123275 -0.023322 0.081999 0.416998 -0.198512 0.553780 0.338568
strange -0.269748 -0.130677 -0.331442 0.520638 -0.067637 -0.024518 -0.458851 0.079911 0.414698 0.600794 0.323571 0.267592 0.389463 -0.187577 0.473641 0.315703 -0.135500 0.215727 0.246763 0.132982 0.056013 -0.103768 0.613708 -0.050698 0.464705 -0.228615 0.175510 0.021203 -0.119852 -0.285944 0.103533 0.109158 -0.417960 0.389365 0.293023 0.350346 0.366245 -0.204372 0.150925 -0.016394 0.376833 0.187426 -0.018534 0.389979 -0.093220 0.070247 -0.125322 0.552088 0.158835 0.407426
or 0.265443 0.382527 -0.160742 -0.341540 -0.214528 0.275680 0.251964 -0.439926 0.325887 0.182513 0.303615 0.283136 0.279195 0.000185 0.561386 0.062490 0.505505 0.554847 0.282174 0.469587 -0.272136 0.455016 0.133021 -0.086810 -0.376316 -0.270000 0.158189 -0.361493 0.223038 0.157622 -0.229346 0.208620 0.510085 -0.168148 -0.071764 -0.035221 -0.168591 0.381317 0.311532 -0.311608 0.436026 -0.287972 0.010569 0.136467 0.356942 -0.141747 -0.190577 0.610015 0.337664 0.422260
mysterious 0.527108 0.240176 0.226714 0.361678 0.434367 -0.224336 -0.053719 0.192940 0.479518 0.118339 0.339952 -0.149205 0.397382 0.349397 0.123616 0.016329 0.170086 -0.131565 0.404863 0.234691 0.307894 -0.165170 -0.271976 0.117448 0.278185 0.467549 0.513069 -0.278254 0.013859 0.350182 0.263355 0.067698 0.179596 -0.087807 -0.262186 0.104906 0.229974 -0.263936 -0.269688 0.594328 0.311390 -0.278387 0.097676 0.091742 0.345908 0.159990 -0.018235 0.196062 0.286511 -0.179005
because 0.515304 -0.077030 0.552331 -0.205002 -0.243985 -0.173119 -0.209303 -0.094143 -0.059991 -0.202198 0.251974 0.510395 -0.214521 -0.063712 0.453495 0.322389 0.532432 0.233091 0.469913 0.071699 0.423806 0.057496 -0.333584 0.073075 0.145831 0.079642 -0.114784 -0.175848 -0.330976 0.189827 -0.090319 -0.175123 -0.277150 0.522183 -0.149503 -0.351905 -0.157985 0.418910 -0.012413 0.162106 0.121623 0.503272 0.414569 0.630570 0.619598 0.484157 -0.110276 0.148288 0.335135 -0.139207
just 0.468948 -0.178449 0.019486 0.498825 0.338450 -0.157190 0.263836 0.413627 -0.286923 -0.262592 0.251612 -0.183485 -0.190976 0.523163 0.163133 0.460185 0.632063 0.338541 -0.178866 0.205338 -0.217121 -0.095886 -0.155843 0.067408 -0.219688 -0.019893 0.374039 0.016373 -0.402213 0.648438 0.544600 0.395207 0.263049 -0.110641 0.578486 -0.394905 -0.320171 -0.280127 0.116807 -0.071691 0.342634 0.216510 0.022066 0.330771 0.447231 0.189373 0.072783 0.198757 0.459223 0.472378
didnt 0.158676 0.508294 -0.234164 -0.161116 -0.243196 0.271790 0.467866 -0.103234 0.508788 -0.162585 -0.150611 0.210684 -0.016429 0.020478 -0.169520 -0.164878 0.473215 0.353412 0.356188 -0.206557 0.132047 0.271206 0.467844 -0.086824 -0.035643 0.153343 0.502815 -0.039733 0.645009 0.553390 0.550454 -0.205260 -0.360992 0.527632 0.177425 0.072689 0.195310 0.108104 0.633600 0.011783 -0.249875 0.103994 0.408407 -0.220245 -0.100506 0.520020 -0.165453 0.086909 0.423088 -0.208364
hold 0.618648 -0.018310 -0.052643 0.095239 -0.222106 0.623302 0.349387 0.085653 -0.195499 0.522763 -0.077457 -0.347846 -0.269040 -0.333626 0.309565 0.299134 0.503639 0.017327 0.516820 -0.212066 0.544090 -0.064051 -0.223037 -0.180513 -0.091733 -0.251729 0.528862 0.426205 0.147020 -0.170557 -0.197062 0.335274 -0.209835 0.093225 -0.185319 0.218135 0.246964 -0.057027 -0.334489 -0.107456 0.078969 0.561815 0.553700 0.207939 0.554406 -0.131144 0.199102 0.403923 0.435055 0.284440
with 0.465240 0.066868 0.520094 0.406722 -0.352290 -0.215892 0.553259 -0.141184 -0.230735 0.160703 0.074905 -0.324297 -0.068007 0.555678 0.549879 0.240390 0.336987 -0.167063 -0.229941 0.595897 0.541476 0.394278 -0.090132 0.077558 0.376898 0.521082 0.149354 -0.189150 -0.338201 -0.264288 -0.121660 0.072048 -0.124593 -0.267698 -0.126128 -0.256432 0.261278 -0.075257 0.000525 -0.371304 0.595069 0.092140 0.157181 0.586957 0.311563 0.368019 0.474219 -0.014242 0.547960 -0.234968
such 0.373014 0.494754 -0.054788 0.185816 0.410321 -0.101902 0.513583 0.585270 -0.261917 -0.194659 0.496004 0.081504 0.454487 0.579710 0.059364 -0.225076 0.002711 0.000094 0.506114 -0.037983 0.233441 -0.273899 0.458987 0.404247 0.533100 -0.331145 0.154232 0.200229 -0.239698 0.561163 0.403466 0.035746 -0.299368 0.267827 0.460751 0.106827 0.225023 -0.283115 -0.141884 0.108254 0.230653 -0.041366 -0.192901 0.274181 0.420590 -0.257307 -0.006983 0.372192 0.402040 -0.057823
nonsense 0.328125 0.577643 0.384787 0.495317 0.218388 0.030186 0.423177 0.348444 -0.263082 0.534411 0.492662 -0.179928 0.192924 -0.055918 0.295367 0.101454 -0.213234 -0.224942 0.020400 -0.313378 0.343598 -0.252409 0.195007 0.437253 0.480044 0.436152 0.169716 0.575739 0.089317 -0.232266 0.525985 0.181688 -0.297586 0.314159 0.373679 0.524439 0.231689 -0.144305 0.187167 0.204708 -0.313696 0.077554 0.199981 -0.116391 -0.314660 0.129839 0.300682 -0.239970 -0.241755 0.488393
was -0.030920 -0.323138 0.502380 0.435758 0.188557 -0.185307 0.522314 0.119839 -0.275688 0.301700 0.360249 0.164477 -0.164701 -0.318417 0.352924 0.304852 0.518794 0.273788 -0.170139 -0.017454 -0.062903 0.590509 0.199112 0.498707 0.132134 -0.184593 0.530482 0.043920 0.252969 -0.127124 0.448318 -0.236527 0.369962 0.101256 -0.015149 -0.157439 0.439378 -0.268510 -0.105824 0.302860 0.464312 0.080683 0.131637 0.044320 0.431095 0.322986 0.426685 -0.241046 -0.211335 -0.068470
director 0.260789 0.653009 0.315005 -0.270906 0.471535 0.282193 0.235937 0.458657 -0.364043 0.088007 0.134418 -0.136051 0.509814 -0.352089 -0.115915 0.111707 0.647176 0.273734 0.030912 0.064186 0.300964 0.464998 0.310487 -0.162507 -0.292356 0.195741 0.428909 -0.048306 -0.041466 -0.218300 -0.009919 -0.208466 -0.151261 -0.246680 0.523055 0.525695 0.639495 -0.176699 0.174184 -0.325830 -0.150216 0.005417 0.493914 0.507731 0.157561 0.530992 0.229292 0.475873 -0.278528 0.041749
a -0.048294 0.164468 0.072027 0.372748 -0.322964 -0.270302 0.146077 0.520074 0.386938 0.461822 0.312771 0.124105 0.510372 0.408984 -0.298024 0.069862 0.315063 0.314599 0.470862 0.375045 0.397819 -0.343108 -0.087192 0.415790 0.223969 -0.178300 0.445902 0.506747 0.303080 -0.391415 -0.216768 -0.040200 0.431657 -0.143595 -0.180358 -0.100613 0.451266 0.540256 0.095249 0.014722 -0.049035 0.278922 -0.201354 0.560662 -0.068540 -0.271519 0.435994 -0.044069 0.446029 0.144322
firm -0.078506 0.037348 -0.068701 0.628160 0.449451 0.577974 0.158790 0.325233 -0.076538 -0.241058 0.314786 -0.365951 -0.081419 -0.097806 0.608717 -0.232138 0.309711 0.080554 0.400767 -0.243997 0.452994 0.421254 0.387985 0.236114 0.411484 -0.243068 0.141864 0.461081 0.357102 0.502320 -0.251870 0.460390 0.258908 0.304283 -0.345699 0.020995 0.108854 -0.148233 -0.042916 -0.298488 -0.253515 0.013818 -0.167098 0.151083 -0.190824 0.627647 0.148677 0.071945 -0.147350 0.471471
called 0.512836 0.507490 0.394109 0.333507 0.628518 -0.328789 -0.054017 0.029541 0.058585 0.447943 0.221442 0.146770 0.218103 -0.141177 0.528243 -0.145677 -0.012320 0.296630 0.020612 -0.030298 0.407421 0.001638 -0.133072 0.308914 -0.278345 0.433536 -0.136878 0.389958 0.345113 -0.163035 -0.051010 0.158832 -0.027277 -0.253089 -0.069244 0.368148 -0.263320 0.033483 0.523585 0.030270 0.608967 0.411511 0.201082 0.110846 0.575354 0.617969 0.345280 -0.161480 0.659476 -0.073300
Grunnings -0.165843 0.091784 0.097303 0.542236 0.828326 0.155039 0.753976 -0.196874 0.054714 0.382359 0.573898 -0.303259 -0.178400 0.196033 0.532014 0.550162 0.486635 0.728246 0.102364 0.681280 0.154907 -0.166505 -0.115352 0.072295 0.618056 0.521203 -0.045205 0.152474 0.251968 0.540436 0.165515 0.161797 0.639749 0.271211 -0.044117 0.433369 0.317318 -0.082410 0.045936 0.666997 0.705048 0.645441 0.480643 -0.270389 0.764269 0.142866 0.067090 0.356213 0.421029 -0.128352
which 0.299725 -0.098700 0.247023 0.300474 0.130384 -0.299268 -0.115411 -0.228916 0.576966 -0.201569 0.400379 0.196760 0.561053 0.065280 0.259388 0.699773 -0.101965 0.450335 0.562243 0.276764 0.494115 0.243545 0.423130 0.351217 0.367541 0.284163 0.521307 0.142656 -0.107280 0.717128 -0.172050 0.366400 0.313812 0.365898 0.009718 -0.166164 0.089222 0.372801 -0.048597 0.541032 0.151118 -0.159924 -0.217209 0.651065 0.499021 0.034947 0.273148 -0.040127 0.560301 0.010544
made 0.562065 0.433052 0.568200 -0.218669 0.352491 -0.050851 0.280793 -0.039104 -0.209756 0.498885 -0.159927 0.031738 0.345547 -0.059471 0.045404 0.811980 0.375176 -0.116031 0.282840 0.536163 0.006110 0.643614 -0.052136 -0.003313 0.011344 0.408361 -0.119084 0.401085 0.107370 0.614303 -0.050097 0.078217 0.596124 0.391661 0.091365 0.513086 0.640203 0.079001 0.536886 0.432108 0.091435 0.328068 0.014776 -0.157907 0.687998 -0.233358 0.098118 0.595976 0.542078 0.596023
drills 0.456696 -0.052888 -0.080414 0.088128 0.640592 -0.007834 -0.089622 -0.322823 0.179553 0.167668 0.243240 -0.220879 -0.067348 0.287546 -0.233216 0.507594 -0.210816 0.510138 0.098852 0.512450 0.421791 -0.334018 0.374317 0.239220 0.178450 0.553983 0.406728 0.133537 0.617895 0.349644 0.632476 0.254504 0.646387 0.226244 -0.208937 -0.043831 0.083162 -0.197818 -0.281382 0.198816 -0.167215 0.251375 0.583235 -0.071136 0.673768 -0.132184 0.421169 0.291678 0.122953 0.216825
He 0.195786 0.410721 0.422184 0.153094 0.173768 -0.050127 0.586552 0.534369 0.277920 0.009136 0.021640 0.282960 0.214378 0.467186 -0.106654 -0.286855 0.046930 0.156571 0.205534 0.232758 0.252277 0.122289 -0.059640 -0.142106 0.272307 0.549010 -0.240566 -0.037729 0.314601 0.469286 0.248894 0.340642 0.278792 0.205212 -0.223352 0.331077 0.409783 0.511824 -0.319260 -0.205015 -0.327772 -0.321413 -0.172972 0.515585 0.522487 0.545180 0.358521 -0.036507 -0.363419 -0.240742
big -0.236466 0.035820 0.466626 0.551818 0.039498 0.140859 -0.093654 0.243148 -0.265179 0.490588 0.012615 0.037920 0.517768 -0.013951 -0.238275 0.461866 0.453194 -0.225005 0.185810 0.203746 -0.144501 0.426734 0.517817 -0.119119 0.233819 0.052827 0.150179 0.455409 0.004748 -0.223564 0.599286 0.599989 0.608625 -0.190610 0.183260 0.090586 0.440926 0.063851 0.253320 0.454478 -0.073389 -0.125942 -0.198994 -0.013155 -0.237198 0.323897 -0.398166 0.122034 0.330257 -0.405355
beefy -0.173369 0.448492 0.102347 0.287011 -0.116052 0.464019 0.020626 -0.189106 0.040144 0.290966 0.512671 0.504185 0.525344 -0.085251 -0.293577 0.366740 -0.105427 0.558495 0.016235 -0.198341 -0.140983 0.566202 0.035213 0.271675 -0.332626 -0.067151 -0.303541 -0.248508 0.149452 0.169238 0.080639 -0.054928 0.064050 0.170289 0.182133 0.644642 0.280885 0.217409 0.248693 0.107250 -0.320800 -0.295787 0.550576 -0.238605 0.014129 0.428297 0.684122 -0.172961 0.418274 0.331180
man -0.013538 -0.355030 -0.235492 0.124728 -0.067912 0.252111 0.659144 -0.322537 0.230194 0.263349 0.367417 0.317154 0.288831 0.101661 -0.066844 0.498517 0.543815 0.580739 -0.168355 0.342723 0.390210 0.183293 0.293084 0.285838 0.086035 -0.024838 -0.187565 -0.302719 0.027291 -0.244257 0.654210 0.504432 -0.159143 -0.040778 0.192177 -0.313774 0.057897 0.192828 -0.177592 0.058104 0.566568 0.185991 0.337842 -0.278564 -0.140665 -0.147434 0.421242 0.580114 -0.228405 -0.036482
hardly 0.366277 0.180398 -0.199589 0.380069 -0.235552 0.496792 -0.088350 0.376983 -0.203614 0.400027 -0.155550 -0.163490 0.486473 0.265770 -0.334488 -0.249661 -0.440534 0.410394 0.223669 0.117588 0.328906 0.406665 0.181338 0.603744 0.531455 0.590970 0.454152 0.136185 0.158890 -0.220796 0.171011 -0.090256 0.452312 0.410159 0.518075 0.447260 0.466788 0.310994 0.200509 -0.193243 -0.220134 0.539406 0.064238 -0.409810 -0.083387 -0.050263 0.301272 0.368152 0.500238 -0.050025
any -0.352962 -0.141431 0.128151 0.172265 -0.278452 -0.282786 -0.270204 0.141962 -0.316376 -0.183659 0.072059 0.481469 0.402637 -0.055096 -0.175553 0.410014 -0.168492 -0.291945 0.138117 0.147865 0.517843 0.196257 0.674468 0.368476 0.408784 0.240337 0.203314 -0.248958 -0.186326 -0.229601 -0.064309 0.621683 0.483355 -0.239136 -0.289656 0.415655 0.557522 -0.267215 0.401470 0.192083 0.354520 -0.048798 0.426828 0.266333 0.462941 0.253191 0.465081 -0.218450 -0.352040 0.227145
neck -0.287506 0.044549 0.050900 0.315603 0.468702 0.461715 -0.310501 0.059879 -0.126438 0.431428 0.220351 0.171691 0.311356 -0.024875 0.260705 0.655449 0.064961 -0.256890 -0.205689 0.353334 0.048886 0.246614 0.311463 0.273521 0.527331 0.314563 0.172983 -0.164362 -0.132883 -0.212534 0.624710 -0.263261 0.103532 0.204511 -0.230264 0.466171 0.490940 0.375032 -0.250910 -0.166255 0.289166 0.271647 0.454168 0.424851 -0.321458 0.524194 0.184734 0.323996 -0.296406 0.541681
although 0.430996 0.591962 0.045049 0.462735 -0.208336 0.113107 0.061924 0.043404 0.040510 -0.059613 0.368737 0.376958 -0.155325 0.040547 0.148939 -0.175754 0.347314 0.094591 0.461256 0.007309 -0.026596 -0.156060 0.045757 0.114099 0.049439 0.420104 -0.053700 0.160544 0.285876 -0.125483 0.202560 0.136356 -0.187940 0.053153 0.393820 0.131748 0.176991 0.320821 0.109810 -0.000755 0.302870 -0.072514 0.530224 -0.102775 0.128897 0.458587 -0.065373 -0.369591 0.113014 0.563762
he 0.388790 0.381399 0.260984 0.273620 0.346231 0.242130 0.274467 -0.200482 0.444796 0.024794 0.308080 -0.004251 -0.018532 -0.344408 -0.198141 0.380706 -0.066158 0.325687 -0.420708 -0.286311 -0.018795 0.476803 0.362687 0.487703 0.022120 0.373214 0.259572 0.331191 0.532699 0.403005 0.510221 0.296254 0.021290 0.227929 -0.145297 -0.019003 0.045238 -0.165623 -0.345307 0.132851 0.213788 -0.081384 0.562228 0.170002 0.158497 0.008714 0.276233 0.534782 0.498093 -0.417212
did -0.343030 0.203483 -0.030756 0.386363 0.459457 0.632404 0.242212 0.502336 0.553725 -0.077004 0.238927 0.345332 -0.373652 -0.227143 0.056683 -0.249505 0.180548 0.386567 0.541932 0.643875 0.426845 -0.390743 0.135811 0.324864 0.538669 -0.070851 0.511074 -0.173994 0.340738 0.159727 -0.193142 -0.076451 -0.218556 0.409774 -0.184967 -0.404029 -0.039639 -0.023053 0.281992 -0.088919 0.024268 0.015509 0.511867 0.605265 -0.275436 -0.353549 -0.251742 0.441570 0.072576 0.357220
have 0.296044 -0.335667 0.355993 0.185618 0.201943 0.309368 -0.095012 0.294652 -0.022092 -0.298049 0.414010 0.054126 0.188126 0.552813 -0.327939 -0.039941 -0.336075 -0.118157 0.576763 -0.230330 -0.070966 0.604874 0.303181 0.352116 -0.260292 -0.126114 -0.343517 0.113498 -0.272758 0.476497 0.330270 -0.060418 -0.009930 0.283566 0.414897 0.446179 0.216261 0.469451 0.533411 -0.156091 -0.272875 -0.112996 0.050813 0.228109 0.299908 -0.105362 0.513556 -0.027889 0.654265 -0.246011
large 0.334039 0.476043 0.131979 -0.133108 -0.006976 0.257674 0.008339 0.663717 -0.257060 -0.136406 0.325739 0.285021 0.332030 0.133712 0.141374 -0.162323 0.556127 0.115203 0.398563 0.634226 0.061578 0.217301 0.559117 -0.095673 -0.262230 0.362964 0.067611 0.037814 -0.024325 -0.029477 0.105517 -0.093125 0.193239 0.020309 0.419711 0.311297 0.152671 -0.164446 -0.274182 -0.106924 -0.137012 -0.121603 -0.027078 0.557486 -0.217852 0.395099 0.237784 0.146650 -0.330122 0.292263
mustache 0.050181 0.558040 -0.248449 -0.064048 -0.151208 0.353403 -0.344917 0.413961 0.368240 -0.298135 0.581625 0.496750 -0.044723 0.253214 0.176458 0.126124 0.454552 0.010406 0.191236 0.581783 -0.225790 0.443034 -0.071436 -0.230044 -0.280048 -0.234701 0.093034 0.118425 -0.088987 0.322820 0.198506 0.320535 -0.295347 0.607646 0.318185 0.405414 -0.119103 0.607111 0.142921 0.027918 -0.263892 0.139302 -0.124195 -0.220292 -0.019501 -0.003057 0.400793 0.524817 -0.323133 0.395355
thin -0.214822 -0.349030 0.463645 -0.037092 0.256152 0.503461 0.269216 -0.096830 0.497550 0.390281 0.301090 0.235217 0.060485 0.116685 -0.298725 0.135762 -0.171791 -0.160927 0.290924 0.500442 0.384988 -0.109954 -0.175612 0.575389 0.385407 0.398956 -0.038707 0.206087 0.411053 -0.375397 0.007309 0.516367 -0.056542 -0.222167 -0.117461 0.622864 -0.105018 0.243382 -0.044894 -0.248988 0.449590 0.186259 0.125773 0.102366 0.275641 0.361915 0.122996 0.393976 0.490674 0.356644
blonde -0.472075 -0.098301 0.205829 0.081188 -0.098137 0.504983 0.278079 -0.053481 0.274401 0.426790 0.517649 -0.113769 -0.100896 0.355039 -0.077396 0.324393 0.410794 0.610012 -0.090813 0.420404 0.443170 0.540254 -0.304956 0.274087 0.014248 0.202173 -0.079139 0.536201 -0.341186 -0.250009 -0.150211 0.028255 -0.097017 0.288598 -0.062036 0.275456 0.309172 0.600174 -0.306537 -0.087429 -0.210251 0.450277 0.436199 0.419068 0.211894 -0.114059 0.250203 0.127072 -0.149386 -0.036325
had 0.354288 0.234235 0.562371 -0.045617 0.076918 0.285559 0.123558 0.271576 0.197069 0.214406 0.465679 0.062324 0.489890 -0.357555 -0.105268 0.321966 0.553574 -0.221357 0.604356 0.016287 -0.183314 -0.360752 0.430281 -0.024736 -0.186130 0.568517 0.383311 0.215122 0.007729 0.423733 -0.198491 0.522718 -0.065404 0.371559 0.088773 -0.385653 0.127919 -0.183463 0.193131 0.095232 0.614807 0.067718 -0.369238 -0.005117 -0.463605 0.253831 0.070472 0.277243 0.379837 0.037969
nearly 0.093436 0.249523 0.237998 0.480485 -0.263827 -0.177155 -0.234295 0.307565 0.573631 0.662520 -0.045524 0.362270 0.170859 -0.190701 0.576420 0.027216 0.269889 0.036433 0.075692 -0.084224 -0.353634 -0.119582 -0.168106 -0.073445 0.266251 0.482408 -0.162812 0.291624 -0.019226 0.076990 0.563246 0.118051 -0.155519 0.209511 0.299419 0.301502 -0.286729 0.436919 0.236297 -0.167397 -0.303651 0.024421 0.497403 -0.149405 0.189080 0.249538 -0.082294 0.236397 0.505860 -0.296448
twice 0.079485 0.642568 0.513569 -0.082444 0.454499 0.010817 -0.011182 -0.279209 0.341540 -0.172460 0.042734 0.641722 0.043694 0.129419 0.224692 0.299076 -0.303288 -0.035043 0.062340 0.492094 -0.089694 0.327631 -0.034500 -0.260981 0.604504 0.416308 0.042158 -0.281095 0.376027 0.330272 0.173983 -0.317393 0.223884 0.283106 0.406250 0.501657 0.580558 0.282968 0.264440 -0.343125 -0.055434 -0.213583 0.385804 -0.068475 0.040883 -0.267147 0.114379 -0.300880 0.290560 0.140954
usual 0.488401 -0.327599 -0.095825 0.310964 -0.256746 0.402818 0.288538 -0.124807 0.077225 -0.132046 0.018472 0.455577 -0.030916 0.010193 -0.021726 -0.316660 0.199820 0.599611 0.086294 0.504348 0.460162 -0.079102 0.231581 0.601187 0.512683 0.355308 -0.117689 0.326482 0.180352 0.193199 0.369271 0.151796 0.041106 0.621702 0.283572 -0.293256 -0.213192 0.383051 -0.300970 -0.154348 0.417211 0.288230 -0.111022 0.343252 -0.173124 0.489142 0.366757 -0.328383 0.381951 0.045186
amount -0.164156 -0.224630 0.330519 -0.282141 0.635993 0.084608 0.262052 0.358384 0.011508 0.124915 -0.085677 -0.130136 -0.164589 0.488613 0.162652 -0.003070 0.243022 0.074000 -0.350568 0.676687 0.156298 -0.141925 -0.111670 0.454601 -0.086253 0.054701 0.275159 0.383205 0.332276 0.093441 0.244076 0.130154 -0.020736 -0.289749 0.042363 0.035121 -0.002946 -0.034643 0.091923 0.475564 -0.009455 -0.050859 0.648324 0.194201 -0.283298 -0.328043 0.242358 0.456686 0.136626 0.270233
came 0.453168 0.358834 0.020421 -0.363114 0.083473 0.525297 -0.231870 0.225624 -0.267337 -0.291499 -0.327450 0.655154 -0.063434 0.333538 0.100672 -0.030974 0.556551 0.325087 0.120976 0.031463 0.466767 -0.096063 0.087878 0.065483 0.225720 0.066288 -0.386991 0.400648 0.092032 -0.119588 -0.112483 0.007316 0.565844 0.117654 0.325927 -0.014318 0.251759 -0.122296 0.394791 -0.233561 -0.007781 -0.287622 0.291847 0.098515 0.065415 -0.239430 0.443734 -0.098286 0.581262 0.360423
useful 0.258539 -0.198876 -0.042629 0.046945 0.255704 0.242649 -0.330464 -0.335283 0.483677 0.193620 0.044367 0.217992 0.055891 0.468576 -0.298657 -0.053949 -0.065820 -0.068465 0.509016 0.122320 -0.120173 -0.034216 0.041838 0.723314 0.349139 0.311976 -0.061989 0.558708 0.428809 -0.320717 0.421607 -0.323625 0.033048 0.372979 -0.243305 -0.191976 0.240225 0.329781 0.563376 -0.290758 0.344664 0.208301 0.173882 0.180338 0.523089 0.583104 0.135028 0.185629 -0.197622 0.410512
as -0.048565 0.292639 -0.349113 0.197377 0.486215 -0.083170 -0.399383 -0.366287 -0.016826 0.469588 0.543896 0.557485 0.442950 0.179150 -0.325310 0.511001 -0.326658 -0.170324 -0.260685 -0.096341 0.103981 -0.011462 0.283808 0.150703 0.398152 0.516002 0.282235 0.155377 0.579322 -0.312354 0.139694 -0.034741 0.521945 0.008634 -0.380870 0.123782 0.347573 0.479354 0.498945 0.056920 0.551603 -0.003685 0.613441 0.415988 0.497830 -0.127842 -0.225542 -0.092912 0.280967 0.187498
she -0.158041 -0.137751 0.181092 0.279679 -0.284580 0.326889 -0.057141 -0.027175 -0.273552 0.250928 0.533628 0.153576 0.383644 -0.067807 -0.233138 0.644814 0.453557 0.379043 0.383154 0.032001 -0.242540 -0.221262 0.144655 0.125564 -0.010083 -0.158573 -0.354229 -0.215697 -0.356177 0.362208 -0.184375 0.166198 0.555341 0.480318 -0.345492 0.181500 0.079457 -0.250528 0.202998 0.439959 0.324286 0.031361 0.376441 -0.046015 -0.169707 0.577074 0.605029 0.540310 -0.008323 0.452194
spent -0.195703 -0.203220 -0.247304 -0.041160 0.108957 0.608001 -0.016554 0.118908 0.152172 0.178073 0.645000 0.218078 0.302718 0.458827 0.391061 0.230099 0.545866 -0.294741 0.531520 0.072333 0.313822 0.359571 0.251929 -0.175341 0.555993 0.620192 -0.190545 -0.276334 -0.343938 0.589473 -0.064849 0.165209 -0.238018 0.331020 -0.141492 -0.110592 0.196938 0.117561 -0.128913 -0.216278 0.196462 -0.086533 0.082117 0.328161 -0.276350 0.554948 -0.155985 0.219504 0.425269 0.247331
so -0.042142 0.449479 -0.210109 0.579071 0.032240 0.135041 0.053843 0.305392 0.106233 0.263415 0.416431 0.332456 -0.303696 0.044504 0.301561 -0.312605 -0.351845 0.476302 -0.212594 0.596154 -0.061546 0.154321 -0.156706 0.559907 0.395751 0.139386 0.604641 -0.276835 0.032035 -0.266810 -0.057982 0.117707 -0.194450 0.006556 0.336495 0.552220 0.147655 0.354970 0.394825 -0.088792 0.338072 0.001764 -0.201020 0.401012 0.457524 0.491929 0.180860 -0.116866 0.051585 -0.187554
her -0.145138 0.029115 0.434596 0.459230 0.503708 -0.248811 -0.028804 0.211177 -0.064016 0.398058 0.072076 -0.153747 0.035327 -0.141455 -0.180321 -0.053233 -0.233773 0.430702 -0.277031 -0.052253 0.401851 -0.146827 0.286837 0.214555 0.110525 0.390810 -0.114443 0.523651 0.257675 0.173366 0.537504 0.276302 0.170542 0.292773 0.182973 0.353128 0.360799 0.170187 -0.064284 0.362352 0.246497 0.072026 -0.212042 -0.165556 0.098822 0.504392 0.233922 0.693798 -0.057516 0.126006
time -0.383505 -0.053176 0.087767 0.255594 -0.142213 0.370559 0.357610 0.575662 0.022857 0.213207 -0.122315 0.322211 0.101946 0.489439 -0.165677 0.266885 0.329498 0.388887 -0.200972 0.223207 -0.267236 -0.117934 0.379767 -0.219700 -0.016890 0.309150 0.418605 0.153936 -0.321567 0.121445 0.361653 0.658734 -0.007488 0.431792 0.297741 0.373744 -0.270782 -0.125183 -0.360878 -0.082583 0.285084 0.056402 0.280155 0.369906 0.024147 0.232224 -0.140800 -0.033015 0.034146 -0.193977
craning -0.161109 0.535703 -0.275563 0.151329 -0.204450 0.505547 0.257523 -0.120577 0.349535 -0.158756 0.498541 0.411008 0.152891 0.357245 -0.233950 -0.094526 0.444109 -0.140818 -0.112027 0.284831 0.142110 -0.005938 -0.319256 0.111789 -0.182525 0.705703 0.185370 -0.075894 0.037749 0.326694 -0.258316 0.477924 0.549766 0.140114 0.078931 0.499000 0.111303 0.040951 0.377918 0.428268 -0.279923 0.212225 -0.083917 -0.293220 -0.073993 -0.129730 -0.149411 0.270963 -0.080883 0.579672
over -0.342283 -0.112795 0.464043 0.466154 -0.063264 -0.178171 0.092390 0.256918 0.559112 0.183569 0.052073 0.327450 -0.074379 0.477769 -0.115292 0.014998 -0.033602 0.633626 -0.298748 0.189616 0.241512 0.318228 0.076275 0.389280 0.647278 0.559221 0.135393 0.083164 0.023083 0.644359 0.240508 -0.076810 -0.024699 -0.166933 0.175356 -0.168434 0.160482 0.528693 -0.039972 0.487317 0.641707 -0.252220 -0.160650 -0.171165 0.056231 -0.114196 -0.318277 -0.221372 -0.048853 -0.060003
garden -0.134853 0.023777 -0.081590 -0.071903 0.463593 0.071156 0.095929 -0.297157 -0.247444 0.111753 0.108880 0.354974 -0.124728 -0.200128 0.023362 0.002158 -0.001183 0.671636 -0.334847 0.345188 -0.240489 0.261577 0.283510 0.169465 0.514930 0.577917 0.159855 0.327592 0.597493 -0.343055 -0.126309 0.375816 -0.132862 -0.156467 0.242696 0.048351 0.580271 0.301722 0.522210 -0.305212 0.561775 0.066521 0.214432 0.300050 0.639678 0.240608 0.129694 0.445486 -0.053007 0.323153
fences -0.358666 0.204835 0.373580 0.276531 0.127318 0.632399 0.117752 0.351801 -0.039542 0.054531 -0.058040 0.553021 -0.042854 0.510159 0.213280 0.328870 0.367181 0.287080 -0.364595 0.555074 0.175156 0.113715 -0.043351 0.460946 0.057519 0.355683 0.236576 -0.058727 0.292082 -0.050237 0.094533 -0.099639 0.641920 -0.345098 -0.177688 -0.230678 -0.331570 -0.328650 0.176709 0.461185 0.572125 0.572220 0.221025 -0.100869 0.261050 -0.434966 0.671196 -0.170149 0.313991 -0.336057
spying -0.141828 0.027269 0.527038 0.100590 -0.244463 0.628353 0.225638 0.198929 0.413081 -0.158965 0.368470 -0.019677 -0.004618 -0.226424 0.334124 -0.137026 -0.075294 0.597442 -0.197615 0.223000 -0.137057 0.401695 -0.013663 0.106384 -0.034733 -0.179282 -0.240453 -0.258999 0.140018 0.563051 0.592974 0.479698 0.503601 0.391084 0.289889 -0.015432 0.197705 -0.157352 -0.043678 0.068601 -0.223501 -0.260814 0.636396 -0.240873 0.044817 -0.195569 0.466719 0.031589 0.688106 0.205605
on 0.271309 0.374443 -0.337458 -0.161008 0.521939 0.244891 0.332567 -0.152167 0.431911 0.116746 -0.009306 0.344480 -0.287941 0.083280 0.417102 0.548018 -0.275883 -0.311956 -0.245851 0.640072 -0.220734 -0.213918 0.324621 -0.027634 0.377378 0.389411 0.351772 -0.059747 0.094150 0.577347 0.540478 0.339765 0.631052 -0.084982 -0.196579 -0.192718 0.041400 0.605689 -0.157577 -0.270660 0.357411 0.071588 0.375864 -0.028901 0.081151 -0.355965 0.544194 -0.113356 0.222463 0.180302
neighbors 0.286236 0.237468 -0.095870 0.095299 0.553315 0.381904 -0.303160 -0.203424 -0.190652 -0.016133 0.352033 -0.079803 0.498044 0.211691 0.545234 -0.321907 0.316969 0.142590 -0.128437 0.322233 0.276285 0.241214 0.331068 -0.341006 0.091647 0.512930 0.198484 -0.020811 0.369075 0.129640 0.176772 0.313096 0.138666 0.582152 -0.181184 0.410171 0.261466 0.323763 0.588273 0.099235 0.448955 -0.126462 -0.228101 -0.377929 0.465464 -0.308571 -0.035117 -0.144769 -0.058779 0.442609
The 0.239323 0.147338 0.195430 -0.025778 0.599789 -0.061541 -0.331839 0.309248 -0.042648 0.309934 -0.235513 -0.235259 0.137221 0.415072 0.503719 0.606445 -0.263787 0.171619 0.472600 0.319324 -0.263858 0.609189 -0.293624 0.419068 0.132050 -0.118593 0.535838 0.451580 -0.356457 -0.002509 0.109718 0.090118 -0.284717 0.105075 0.629198 -0.131810 0.287228 0.231075 -0.039192 0.022775 -0.108735 0.480192 0.014593 -0.214005 0.404502 0.358900 -0.040699 -0.209307 0.169225 -0.063754
Dursleys -0.195506 0.365659 -0.196085 0.322844 -0.016446 -0.194507 0.534871 0.079283 -0.170784 -0.123265 0.052639 0.392215 0.041549 0.165490 0.406804 0.132833 -0.231613 0.147177 0.056148 0.099004 0.426464 0.603229 0.359515 0.378095 -0.188527 0.370575 0.299188 0.310817 -0.388237 0.270637 0.457919 -0.111419 0.220203 0.317037 0.264393 0.463930 0.219702 0.162038 0.153170 -0.044260 -0.096330 0.419517 -0.263768 0.394583 0.087272 0.471415 0.037407 0.583209 0.145265 -0.024177
small 0.079247 0.276480 0.540077 0.056062 0.079212 -0.256996 -0.034678 -0.118253 -0.269369 -0.173822 0.530772 -0.175525 -0.129008 -0.079832 -0.294584 -0.317761 0.205073 0.463493 0.241301 0.002287 -0.326927 0.318531 0.569705 0.148886 0.165821 0.263233 0.444868 0.713310 0.194348 -0.078917 0.595185 0.522585 0.434930 -0.003111 -0.121248 0.624238 0.177231 -0.015389 -0.218403 0.187661 0.006546 -0.306575 0.187135 -0.268276 -0.103281 0.132920 0.461309 0.583434 0.021463 0.343193
son -0.352106 0.295375 0.305564 -0.113709 -0.218528 0.434315 -0.034174 0.028287 -0.118101 0.334321 0.512777 -0.196307 -0.301637 -0.326923 0.090130 0.012890 -0.183064 -0.209199 0.008837 0.608819 0.261457 0.633886 0.599414 0.490880 0.122553 0.633571 0.456622 0.317238 -0.085918 -0.265534 -0.219903 -0.013824 0.482896 0.470135 -0.001942 0.533078 0.544750 -0.226075 -0.377187 0.281907 -0.035649 0.053476 0.388545 0.303146 -0.080966 -0.245067 0.181328 0.203398 -0.128527 0.506132
Dudley -0.358430 0.125122 0.322228 0.483884 -0.003299 -0.185604 0.410280 -0.291302 -0.126484 0.228616 0.209262 0.044620 0.208157 -0.325734 -0.335005 0.434381 -0.365748 -0.185413 0.227209 -0.206430 0.523262 -0.097298 0.632475 0.292620 -0.076711 -0.104350 0.263306 0.541624 -0.155688 0.312006 -0.336881 0.329521 0.690607 0.502454 0.180632 0.246832 0.283344 0.543704 0.411882 0.401726 -0.189649 0.073182 0.142044 0.519856 0.607702 -0.151151 -0.089156 0.126648 0.309070 0.377877
their 0.206318 -0.223683 0.138639 0.028784 -0.033550 0.033794 0.529214 0.082447 0.108407 0.437920 0.451882 0.182773 0.381345 -0.414741 0.367024 0.127326 0.311385 0.175681 -0.044603 0.600556 0.158467 -0.282258 0.059007 0.370583 0.266317 0.276588 0.199266 -0.115792 0.474315 0.373933 0.115413 0.540399 -0.265552 0.597876 0.350265 0.544649 0.153364 0.195249 0.194738 0.040246 0.354547 -0.172118 0.076287 -0.329919 -0.159193 -0.018654 0.007380 0.069308 0.048720 0.106415
opinion 0.320004 0.188195 0.291428 0.294614 -0.133437 -0.160372 0.405433 -0.063102 -0.298898 0.214783 -0.010496 0.208994 0.444730 0.418514 0.233165 0.454452 -0.043578 0.545650 0.197895 0.410815 -0.183712 0.490957 0.601535 0.094688 -0.054196 0.059172 -0.320482 0.065043 0.428829 -0.298462 0.103968 0.090206 0.622130 -0.046796 -0.173524 0.605858 0.398086 0.359081 0.035891 0.042668 0.098145 0.382405 0.021526 0.096271 -0.148837 -0.406902 0.175814 0.016806 0.136345 -0.113848
there 0.454606 0.297334 0.554906 0.591026 0.185379 -0.366779 -0.062334 0.499549 0.138414 0.176099 -0.125581 -0.044491 0.308463 0.337788 -0.331615 0.172138 0.198708 -0.127276 0.198672 0.520758 0.068374 -0.179728 0.523921 -0.165146 -0.190255 0.364745 -0.042048 0.260844 0.340748 -0.119030 0.507864 -0.226484 -0.291070 -0.203953 0.087289 0.192871 0.258361 0.413690 0.547623 0.345690 0.086182 0.323796 -0.286690 0.274769 -0.006892 0.266219 0.279864 0.700346 -0.139401 -0.257211
no 0.109678 -0.101954 0.233963 0.218162 -0.136351 0.580309 -0.329982 -0.050460 -0.381604 -0.215788 0.600526 0.352199 -0.205032 -0.295135 0.057113 -0.009423 0.013483 0.299389 0.269261 0.110181 0.376153 0.056398 0.347777 0.433424 -0.215548 -0.006599 0.271572 0.351415 -0.135579 0.160577 0.080491 0.233484 0.092348 -0.055119 -0.061804 0.327093 -0.217699 0.009978 0.562329 0.480519 0.314982 0.194228 -0.130489 0.618467 0.190310 0.423362 0.372150 -0.248285 0.241382 0.485697
finer 0.044670 -0.181062 -0.183582 -0.018719 -0.147960 -0.105043 0.535366 0.107946 -0.101835 -0.052066 0.324159 0.462192 -0.158428 0.326809 -0.306774 -0.103848 -0.087322 0.017995 0.539068 0.181777 0.314933 0.729093 0.656895 0.322585 -0.151376 -0.124283 0.209976 -0.112663 -0.084898 0.237296 0.165371 0.107324 0.133438 -0.245670 0.593515 0.266613 0.351841 -0.108267 0.060694 -0.230238 0.316546 0.034030 0.453280 0.175102 0.262412 -0.167866 0.564786 0.006367 -0.015378 -0.196859
boy 0.398854 0.034636 0.580508 0.582454 0.179180 -0.243464 0.467644 0.191189 0.101354 0.228059 -0.103855 -0.277486 0.274567 -0.260341 -0.169646 -0.023924 0.295085 0.250523 -0.101723 0.346148 -0.279512 -0.027547 -0.052898 -0.241143 -0.009957 0.331732 0.054689 -0.151817 0.577531 -0.248849 0.418670 0.147470 -0.096023 -0.190217 0.533060 -0.058829 -0.238536 0.414940 0.086273 0.335275 0.099953 -0.067335 0.466485 -0.000862 0.561851 -0.155624 0.018323 0.579048 -0.247944 0.209049
anywhere 0.594628 0.478418 -0.103396 0.237773 0.543480 0.476721 0.036494 -0.247080 -0.051116 -0.117184 0.108784 0.272392 -0.087325 -0.371743 0.155219 0.475051 0.435899 0.273175 0.243392 0.340965 0.069519 0.308475 0.034185 -0.214195 0.006018 -0.160140 0.653606 -0.244130 0.527406 -0.141514 -0.204636 0.549767 -0.197044 0.631012 0.457355 -0.220560 0.295510 -0.161454 0.314791 -0.300485 -0.192076 -0.086689 0.630056 -0.198318 0.036294 -0.013833 -0.157249 -0.011227 0.294528 -0.026344
everything 0.013728 -0.104438 0.438230 -0.053597 -0.139808 -0.245936 -0.111581 0.489206 0.409378 -0.274266 -0.230935 0.188902 0.466597 -0.133365 0.547105 0.634415 0.328796 0.265022 -0.294764 0.051345 0.093066 -0.268681 0.388540 0.506429 -0.191425 0.419107 0.006050 0.292424 -0.025181 -0.127169 -0.027666 0.031442 0.128715 0.140993 0.160738 0.271636 0.345582 0.085242 0.003723 0.283941 -0.206274 0.164940 0.117387 0.411798 -0.169300 -0.128207 0.187670 0.648923 -0.055938 0.200715
wanted -0.144207 -0.179023 -0.288276 -0.239368 0.416598 0.166733 0.101355 0.226288 0.353638 0.416301 0.096767 0.391056 0.553753 0.438341 -0.266758 -0.036574 0.356312 -0.306247 -0.301841 0.377223 0.077508 -0.010651 0.561019 0.079957 0.043419 0.503741 0.391721 0.599891 -0.195958 0.393198 -0.004883 0.393637 -0.250060 -0.135943 0.364081 0.124462 -0.051644 -0.247959 -0.068478 0.085582 0.358686 -0.080209 0.347680 0.412631 -0.286841 0.321428 0.021199 0.760856 0.469544 0.439803
but 0.093045 0.075906 0.027596 -0.182780 0.288894 0.081738 -0.138025 0.079338 -0.304224 -0.116840 0.406485 -0.230369 0.166630 0.527697 -0.025323 0.681641 -0.071945 0.467810 -0.271410 0.611314 -0.238169 0.164265 0.457243 0.438582 -0.163235 0.555148 -0.014180 0.349725 0.317987 0.393088 -0.256882 -0.364728 0.348112 0.264278 -0.119333 0.294380 0.499257 0.663600 -0.110863 0.533442 0.372784 -0.269648 -0.036418 0.355972 -0.220894 -0.288924 0.520640 -0.253294 0.264323 0.536610
also -0.150457 0.135869 0.478654 -0.132348 0.549544 0.265184 -0.237063 -0.073801 -0.325332 0.084758 0.450543 -0.171445 0.024658 -0.255008 -0.008117 0.002593 0.040018 -0.010955 0.434580 0.085402 0.275156 0.107215 -0.171787 0.431629 0.226026 0.644718 0.112864 -0.329604 0.257473 -0.229879 -0.004020 0.039160 0.681807 -0.180875 0.056339 0.330520 0.382858 -0.114058 0.059605 0.337812 0.665319 0.080501 0.717375 -0.159099 -0.280986 0.031146 0.406459 0.446235 0.175553 -0.100515
secret 0.328526 0.302715 -0.081542 0.190776 0.341783 0.130692 0.249332 -0.108449 0.100388 0.043208 0.154975 0.401152 -0.196026 0.422119 -0.353818 -0.037810 0.236444 -0.106182 0.203024 -0.164932 -0.289958 0.663547 0.007001 0.235134 -0.070406 -0.209604 0.493729 0.564019 0.473602 0.200380 -0.091548 0.413953 -0.024514 0.444126 -0.088502 0.087038 0.196772 -0.146024 -0.189931 -0.050666 0.409221 0.480413 -0.139868 0.433954 -0.063166 0.102483 -0.265128 0.067693 0.243339 0.167385
greatest 0.025317 0.379381 0.431358 0.297116 0.139451 0.213709 -0.106076 0.147358 0.425796 0.375157 0.267165 0.546320 0.409670 -0.270424 -0.280443 -0.095630 -0.180516 0.017589 0.362609 0.246241 -0.240967 -0.210978 -0.252860 0.055567 0.062135 0.492456 -0.053793 0.013533 0.461377 0.109563 0.032976 0.094507 -0.199658 0.532864 0.129581 0.338686 0.257422 0.660081 -0.024171 -0.328638 -0.150838 0.299209 -0.123926 0.128748 0.438557 0.038213 -0.251469 0.139567 0.387733 0.435354
fear -0.169429 -0.166901 0.517392 0.706364 -0.186163 0.212330 -0.389885 0.613071 0.141053 0.370579 -0.306263 0.516525 0.563159 0.215615 0.270799 -0.192465 0.075428 0.068247 0.484574 0.348187 0.179568 0.252355 0.557276 0.703122 0.435775 -0.074047 0.482706 -0.054007 -0.411950 0.119304 0.279282 -0.206356 0.554354 -0.151004 -0.138187 -0.206377 0.484360 0.394805 0.324201 -0.108259 -0.240842 -0.146713 -0.255059 -0.304034 0.186687 0.261558 0.644727 0.141087 -0.206940 0.195779
somebody 0.311863 0.175953 -0.179816 -0.050699 0.108269 0.626775 -0.025161 0.147195 0.595178 0.561814 0.130651 0.011103 -0.135033 -0.374063 0.498116 -0.009645 0.086895 0.185470 0.106878 0.049592 0.239286 0.527709 -0.287311 -0.004703 0.358424 0.553061 0.263690 -0.278030 -0.154562 0.094303 -0.070791 0.349828 -0.193462 0.057464 -0.134846 0.284634 0.474012 0.291502 -0.273120 0.200880 -0.119457 0.308639 0.523344 -0.031491 0.376497 0.550904 0.447012 -0.120754 0.018399 -0.230930
would -0.274613 -0.115174 0.171106 0.239646 -0.185228 -0.342373 0.481662 0.559709 -0.097060 -0.099585 0.346875 0.126610 -0.244146 0.524242 0.158260 -0.070296 0.412087 -0.108303 0.493987 0.563687 0.108945 -0.130191 0.457928 0.397171 0.483684 0.564759 0.570285 -0.106803 -0.192094 0.614817 0.078034 -0.242722 0.410982 0.090546 0.179809 -0.180415 -0.241736 0.629332 -0.149664 0.346909 -0.264536 0.191512 -0.185656 0.393520 0.319462 0.125803 0.037390 -0.095843 0.612429 0.290087
discover -0.315029 -0.242754 0.330480 0.454487 -0.313588 -0.057575 0.558405 0.088460 0.270619 0.229633 0.270235 0.253575 -0.155894 0.494089 0.408917 0.164654 -0.161792 0.573753 0.379855 0.648504 -0.040756 0.480768 -0.200095 0.279897 0.165493 0.041641 0.366036 -0.271689 0.496752 0.287447 0.132639 0.511020 0.338847 0.354053 0.484315 -0.286855 0.266878 0.109003 0.118764 -0.148169 0.217276 0.362603 0.132693 -0.132032 0.086556 0.000597 -0.135126 0.231194 0.520727 0.166981
it 0.338976 -0.326675 -0.257375 -0.324739 0.184877 -0.029576 0.421439 0.358657 0.227159 0.412896 -0.005040 0.110672 0.271226 0.571645 0.365170 -0.300735 -0.077897 0.252941 -0.233204 0.398478 -0.379894 -0.314889 -0.222811 -0.130875 0.057296 0.174640 0.541060 -0.102678 0.249662 -0.103737 0.375164 -0.039789 0.030825 0.596470 0.464453 -0.055869 -0.272430 0.015986 -0.192928 0.486530 0.043574 0.297903 0.394641 -0.258310 0.532833 -0.235097 0.496211 0.346295 0.506886 0.263586
think 0.097734 -0.095843 0.515697 -0.413704 -0.038607 -0.083671 -0.050356 0.534063 0.306362 0.022104 0.490860 0.024017 -0.260210 -0.299053 -0.090278 0.373154 0.023734 0.562573 0.448344 -0.084136 0.408364 -0.372659 0.042777 -0.332441 -0.038981 0.403732 0.191483 -0.088253 0.359891 0.456287 0.531759 0.311602 0.235088 0.441937 0.109883 0.082187 0.464744 0.545308 0.560264 0.119685 0.284709 -0.340700 0.508193 -0.220888 0.585059 0.143435 -0.341711 0.498585 -0.333634 0.266612
could -0.180471 0.560032 -0.277051 0.592656 -0.302084 0.440234 -0.369424 0.421088 -0.172263 0.286593 0.339048 0.323835 0.349677 0.049268 -0.074518 0.271288 0.505123 -0.192039 -0.304934 0.043945 0.429837 0.170875 0.575493 0.047077 0.455166 0.557118 -0.281676 0.222976 0.507819 -0.151155 -0.060946 0.533564 0.259769 0.336341 0.084155 -0.075135 0.129416 0.234636 0.128192 -0.266079 -0.277165 -0.132318 -0.281738 -0.268112 -0.140923 0.308295 0.298264 0.045183 0.539727 0.182773
bear 0.335229 0.214951 -0.270790 -0.132734 0.174987 0.118044 0.449797 -0.151909 0.339418 0.041739 0.406947 0.331032 0.075823 0.196870 0.276059 -0.126825 -0.064898 0.507532 0.386525 0.359740 0.217609 -0.193882 -0.132957 0.682023 0.408032 0.363542 0.250460 0.067065 -0.078564 -0.391224 0.630090 0.369320 -0.058408 -0.170050 -0.094228 0.160618 -0.205775 0.393060 0.190962 0.146846 -0.005959 0.295602 -0.181830 -0.174075 0.187380 -0.263431 -0.163064 0.180532 0.389871 0.328479
if 0.499171 -0.002857 -0.080103 -0.065256 0.461225 -0.123119 0.509182 0.638452 0.117958 0.572180 -0.097905 0.113799 0.579007 -0.109189 0.275728 -0.089812 -0.168657 0.118392 0.604504 0.199070 -0.182973 0.565316 -0.105715 0.511629 -0.005339 0.587041 -0.263963 -0.210202 0.393169 -0.229475 0.270569 0.150860 0.168428 0.018833 0.234972 0.711610 -0.426493 0.226149 -0.211622 -0.375317 0.307097 -0.176358 -0.238235 0.683093 -0.266198 0.542941 0.366920 -0.025404 -0.168298 0.552420
anyone 0.025085 -0.238478 0.153364 0.046002 0.342565 -0.358121 0.400799 -0.085725 0.133731 -0.250319 0.081036 0.455930 -0.095843 0.054251 -0.049808 -0.128394 0.092503 0.610235 -0.327824 0.137812 0.103349 0.263086 0.291260 0.326885 -0.218515 0.368682 0.564175 0.148117 0.494681 -0.229647 -0.078673 0.518872 -0.131320 0.359546 -0.025347 -0.152822 0.415957 0.329840 0.172741 0.515082 0.195912 0.325196 -0.149460 -0.125803 0.373913 0.084498 0.479525 0.238333 0.462865 0.271184
found 0.306988 0.516275 0.315348 0.428779 -0.162934 -0.423011 -0.225280 -0.149537 0.226488 0.087279 -0.023832 -0.286921 -0.278882 0.079304 -0.078394 -0.025899 0.008224 0.014533 -0.315466 0.456204 0.533973 -0.060015 0.443669 0.371006 0.503062 0.471537 0.319415 -0.100388 -0.339968 -0.152696 0.576591 0.212286 0.291348 0.650375 -0.117498 0.341265 0.160568 0.028182 -0.108065 0.402587 0.483807 0.130616 0.331908 0.437318 -0.025085 0.531227 0.248838 0.625440 -0.147532 -0.085820
out 0.331239 -0.219168 0.236473 0.675678 0.305802 -0.055940 0.587500 -0.184550 0.611294 -0.239729 0.140613 0.074969 -0.248339 0.534022 0.376615 -0.145024 -0.219952 -0.212130 -0.116948 0.029091 -0.294991 -0.241080 0.088474 0.109316 -0.064935 -0.217294 -0.069684 0.342146 0.548395 0.032847 -0.262223 -0.123431 0.581515 -0.108180 0.486528 0.656524 0.077398 -0.043129 -0.221804 0.324392 0.267754 0.449448 0.467908 -0.201971 0.161445 0.349626 -0.108718 0.653318 0.195327 -0.177986
about 0.462347 0.254931 0.254544 0.143545 0.285802 0.506955 -0.171362 0.014322 0.194751 0.581348 0.376100 -0.244969 0.113506 -0.039106 0.150693 0.572361 0.433001 0.399150 0.232696 0.041293 -0.301359 -0.302656 -0.196708 -0.132474 0.144796 0.168802 0.264106 0.117185 0.163110 0.110545 0.451416 0.574541 0.071412 0.258809 -0.064507 0.361073 0.328645 0.049178 -0.288457 -0.098077 0.292588 -0.138532 -0.218345 -0.261918 -0.170977 0.208033 0.443438 0.350847 -0.201046 0.106230
Potters -0.121411 -0.092962 0.277469 0.165427 0.600108 0.571988 -0.263791 0.202170 0.043382 0.530592 0.325312 0.669796 0.229140 -0.136078 0.466746 0.138508 0.485034 -0.097719 0.581895 -0.185247 -0.290511 -0.046177 -0.048355 -0.170439 0.357638 0.204867 0.342237 0.175455 -0.311150 0.404310 0.103107 -0.208579 -0.300288 0.418689 0.437816 0.474350 -0.353708 0.113309 0.246687 0.395084 0.615289 -0.036623 0.055991 0.488313 -0.130874 0.308782 -0.124619 0.173514 0.299687 0.282212
sister -0.125364 0.464967 -0.043787 0.497593 -0.136147 0.012878 -0.138362 0.076028 0.229412 0.296173 -0.087104 0.241175 0.126804 0.044801 0.063212 0.530226 0.446030 0.266332 -0.156538 0.212993 0.479855 0.365332 -0.161704 -0.016011 -0.411514 0.054185 0.583961 0.559776 0.409150 0.557804 0.542053 -0.199674 -0.366290 0.330980 0.491236 0.236116 0.508483 -0.342271 0.240360 0.083358 -0.019014 -0.103801 0.233824 0.316445 -0.001319 0.585672 0.492818 0.199000 0.395343 0.088658
hadnt -0.103320 -0.254213 -0.225412 -0.292725 0.023193 -0.080735 0.481124 0.710462 0.361904 0.323111 0.567020 0.594091 0.161525 -0.259450 -0.174218 -0.205266 -0.155799 0.193711 -0.205378 0.209199 0.557906 -0.332011 0.441457 -0.222083 0.433177 -0.141002 0.467462 -0.151810 -0.262530 0.253175 -0.266121 -0.019306 -0.110397 0.383714 0.529276 -0.022492 0.498236 -0.040029 0.264632 0.211668 0.616022 0.465468 0.592638 0.627116 -0.099996 0.121438 0.134879 0.084176 -0.190134 0.272307
met 0.426217 -0.173359 0.438627 0.204969 0.079761 0.371421 -0.021774 0.286716 0.284478 0.654912 0.481657 -0.239652 -0.048743 0.086273 -0.061842 -0.014397 0.324945 -0.072521 -0.395426 0.368697 -0.197976 0.571457 -0.021176 0.253185 0.129239 0.311671 -0.223424 0.611021 -0.338273 -0.026161 0.085855 -0.088787 0.254577 0.321926 0.231447 -0.078886 0.032551 -0.042619 0.002995 -0.242218 0.590187 0.303860 0.518952 -0.297189 -0.204652 0.025583 -0.088628 -0.182703 0.613704 -0.105686
for 0.462205 0.137462 0.472838 0.022280 0.555860 -0.115693 0.091080 0.366826 0.380617 0.313445 0.174421 -0.224442 0.075712 -0.037027 -0.180689 -0.266200 -0.044335 -0.083690 0.409071 -0.192849 0.332410 -0.164083 -0.141085 -0.071612 0.341463 -0.081940 0.052387 -0.025081 0.010150 -0.056079 0.356817 0.062326 0.408272 0.138527 0.338697 0.701421 0.128701 0.109960 0.452915 -0.238162 0.061224 0.224002 0.495395 -0.078948 -0.083136 0.378863 0.029069 0.180949 -0.107486 0.297237
several -0.278920 0.414564 0.453449 0.378475 0.265784 0.393165 0.475676 0.133084 0.124143 0.180125 -0.122147 0.219834 0.162631 0.515893 -0.189975 0.560028 0.368933 -0.143024 0.088871 0.344486 0.532545 -0.056885 -0.082610 0.415308 0.213790 0.025769 0.045676 0.196013 0.330619 -0.082309 0.079218 -0.122964 -0.256081 0.053138 0.413311 -0.141244 -0.167861 -0.185377 -0.062856 -0.099547 0.518173 0.028820 0.466999 0.157526 -0.260325 -0.069135 0.472095 0.165159 0.318438 -0.284949
years 0.658226 0.595635 0.405638 0.523991 0.574592 -0.217648 -0.345353 0.211603 0.167203 -0.056456 0.263850 0.314311 0.533127 0.219592 -0.082721 -0.170426 0.346850 0.366888 -0.136547 0.092613 0.061154 -0.047961 0.006337 0.577799 -0.233708 0.077418 0.595026 -0.085221 -0.221190 0.029847 0.361640 0.133785 -0.192369 0.352608 -0.222389 -0.322970 0.552261 0.280755 0.203009 0.393296 0.638387 -0.199303 -0.181291 -0.055610 0.025285 -0.181970 0.447470 -0.159236 0.056858 0.002223
fact 0.121330 0.170678 0.443488 0.114083 0.319112 0.142924 0.410215 0.398756 0.115784 -0.065936 -0.122439 0.012444 0.362185 0.167990 0.449865 -0.085940 0.225615 0.183901 0.540226 -0.088771 -0.284978 -0.012181 0.519210 -0.221679 -0.312630 -0.146525 0.166383 0.314118 -0.408425 -0.351760 0.117974 0.298867 0.285981 0.418982 0.646532 0.194641 0.543672 0.353451 -0.322753 0.154860 0.344926 0.434673 0.114891 0.364893 0.528410 0.202748 0.467825 -0.093934 0.386268 0.332846
pretended 0.487649 0.041188 0.293051 -0.094676 0.174696 -0.053315 0.458604 -0.088605 0.121707 -0.291866 0.329210 0.381667 0.233387 0.115881 0.172241 0.263757 -0.107304 0.290389 0.423566 0.254544 -0.253604 -0.174916 -0.163054 0.546398 -0.091123 0.328570 0.503195 0.399111 0.550476 -0.238154 -0.211243 0.072544 -0.097877 0.341612 -0.311886 0.150408 0.529481 0.573549 0.068312 0.088504 -0.235967 -0.186088 -0.088103 -0.329010 0.458029 0.247059 0.558158 0.489677 0.226092 0.211654
goodfornothing 0.032692 -0.044603 -0.037240 0.424512 -0.262552 -0.087633 0.218607 -0.119657 -0.211315 -0.233298 0.026178 0.225886 0.582634 0.325441 -0.292975 0.589560 0.451367 0.103943 -0.185751 0.457298 0.063764 0.093302 0.194634 -0.203152 0.024936 0.023792 0.612372 0.104466 -0.306262 0.032315 0.183777 0.069891 0.133875 0.501014 0.512107 0.339186 -0.251365 0.253733 0.390946 0.059673 0.055196 -0.169232 0.399672 0.376940 0.094328 0.082064 0.270863 -0.084981 0.625217 0.005391
husband 0.135720 -0.163598 0.456061 -0.268341 0.283247 -0.226548 0.264469 0.146898 0.184371 0.155267 -0.039467 0.102087 0.114622 -0.389493 0.294949 -0.222396 0.506948 -0.244190 0.528552 0.596035 0.113426 0.570586 0.470799 -0.227163 0.029377 0.526277 -0.125564 -0.107505 0.215120 0.684323 0.034844 -0.182018 0.176645 -0.089427 -0.110760 0.310978 0.424037 0.451857 0.322456 -0.232806 0.170012 0.342414 0.393219 0.001813 -0.082298 0.237009 0.438725 -0.031920 -0.269062 0.588045
unDursleyish 0.313971 -0.328181 0.344068 0.485858 -0.105678 0.082058 0.546556 -0.235431 0.278990 0.500178 -0.001516 0.430893 0.520791 0.021155 0.271536 0.445858 -0.147762 -0.150153 -0.248348 0.079325 0.055073 -0.038509 -0.251848 0.281516 0.504262 0.438755 -0.296521 -0.251752 -0.135265 0.572459 0.585515 0.561658 0.074851 0.269119 -0.389618 0.517374 0.290181 0.166968 0.475886 -0.364510 0.400635 0.140592 0.374955 0.552701 0.011176 0.232878 0.421132 -0.274235 -0.197178 0.046612
possible -0.147539 0.452488 0.582883 0.548954 0.712851 0.218318 -0.137660 0.104763 0.339748 -0.130421 0.475902 0.620496 -0.122375 0.166329 -0.307721 0.183037 0.456773 -0.255127 -0.143337 0.331120 -0.223325 0.633753 0.067071 0.219465 -0.065060 0.286711 -0.160076 -0.278956 -0.159285 0.270037 0.408527 -0.176047 -0.226907 0.092329 0.141552 0.576142 0.367775 0.342950 -0.095505 -0.106198 -0.187343 0.518828 -0.021930 -0.034911 -0.273117 0.292576 0.702194 0.241604 -0.184610 0.185376
shuddered 0.001188 0.154892 0.492321 0.332534 0.509061 -0.128563 -0.395045 0.450339 0.051469 0.345455 -0.306316 0.386556 -0.309640 0.260176 0.110843 0.499537 0.560703 -0.178253 -0.027781 -0.038306 0.127369 0.229490 0.038107 -0.026154 0.661134 -0.070504 0.370900 0.282649 -0.022694 0.105689 0.252812 0.045413 0.310377 0.701032 -0.106398 0.524869 0.073384 -0.066794 -0.249783 0.422320 0.525616 0.073970 -0.261758 0.464798 0.208102 0.577121 0.198269 0.027930 0.538618 -0.033171
what 0.146680 0.533032 0.107174 -0.281356 -0.185595 0.165738 -0.152530 0.462730 -0.039525 0.068043 0.057953 0.122894 -0.233794 0.482352 0.035130 -0.088679 0.274234 -0.251305 0.516910 -0.213513 -0.025913 0.548268 -0.182820 0.504594 0.112780 0.684086 -0.279233 0.069082 0.597547 0.584785 -0.240340 -0.328418 0.421848 0.263978 0.623516 -0.303946 0.445538 -0.181056 0.341950 0.376067 0.301271 0.513469 0.593119 0.589738 -0.204538 0.552251 0.654292 -0.089137 0.153459 0.544336
arrived -0.084400 0.346091 0.227523 0.225624 0.546461 0.787367 0.672932 0.285859 0.419620 -0.150209 0.737601 0.614144 0.542434 0.327537 0.310942 0.550242 0.312804 0.783420 0.681448 0.595291 0.115668 0.321254 0.729708 0.795887 -0.225665 0.129980 0.715443 0.247152 -0.151917 0.663696 0.238568 0.433882 0.319933 0.705601 0.699788 0.034640 0.114327 0.578727 0.110228 0.510089 0.241084 0.274880 0.493747 0.357468 -0.159501 0.360039 0.494960 0.709891 -0.058983 0.524819
street 0.752510 0.487204 -0.178781 0.268644 0.149579 -0.258599 0.594842 0.447421 -0.105738 0.041230 0.270123 -0.146025 0.380590 0.625747 0.630570 0.759680 0.150879 0.138703 0.056337 0.058357 0.747715 -0.133553 0.157032 -0.078574 0.603021 0.083395 0.259264 0.414848 0.224395 0.743183 0.005964 -0.079337 -0.112800 0.583918 0.362321 0.622235 -0.039404 0.113217 -0.162315 -0.209650 0.264423 0.000730 -0.193772 0.424861 0.068740 0.016743 0.071348 0.561240 0.608603 0.074780
knew 0.299488 0.342453 0.268802 0.029738 0.240084 0.549875 -0.116020 0.715355 0.583959 0.373860 0.014042 0.754922 0.685923 0.550026 -0.132741 -0.013850 -0.124243 0.118669 -0.084188 0.318222 0.178340 0.276204 0.547466 0.742315 -0.074556 0.579131 -0.167069 0.457219 0.071135 -0.021722 0.062034 0.809029 0.485126 0.639623 0.497720 0.499707 -0.186283 0.253324 0.718287 0.475935 -0.051599 0.749955 0.327025 0.323627 0.122429 0.492004 0.502783 0.601820 0.169275 -0.052219
too -0.039616 -0.143464 0.164535 -0.130811 0.072864 -0.094027 0.215949 0.049771 0.325177 -0.083944 0.532065 0.412008 -0.044903 0.377141 0.506070 -0.017145 -0.188569 0.675509 -0.073574 0.105043 -0.020351 -0.254610 0.305595 0.090258 0.167681 -0.197469 0.096451 -0.186230 0.312885 0.549792 0.212942 0.373957 -0.122267 0.317917 -0.037813 0.549427 -0.225769 0.015823 -0.041504 -0.100832 0.546705 0.007910 -0.226325 0.690103 0.634761 0.028776 0.557833 0.251599 -0.147501 0.213187
never 0.054893 0.436287 -0.019371 0.238120 0.660262 -0.264950 0.388648 0.485561 0.423053 -0.111596 0.152675 0.476045 0.277133 0.426170 0.147475 0.472915 0.100441 0.041584 0.175509 -0.069959 0.597974 0.228423 -0.319460 0.614036 0.397497 0.521760 -0.122801 0.133651 -0.385769 -0.240251 0.380051 0.444564 -0.258425 0.424313 -0.251185 0.224728 -0.297413 0.390454 -0.021192 0.064802 -0.003493 0.004300 0.187889 -0.120545 0.593857 0.543811 0.500642 0.075563 0.374087 -0.320863
even 0.149720 -0.235495 0.061452 0.190396 0.185537 0.083263 0.605057 -0.260804 -0.291052 0.299648 0.322293 0.464352 -0.339597 -0.338755 0.095983 0.191510 0.038591 0.337124 0.090840 0.409737 -0.066224 0.179544 0.153778 -0.191297 0.299032 0.205307 0.385433 -0.327016 0.144486 0.284897 0.295994 0.037200 0.636593 0.507665 -0.311151 0.545002 0.044088 -0.223429 -0.095839 0.197561 0.417367 0.373801 0.087469 -0.123184 0.255420 -0.261216 0.461360 0.109451 -0.005019 0.364361
seen 0.388087 0.175484 0.454531 -0.241215 0.358732 -0.304976 0.657966 0.162231 -0.028287 0.116513 -0.013858 0.113371 0.399474 0.079693 -0.199297 0.374295 -0.244576 0.451860 0.134077 -0.219686 0.384056 -0.366750 -0.100258 -0.393998 0.532344 0.211320 -0.213074 0.350105 -0.205824 -0.100945 -0.462554 0.534028 0.137847 0.164817 0.510265 -0.152856 0.144557 -0.202950 0.542385 0.154540 0.580067 0.412500 0.320072 0.294146 0.288343 0.474316 0.027181 -0.144320 0.476461 0.351790
him 0.625699 -0.066494 -0.300710 0.405369 -0.283406 -0.123474 0.185139 0.342533 0.195908 -0.279142 -0.006894 0.484330 -0.314213 -0.016004 -0.279246 0.034723 0.633833 -0.013626 0.434054 0.541755 0.278021 0.354088 0.143258 -0.232757 0.553500 0.126203 0.540360 0.174031 0.272287 -0.396340 -0.029207 0.375881 0.186042 0.520564 0.219505 0.392834 -0.269022 0.150594 0.483963 -0.218650 -0.171271 -0.030878 -0.264497 0.503036 -0.220635 0.320302 0.628883 -0.278777 0.107724 -0.233321
This 0.441038 0.174396 0.106248 -0.049077 -0.344982 0.181866 -0.082439 0.514513 -0.087359 0.267427 0.321457 -0.007840 0.433975 0.520683 0.439167 0.416759 0.072665 0.336023 0.424080 0.109304 0.098859 -0.396318 0.079183 -0.153888 0.550704 0.387654 0.453611 0.625202 -0.087114 -0.238131 0.580063 -0.089362 0.263627 -0.025616 -0.086432 0.506712 0.154814 0.125874 0.275904 -0.370710 -0.262388 0.126275 0.263046 0.129993 -0.280343 0.342141 0.114903 0.127797 0.110860 -0.303802
another 0.246008 -0.181674 -0.253716 0.518926 0.451647 -0.174520 0.217308 0.616871 0.188458 0.207300 -0.121435 -0.042910 0.437360 -0.237895 -0.300006 0.639011 -0.151412 -0.081478 0.160678 -0.104808 0.423924 0.133658 -0.266007 0.009162 -0.208952 0.538854 0.639618 0.048858 0.160585 -0.208553 0.287194 -0.133114 -0.119139 0.578078 0.541525 -0.051901 0.304255 0.466496 0.089494 -0.027888 -0.022517 0.278972 0.539201 0.029128 -0.292410 0.599484 0.150248 -0.249654 -0.275125 -0.265986
good 0.366810 0.343205 -0.280955 -0.177534 0.502291 0.148511 -0.013277 -0.292054 0.532801 0.486027 0.206669 0.159753 0.015586 -0.455612 -0.192129 -0.196990 0.499107 -0.168741 0.263087 -0.257634 0.549121 0.490609 0.194718 -0.130174 -0.306731 0.455135 0.488087 0.073455 0.411893 0.336659 -0.214887 0.202085 -0.272870 0.433380 -0.324116 0.249900 0.511668 0.659667 0.452875 0.127698 -0.349010 0.187017 -0.157424 0.017073 0.161120 0.487093 0.513053 0.640127 -0.239242 0.163018
reason -0.078385 0.314916 0.161506 0.506307 0.133092 0.149745 -0.166692 0.367952 0.158608 0.132233 0.537427 0.242492 0.498159 -0.200722 0.503209 0.458871 0.456918 0.167129 0.510092 0.355647 0.075097 -0.015897 0.405537 0.423245 0.332234 -0.147882 -0.287493 0.392612 -0.064975 -0.420725 0.201730 0.459474 0.182358 0.557996 0.356619 0.130342 0.120444 0.443795 -0.326542 0.268802 -0.236981 0.215827 0.567559 0.119984 -0.140475 0.347682 -0.221481 -0.237834 0.304030 -0.458091
keeping 0.227862 0.251789 0.074295 -0.289857 0.268987 0.299186 0.395495 0.119089 0.436292 0.462159 0.120049 0.129054 -0.263839 0.027537 0.459630 -0.290251 -0.065711 0.563297 0.540413 -0.111363 0.188830 -0.297305 -0.045145 0.501020 -0.288507 0.365391 0.073798 -0.307661 0.014963 -0.064122 0.196446 0.115507 -0.154940 0.434222 0.094398 -0.154406 0.095928 0.583585 0.273246 -0.183682 0.355533 0.115363 0.225208 0.276267 -0.292306 0.557402 0.481099 0.539270 -0.353453 0.497493
away 0.527935 0.233909 0.048592 0.372115 -0.112481 0.245323 -0.192916 -0.228181 0.660875 0.099979 -0.186613 0.282884 -0.130273 0.010122 0.568077 0.285075 0.234732 -0.346142 0.516570 -0.279940 -0.198595 0.442184 0.495109 0.580986 0.488544 -0.160109 0.067517 0.016165 0.047449 0.342863 0.295277 0.352310 -0.341367 0.297086 0.423387 -0.216587 0.022821 0.223828 -0.137575 -0.414701 0.167225 0.568680 0.018306 0.090925 -0.220411 -0.000657 0.345023 0.418738 0.372846 0.053815
want 0.628761 0.071318 -0.352713 0.467369 0.644758 -0.316175 0.181535 0.107361 -0.376417 -0.167618 0.207428 0.535984 0.044777 0.209229 -0.172224 0.619967 0.257450 0.186432 -0.129130 -0.351896 0.096914 0.427103 0.188609 0.731267 -0.114861 0.542130 -0.292331 -0.010835 -0.134415 -0.175583 0.444725 0.360174 0.236640 0.426859 0.371978 -0.155758 0.670017 0.675508 0.157324 -0.368546 0.240216 0.464864 -0.250504 0.526379 -0.204306 -0.103201 -0.288717 -0.227739 -0.273594 0.042735
mixing 0.227803 0.190915 -0.081222 0.414572 0.009542 -0.265626 -0.001664 0.372119 0.412871 -0.054680 0.516240 0.021735 0.126534 0.141414 0.486052 0.401116 0.459459 -0.096745 0.091858 0.222162 -0.227175 0.492465 0.148817 0.136954 -0.295291 0.399013 0.482679 -0.082757 0.462282 0.489247 0.069204 -0.252313 0.122085 0.442950 -0.311807 0.496101 0.074345 -0.033648 -0.343335 -0.109985 0.642310 0.311343 0.489758 0.515614 0.417563 0.102126 -0.075132 0.664669 0.360878 -0.319189
child -0.259231 -0.059451 -0.007589 0.441942 0.337877 -0.138145 0.284598 0.423961 -0.227009 0.246907 0.338874 -0.230744 0.045044 0.529349 -0.189407 0.521984 -0.029375 -0.316966 0.274097 -0.064293 -0.329977 0.005357 0.049954 -0.018580 -0.295484 0.284055 0.360232 -0.042809 0.301811 -0.132601 0.516168 0.502874 0.176119 0.550435 0.068329 0.408403 0.037421 0.336877 -0.421649 -0.063095 0.438565 -0.148736 0.605463 0.058042 0.142756 0.488159 -0.188655 0.540240 -0.196228 0.289495
like -0.017935 0.089212 -0.124023 0.228658 -0.295438 0.175466 -0.296828 0.335023 -0.097174 0.227469 -0.129707 -0.250549 0.603609 0.375601 0.047153 0.205373 0.173117 0.217872 0.168601 -0.124412 -0.001336 0.526850 0.449103 0.458800 0.249606 0.113213 0.096885 0.026009 -0.192634 -0.094648 0.200182 0.314509 0.555243 0.290291 0.086180 -0.069390 -0.072115 0.449753 0.307924 0.175926 -0.211776 0.610024 0.041360 -0.106919 0.070954 0.409817 0.051991 0.446867 -0.260126 0.066675
When 0.397643 -0.039716 -0.167013 -0.314251 0.049121 0.401985 -0.097551 0.513931 0.275562 0.498202 -0.007098 0.108986 0.429510 -0.108958 0.484308 0.372166 -0.045556 0.212122 0.350133 0.029534 0.392885 0.411635 0.038498 0.058761 0.609346 -0.000781 0.369460 0.140485 0.282759 0.050242 -0.349238 0.470404 -0.071071 0.050542 -0.216367 0.597892 0.236317 0.179449 0.267036 -0.276487 0.491635 0.162234 -0.248998 -0.316298 -0.325167 0.516065 0.395146 0.247856 0.169681 0.351893
woke 0.521176 0.606349 -0.018310 0.443270 0.350106 0.361056 -0.302810 -0.119729 -0.250948 0.362831 0.551819 -0.293150 0.315915 0.041040 0.615141 0.365177 -0.222936 0.143377 0.405104 -0.074235 0.199628 0.458888 0.151444 0.501133 -0.339941 -0.096935 -0.145837 0.142406 0.387370 0.672629 0.217320 0.384535 -0.124887 0.678944 0.005157 -0.310566 0.084613 0.344698 0.471967 -0.329892 0.063823 -0.131882 0.514262 0.105760 0.081138 0.577464 0.342783 0.485676 0.561364 -0.229059
up 0.552141 -0.224541 -0.311788 0.131236 0.276060 -0.362031 0.463369 0.045571 0.109782 0.671911 0.261164 0.292572 -0.074239 0.375820 0.349853 -0.292104 -0.175372 0.042064 -0.265770 0.674984 0.479828 0.294853 0.276488 0.421966 -0.097239 0.367255 0.360227 0.053090 0.325509 -0.215667 -0.183473 -0.298333 0.435093 0.055096 -0.208034 0.338037 0.139730 -0.029367 0.032486 0.331049 0.526862 -0.209859 0.241312 0.101312 0.422783 0.076302 0.394271 -0.029155 0.012668 0.281710
dull 0.054830 0.098694 0.072440 -0.054310 -0.059384 -0.063470 -0.236388 -0.017646 -0.145597 0.398833 0.572056 -0.163431 -0.137840 0.287336 0.669315 0.327185 0.052602 -0.129152 0.386819 0.564467 0.110201 0.124717 0.152557 0.222459 0.349774 -0.249704 -0.181271 0.572129 -0.326214 -0.037879 0.554181 0.017032 0.369951 0.564180 0.310997 0.159017 0.535577 0.553958 0.102357 -0.364357 0.323334 -0.276061 -0.070508 0.494540 0.124325 0.324014 0.331524 -0.090504 -0.046293 0.402376
gray 0.403381 -0.103060 -0.026199 0.023222 -0.250492 0.220726 0.101882 0.016997 -0.019012 0.038335 -0.194164 0.260030 0.127543 0.702923 0.285835 0.334657 0.168873 0.476278 0.251131 -0.401717 0.280746 0.228301 0.146234 0.440787 0.680323 -0.015061 -0.027292 -0.199270 -0.303800 -0.194008 0.385843 0.225465 0.625264 -0.116219 0.179185 0.298665 -0.317779 0.639062 0.310467 -0.262989 0.382210 -0.045612 -0.411592 0.332014 0.084063 -0.194278 0.348845 0.088175 0.572775 0.684672
Tuesday 0.375679 0.169632 0.339741 -0.278488 0.094307 0.054540 -0.215205 0.283815 0.369878 0.563545 -0.008298 -0.280206 0.166830 0.147176 0.178078 0.370436 -0.067865 0.463987 0.449016 0.117023 -0.383929 0.509240 0.532351 0.059685 0.020877 -0.188336 0.378934 0.055239 0.650085 0.376106 -0.144818 0.238004 0.588358 0.555112 -0.159669 0.427534 0.239310 0.202282 0.552645 -0.455266 0.302536 0.514756 -0.211189 -0.413653 0.412093 -0.150193 0.629844 0.414610 -0.301142 0.331705
our 0.657797 0.595583 0.161452 0.584602 0.557139 -0.255370 0.357488 -0.286189 0.174722 0.583525 0.316062 0.257246 0.544618 0.075007 0.302372 -0.085687 -0.164340 0.173431 0.640117 0.127293 0.300876 -0.003836 0.336592 0.613414 -0.225900 -0.110270 -0.272640 0.017791 0.391477 0.432018 0.513656 -0.057211 0.112512 -0.167747 -0.209201 0.702895 -0.189830 -0.219552 -0.066906 -0.389253 0.437071 -0.028663 0.009569 0.597021 0.678552 0.537423 0.022551 0.012066 0.063304 -0.056858
story 0.414311 0.117532 0.113523 -0.226594 -0.187712 -0.039711 0.465149 -0.051453 -0.269217 0.012275 -0.040851 0.017575 0.538825 0.624806 0.501654 0.252044 -0.351475 0.656135 0.471565 -0.265311 -0.075300 0.447398 0.399830 0.393554 0.321916 0.518074 -0.284274 0.232549 0.347897 0.465042 0.446672 0.321585 0.160577 0.224497 0.385868 -0.146607 0.486552 0.104065 -0.140492 -0.246185 0.222414 0.202967 0.378424 0.079160 -0.166292 -0.066141 0.664252 0.346816 -0.194317 -0.070689
starts 0.460434 -0.195795 0.252071 0.617159 0.594643 -0.173405 0.164532 -0.185839 0.461056 -0.355014 0.090611 0.341133 0.584515 -0.223443 0.045377 0.522563 0.014544 0.593982 -0.222765 0.626927 0.346073 0.130586 0.095261 0.023472 0.367094 0.456310 0.118969 -0.210882 0.527482 0.083052 -0.200853 0.187598 0.248208 -0.046944 0.541859 0.243382 -0.166511 0.192412 -0.301926 -0.214505 0.056338 0.090142 0.585031 0.527680 -0.085612 -0.308682 -0.128846 0.202029 -0.261489 0.205286
nothing -0.049528 0.136580 -0.226333 0.435886 -0.339363 0.167131 0.254891 0.383996 -0.166333 0.208033 0.604420 0.362230 0.603991 0.208327 0.006876 -0.009144 -0.000132 0.218909 -0.068939 -0.285528 -0.010342 0.237511 0.094568 -0.009332 0.439489 0.067754 -0.166534 0.616902 -0.095021 -0.061098 -0.006792 0.586578 -0.199281 0.420904 0.186693 0.467375 0.404214 0.409729 0.179218 -0.070822 -0.077538 0.548105 -0.182883 -0.021168 0.484870 0.310995 0.235393 -0.047004 0.196057 0.235902
cloudy 0.414501 0.572116 -0.180923 -0.049904 -0.090608 0.507269 0.531407 0.334208 0.278691 -0.170836 -0.192068 -0.210657 -0.012023 0.668911 -0.234342 0.112777 0.058902 -0.189566 -0.024535 0.496174 -0.230447 -0.284122 -0.232605 -0.047041 0.111895 -0.090991 0.642268 -0.270094 0.181483 0.546317 0.439866 0.314809 -0.036778 0.030277 0.084809 0.598528 0.345740 0.164419 0.097963 0.187332 0.583165 0.481690 -0.207733 0.543140 0.160651 -0.191476 0.121686 -0.021873 0.317611 0.526464
sky 0.564365 -0.301453 0.266739 -0.138431 -0.090313 -0.148214 0.254832 0.612246 0.527727 0.361002 0.031320 -0.138414 0.598298 0.134619 0.216380 0.276379 -0.267311 -0.265010 0.041241 -0.340288 0.402608 0.470944 -0.095131 0.086854 0.328503 0.691042 -0.354755 -0.142025 0.342974 0.131415 0.050496 0.582120 0.246769 0.133847 0.487669 0.105530 0.153469 0.646220 0.318034 0.266892 -0.031749 0.105251 0.203298 0.445633 0.301786 0.052052 -0.277705 0.590345 -0.232846 -0.125775
outside 0.145086 0.097133 0.080806 0.431133 0.020353 -0.275478 0.250255 0.265166 0.504049 -0.178570 -0.208122 0.014856 -0.071188 0.495615 0.317153 0.025278 -0.255814 0.306317 -0.194325 -0.052151 -0.047376 -0.096407 -0.215467 0.147581 -0.016203 0.250479 -0.087858 0.320262 -0.044791 0.354691 0.555700 0.536969 0.428793 0.201959 -0.120861 -0.126280 0.148337 0.159146 0.534483 -0.098027 -0.017412 0.710996 0.296834 -0.006996 -0.182170 0.314999 -0.113704 0.534588 -0.076139 0.510139
suggest 0.597530 0.267626 0.475358 0.575822 0.272700 0.458057 -0.334688 -0.378105 -0.158150 0.498936 0.282823 0.276262 0.215611 0.538242 -0.065218 0.104156 0.007695 0.190087 -0.247637 -0.285889 -0.220992 -0.269188 0.537292 0.356081 -0.108407 0.272753 0.270667 0.275391 -0.061257 0.158105 0.064397 0.647606 0.414607 -0.245639 0.226447 0.557930 0.488037 0.612410 -0.198886 0.257209 -0.191245 -0.133545 0.372218 -0.311740 -0.144418 0.044609 0.481396 -0.175631 0.412036 0.596984
things 0.556592 -0.075738 0.535072 -0.295230 0.583248 0.245455 0.246125 0.358222 -0.400885 0.611874 -0.198409 0.326293 0.226360 0.444884 -0.061264 -0.248858 0.450814 -0.321341 0.504695 0.492139 -0.238656 0.085455 0.343662 0.272925 -0.205040 -0.274613 0.601452 -0.272481 0.168643 0.290587 0.264192 0.558190 0.362564 0.549038 -0.084790 0.540316 0.401376 -0.147772 0.241092 0.147655 0.159035 0.136167 0.168990 0.467580 -0.107406 0.536459 0.558409 -0.203812 -0.272372 0.297187
soon 0.198122 0.622624 0.555688 0.146849 0.312821 -0.129323 0.683629 -0.010008 0.138596 0.197969 0.388020 -0.274486 -0.128734 -0.247885 0.275796 -0.054002 -0.027963 0.340519 0.327487 0.019252 0.322520 -0.069106 -0.044470 -0.085749 0.592562 -0.169912 -0.012144 0.342104 0.525395 0.094307 -0.072494 -0.191532 0.339784 -0.066089 0.254755 0.381031 0.106551 0.247220 0.487751 -0.124753 0.684079 -0.055984 0.085545 -0.323610 0.087757 -0.200412 0.071106 0.111613 -0.069386 -0.211143
happening 0.225736 0.052179 0.032029 0.029347 0.598764 -0.412420 0.109682 -0.120418 -0.161302 0.337697 -0.343145 -0.315071 -0.282631 -0.067017 0.282058 -0.387862 0.328604 -0.303316 -0.162449 0.342330 0.407266 0.200802 0.371274 0.293594 0.065136 0.338118 0.334516 0.541516 -0.012284 0.474019 -0.122392 0.606782 0.038929 -0.109150 0.059684 0.192664 -0.345342 0.499049 0.010031 -0.164838 0.346684 0.671683 0.009833 0.165495 0.195411 0.002669 0.615364 0.630278 0.273296 0.338230
all 0.228498 0.083052 0.218170 -0.125151 -0.015874 0.577923 0.314111 0.472451 0.192652 0.074291 -0.136726 0.301844 -0.301730 0.643119 0.679655 0.577190 -0.170554 -0.016564 -0.242376 0.490213 0.188031 -0.218531 0.540033 -0.085921 -0.112444 -0.212852 0.135999 -0.352075 -0.303919 0.385606 0.098695 -0.304737 -0.130706 0.351354 0.090183 0.260173 -0.270928 0.038867 0.676931 0.402153 -0.095017 -0.106489 -0.115484 -0.293748 -0.332061 0.241552 0.431054 0.400284 0.494507 0.455608
country -0.144061 0.592074 -0.363419 -0.144979 -0.319381 0.476821 -0.193926 -0.249185 0.342252 0.387388 0.511445 0.426838 0.438773 0.359933 -0.058041 -0.161669 0.520754 0.584680 0.554680 -0.049166 -0.164340 -0.366568 -0.395630 -0.165731 0.604354 -0.109944 0.233458 -0.138932 0.618712 0.558837 0.470538 0.028810 0.291542 0.126567 0.564246 0.549479 -0.338949 0.247734 0.104009 0.048354 -0.271629 0.214728 -0.102295 0.093014 0.511684 -0.082059 0.583115 0.504817 -0.295797 -0.278964
hummed 0.005243 0.049877 -0.137640 0.119111 -0.055076 -0.091695 0.103483 0.366302 0.302029 0.074457 -0.008866 0.588596 0.482728 0.518437 0.154975 0.189684 -0.017577 0.189748 0.197831 0.590323 -0.071029 -0.290106 0.197166 0.100956 -0.351070 0.387556 -0.223418 0.142440 0.229351 -0.106705 0.328853 0.223004 -0.026714 -0.073750 -0.007728 0.135564 0.440247 0.142972 0.317949 -0.221518 0.481302 0.513677 0.504791 0.262345 -0.114262 0.065693 0.491755 0.364188 -0.002415 0.345080
picked 0.463885 0.029918 0.454570 -0.137241 0.532317 -0.079142 0.635020 0.339843 0.448791 0.478650 -0.260548 -0.249404 -0.101386 0.057117 -0.094329 -0.106973 0.091432 0.410801 0.032560 0.275564 -0.235084 -0.213965 0.241493 -0.127224 -0.166233 0.367304 0.112744 -0.333728 0.616283 0.455010 -0.271648 0.032324 0.627824 -0.147444 0.262593 -0.257881 0.266741 0.647934 0.510277 -0.043969 0.106505 -0.070889 0.514130 0.370192 0.385680 -0.173739 -0.293925 0.393056 0.092040 -0.173906
his 0.340219 0.589489 -0.339660 0.584500 -0.037619 -0.173465 0.609683 0.507680 0.499529 0.611829 0.361696 0.356397 0.348252 -0.337016 0.189035 0.390217 0.042116 0.303131 0.241430 0.063556 -0.092577 -0.060430 -0.301023 0.605039 -0.217311 -0.008996 0.591829 0.032056 -0.002737 0.589277 -0.341101 -0.037239 -0.311302 -0.149062 0.250175 0.279746 0.289087 0.284399 -0.235289 -0.220923 0.408407 -0.279741 -0.286659 0.295278 0.345518 -0.123610 0.597678 0.521511 0.051496 0.592899
most 0.323446 0.116358 0.193271 -0.020870 0.212815 0.041440 -0.251670 0.273286 0.209188 0.221214 0.169092 -0.264750 0.135872 0.593576 0.597918 0.163772 0.551637 0.195829 -0.042030 0.081967 0.463367 -0.012674 0.292542 0.002120 -0.031124 -0.134959 0.135476 -0.226198 0.181454 -0.221489 -0.177184 0.176701 0.639789 0.370191 0.025226 -0.013247 0.055759 0.047425 0.176257 0.325578 -0.168595 -0.036404 0.438479 0.454420 -0.261977 -0.246535 0.582122 0.301693 -0.213901 0.015187
boring 0.064673 0.231345 0.606437 0.518973 -0.006238 -0.248640 0.330608 0.573861 0.170001 -0.268659 0.324273 0.299397 0.480707 -0.122488 0.506113 0.216585 0.054092 0.350159 -0.215327 0.087587 0.115683 -0.171330 0.017299 -0.128606 0.139420 0.680428 0.522489 -0.160555 0.534007 0.414327 0.592552 0.088197 0.477647 -0.028580 0.116540 0.146880 0.295097 -0.246954 0.307341 -0.323698 -0.350624 -0.253732 -0.199754 -0.046126 -0.303660 0.303106 0.473076 -0.165080 -0.136392 0.160792
tie 0.382366 0.226682 0.116956 0.612242 -0.041050 0.023629 0.218170 -0.165406 0.632574 0.159367 0.406211 -0.283046 -0.101811 0.034357 -0.092774 0.557075 0.277643 0.340913 0.089312 0.311867 -0.119494 0.600605 -0.042528 -0.065620 0.045942 0.344921 -0.283194 -0.290304 -0.134203 0.022561 0.540291 0.692711 0.555755 0.351001 -0.111849 0.153591 -0.363955 -0.034226 0.295688 -0.385216 0.024303 0.393500 0.157189 -0.009877 0.175164 0.137953 -0.180575 0.271314 -0.083775 0.373901
work 0.080359 0.369382 0.161986 -0.279073 0.170143 0.352510 -0.070914 0.202299 0.600242 -0.300952 0.246212 0.234916 0.561128 0.058833 -0.065979 0.438198 -0.341163 -0.120559 0.064479 0.306590 0.038914 0.322215 0.624872 -0.286754 0.236159 0.539730 0.062942 0.457292 -0.205168 -0.084114 0.011122 -0.132696 0.164846 0.090195 0.182452 0.260593 0.087526 0.467202 -0.078097 0.321245 0.646099 0.462271 -0.191893 -0.306232 0.206786 0.336097 0.289316 0.256538 0.264354 -0.332128
gossiped 0.336170 0.075454 0.046279 0.098643 0.243196 0.024293 -0.173174 -0.022380 0.033214 0.341813 0.493161 -0.078704 -0.273465 0.282543 0.020056 0.244112 0.324088 -0.026607 -0.064609 0.617822 0.137558 -0.122252 -0.115327 0.494508 -0.280774 -0.129832 -0.129435 -0.332347 0.409041 0.110709 -0.104587 0.420195 -0.098127 -0.153725 -0.064074 -0.153244 0.050619 0.684087 0.560486 0.143080 -0.296317 0.313580 0.087566 0.185091 0.362836 0.005994 0.318064 0.681726 0.443514 -0.166440
happily 0.477223 0.654223 0.167916 -0.308856 0.136175 0.361096 -0.342867 0.344026 0.463452 0.073128 0.330572 0.613891 0.463509 0.122478 0.114086 0.036974 -0.180272 -0.072407 -0.175292 0.315701 0.752807 0.121968 -0.203285 0.158644 -0.119483 0.452511 0.160507 -0.102562 -0.075878 -0.092460 0.313072 0.466868 0.308811 0.138996 -0.058945 0.370374 0.101247 0.433199 -0.038437 -0.024551 -0.119335 -0.091748 0.151635 0.206485 -0.059454 0.324105 -0.253820 0.508719 -0.261729 0.377464
wrestled 0.634392 0.058273 -0.202483 0.474551 0.204797 0.306335 0.054694 0.367709 0.030880 0.344475 0.395165 -0.287658 0.429286 0.070645 0.473534 0.432356 0.112620 -0.131045 0.072681 0.480040 -0.096189 0.263822 -0.363730 -0.169370 0.553993 0.464911 -0.330669 0.342686 -0.366308 0.208789 0.376138 0.471103 -0.255069 0.215676 0.253863 -0.069400 0.339143 0.239809 -0.234470 0.530583 0.292118 -0.244364 -0.227772 0.024026 -0.208790 -0.108696 0.086093 -0.079418 0.394341 0.360261
screaming 0.305575 -0.079465 -0.216554 0.502624 0.464132 -0.285356 0.406877 0.719365 0.449671 0.425792 0.640774 -0.199740 -0.317767 0.247147 -0.208752 -0.014916 0.337672 0.122240 0.091334 -0.011417 -0.161576 -0.259623 0.596786 -0.004288 -0.016181 0.149729 -0.090220 0.182649 0.347476 0.245443 -0.210351 0.317094 -0.265296 -0.046436 0.033632 -0.238769 0.524704 0.738721 -0.081595 -0.187214 0.298196 0.043062 -0.099869 0.004429 0.148983 -0.252728 0.088832 0.514448 0.187978 0.547000
into -0.286345 0.406967 0.629259 0.403196 -0.183986 -0.275842 -0.178352 0.484802 0.626510 0.419593 0.482174 0.148322 0.072590 -0.196047 -0.102866 0.496288 0.596168 -0.044591 -0.324699 -0.237704 0.027974 0.444388 -0.093743 0.387822 0.337549 0.447144 -0.055413 0.321035 0.243573 0.102189 0.584118 0.120320 0.147090 0.270254 0.510521 0.158962 0.376271 0.455603 -0.040084 0.222437 -0.007785 -0.241972 0.033429 -0.003395 0.021629 -0.226624 -0.063291 -0.227008 0.006288 -0.214775
high 0.089847 -0.219975 -0.357026 -0.038294 0.253827 -0.413196 -0.025986 0.581917 0.288069 0.594861 -0.258900 0.361416 0.481630 -0.199279 -0.361097 -0.163306 0.361023 0.408034 0.046734 0.438484 -0.112143 -0.017020 -0.148470 0.494409 0.094785 -0.177520 0.601967 0.082979 0.442609 0.034859 0.565000 -0.062521 0.565055 -0.148528 0.391934 0.224376 0.050099 0.512755 0.303616 0.338948 0.131428 0.519444 0.329122 0.411999 0.040479 -0.049979 0.118497 0.570788 0.190175 -0.336482
chair 0.513063 0.306823 0.540972 0.222614 0.431344 -0.307102 0.369863 0.412358 0.446199 0.614363 -0.231131 -0.084318 0.008473 -0.114660 -0.096841 0.212251 -0.016587 0.139481 0.073806 -0.051385 0.065490 0.504479 0.048041 -0.004966 0.377548 -0.342127 0.249158 -0.361409 0.006404 -0.120067 -0.072719 0.313756 0.228876 -0.192400 -0.178557 0.452147 0.554930 0.041453 0.508773 0.326012 -0.283857 0.552841 -0.200244 0.244302 -0.099248 0.391911 0.064513 -0.119134 0.339382 0.450435
None 0.614990 0.095480 0.131766 0.361935 0.293391 0.189727 0.001144 -0.188738 0.014417 0.563449 -0.153135 0.343544 0.107650 0.211820 0.683772 0.383460 -0.353312 0.338347 0.239388 -0.312000 0.036173 0.477163 -0.057863 0.176939 0.512090 -0.319329 -0.308018 0.555430 -0.257880 -0.147325 -0.250640 0.347518 0.613735 -0.059569 -0.183886 0.069435 -0.096535 0.545400 -0.343378 0.506196 0.175412 -0.120435 0.533697 -0.014522 0.146846 0.480425 0.625373 0.043765 0.550357 -0.266460
them -0.186479 0.221821 0.224246 0.492869 0.241939 0.252544 0.138883 0.060625 0.098653 0.358599 0.012867 0.414212 0.451698 -0.005325 0.368334 -0.302865 0.649313 -0.065103 0.511987 -0.337825 0.669098 -0.055851 -0.040464 0.549469 0.187257 -0.025490 0.165738 -0.180134 -0.207487 0.422559 0.035055 0.248982 0.167269 0.165124 0.316295 0.413653 0.550995 -0.218398 0.332931 0.393663 -0.037508 -0.024894 -0.295652 0.386195 0.244843 0.143570 0.431542 0.540295 -0.070838 0.315313
noticed 0.194743 -0.040952 0.558723 -0.099521 -0.280117 -0.073256 0.080714 0.278175 0.395188 0.452882 -0.091641 0.248158 0.235754 0.438803 0.023595 -0.345554 0.518629 0.205170 -0.096063 0.229097 0.342658 0.432416 0.277132 0.692079 0.155419 0.331086 0.134835 0.171211 0.395489 0.139684 0.323358 0.088891 0.258779 0.054623 -0.247154 0.115540 0.224476 0.085290 -0.347572 -0.044800 0.017935 -0.252506 0.135519 0.055405 -0.034655 -0.133649 0.516255 0.395107 -0.241269 -0.255547
tawny -0.188196 0.596592 -0.053054 0.648104 0.374834 0.278651 0.038749 0.015643 0.484411 -0.029498 0.025507 0.181929 0.319589 0.441597 -0.001395 0.528047 0.361536 -0.326368 -0.195132 0.202534 0.665119 0.412250 0.406175 0.562081 0.432636 0.546382 -0.194899 0.487248 -0.208580 -0.112625 0.429211 0.292714 0.516570 -0.084291 0.508595 0.126365 -0.177182 0.081193 -0.299325 0.215022 -0.037990 0.298487 -0.242603 -0.193403 0.604131 -0.026927 0.039558 -0.127159 0.444181 0.421363
owl -0.183804 0.645373 0.274968 0.395391 0.628142 0.319138 0.503638 -0.225491 0.083901 -0.021028 -0.290151 0.602173 0.533160 0.317308 0.294667 -0.152218 -0.176997 -0.360742 0.397155 -0.046578 0.449012 -0.224673 0.357197 0.185246 -0.041963 0.173019 0.437967 0.339349 -0.152742 0.522489 0.210437 0.575025 0.487469 0.210235 0.301869 0.219562 0.078442 0.649288 0.515270 -0.171978 -0.115349 -0.054957 0.161389 -0.081738 -0.281431 0.439983 -0.213462 0.381087 -0.262627 -0.133971
flutter 0.024350 0.174531 -0.105184 0.163226 -0.144122 0.417003 -0.136539 0.193006 0.313802 0.469287 0.040843 0.352977 0.463566 0.400810 0.502897 0.569121 0.079197 0.136868 0.398679 -0.048315 0.424376 0.581736 -0.005088 0.575609 0.464052 -0.202513 -0.042845 0.607759 -0.096732 0.442142 -0.069159 0.513641 0.518505 0.494107 0.107668 0.153108 -0.215687 0.280760 -0.312431 0.467357 -0.303044 0.027421 0.280536 0.324238 0.081823 0.452524 -0.115430 -0.124329 0.304281 0.359967
past 0.225236 -0.155376 -0.302009 0.670985 0.118471 -0.013366 0.033152 -0.059412 0.336781 -0.187228 -0.089551 0.397246 0.148755 -0.036395 -0.078176 -0.155954 -0.220003 -0.024130 0.567216 -0.077138 0.564440 0.104107 -0.055600 0.342873 0.258367 -0.183540 -0.052340 0.473094 0.615126 0.178015 0.327255 -0.162431 0.449028 0.589419 0.284630 -0.116483 0.489621 0.053180 -0.138871 0.180381 0.400918 0.689854 0.202482 -0.247880 0.392523 -0.047588 -0.230000 0.520187 -0.056533 0.046811
window 0.530882 -0.285739 0.061091 0.660798 0.560008 -0.011778 -0.393959 0.206905 0.639273 0.032555 -0.157963 0.296996 0.382243 0.232919 -0.036460 0.031391 0.376370 -0.272892 0.546781 0.289846 -0.160964 0.218126 0.225023 -0.197503 0.420304 0.475891 -0.248742 -0.204031 -0.070603 0.153056 -0.152014 0.295792 0.424640 0.679859 -0.148582 0.308328 0.485452 0.213463 0.403635 -0.342748 -0.300709 -0.059407 0.606092 0.042816 0.230123 0.189221 0.152150 0.375393 0.555634 0.278875
At 0.340775 0.460422 -0.114827 0.205451 0.315462 -0.184306 -0.253398 0.632001 -0.237695 0.634312 -0.261338 0.522976 0.435127 0.208782 0.032052 -0.264661 0.297668 0.170705 0.150526 -0.217343 -0.028793 0.506582 0.410057 -0.255338 0.242829 0.425004 0.490612 -0.171546 0.390726 0.089517 0.436080 -0.240657 -0.062993 0.245663 0.276327 0.359639 0.022233 0.052705 0.038657 0.162212 -0.303898 0.636014 0.247865 0.394132 -0.249330 -0.020083 -0.054725 0.496518 0.336084 0.064252
half 0.398627 -0.191131 -0.163993 0.598727 0.362131 0.148647 0.028165 0.099799 0.318331 0.523627 0.022009 0.555354 0.085284 0.382044 0.157272 -0.036358 -0.090464 -0.030890 -0.021045 0.097250 -0.251694 -0.001431 0.063805 0.019058 0.076179 0.610218 -0.104527 0.490325 0.510101 0.329294 0.549536 -0.070286 0.374877 0.431671 0.341451 0.491587 -0.338276 -0.219626 0.061089 -0.076284 0.221252 0.383671 0.375267 0.526288 0.507895 0.602401 0.094835 0.429002 -0.327609 0.207746
eight -0.125603 0.382625 0.016312 0.303898 -0.087768 0.434106 0.670231 0.569920 0.402739 0.333323 0.373378 -0.230888 0.446636 0.256813 0.291683 -0.000123 0.572522 -0.318656 -0.170869 -0.337354 -0.095696 0.118710 0.467339 0.695999 -0.141038 -0.302636 0.458809 0.382373 -0.032579 0.345675 0.356712 -0.269345 -0.001308 -0.078093 -0.335804 -0.129271 0.003574 0.646443 0.015312 0.162536 0.085651 -0.236631 0.582124 0.302575 0.569475 0.138550 0.649039 0.416516 0.517890 -0.291971
briefcase 0.394470 0.111224 0.276697 0.053762 -0.201859 0.554677 -0.191650 -0.150782 0.215736 -0.254323 -0.129672 0.142684 0.308577 0.576418 0.474674 0.560371 0.041193 0.490539 0.561649 0.157833 -0.084921 0.497407 0.196874 -0.118112 -0.379395 0.506250 -0.232723 0.416141 0.112440 0.599305 0.349241 0.500239 0.541861 0.179047 0.030819 0.007887 0.138768 0.315067 0.528891 0.440923 -0.186112 0.498860 -0.346356 0.022702 0.639660 0.062654 0.370529 0.220437 -0.094667 0.251004
pecked 0.112595 -0.325863 0.573631 -0.258057 0.264044 0.524054 -0.392681 0.566949 0.411148 -0.022955 0.584231 0.186828 0.471686 0.385426 -0.074498 0.553382 -0.369239 0.645382 0.147100 0.037129 0.238618 0.006063 0.437506 0.390362 0.269139 -0.116815 0.261669 0.555631 -0.137578 -0.089061 0.469517 0.673535 0.267948 0.650328 0.408752 -0.247689 0.014155 0.494248 -0.124933 -0.387301 0.100033 0.013732 0.171684 -0.055478 0.565835 -0.331523 0.172379 0.269142 0.447748 0.023689
cheek -0.190650 0.468257 -0.259733 -0.140420 -0.195847 0.447770 0.128840 0.707678 -0.267102 -0.246151 0.058262 0.182800 0.411750 0.328542 0.638618 -0.116777 0.116335 0.210357 0.546392 0.704564 0.672285 -0.218705 0.077849 0.601518 0.072776 0.230686 -0.093178 -0.148009 0.369577 0.438054 0.048120 -0.329656 -0.063774 0.653655 0.042270 0.579027 -0.183183 0.644588 0.544291 -0.311244 0.203421 -0.122192 0.149991 0.604662 0.372760 0.256067 0.241965 0.308196 0.322904 0.543559
tried -0.251635 0.089572 0.328882 0.433258 -0.025675 0.078217 0.360697 0.630877 0.586033 0.510777 0.133994 0.195395 0.046750 0.325581 0.213861 -0.045302 0.123243 0.189489 0.262554 -0.381848 0.144035 -0.324645 0.312758 0.215549 0.466998 -0.037802 0.444163 0.515597 0.469104 0.343508 0.236971 0.553266 0.079053 0.450705 0.615939 0.493674 -0.155499 -0.163718 0.493171 0.540558 -0.036048 0.282625 0.167414 0.069629 -0.040461 -0.082476 -0.066762 0.411260 0.588580 0.228244
kiss 0.670491 0.295275 0.469155 0.255195 0.183738 -0.295577 -0.144016 -0.170615 -0.176199 -0.161588 -0.107527 0.087104 0.602799 0.339854 0.006527 0.248720 0.080602 0.159426 0.252675 -0.213180 0.190979 0.544145 -0.171915 0.577210 0.296120 0.389644 0.238917 0.018269 0.108395 -0.197006 -0.042867 -0.267583 0.293790 -0.191967 0.574039 0.466870 0.257660 -0.186675 0.306430 -0.064285 0.263133 0.280188 0.155163 0.449575 -0.359217 0.280947 0.124879 0.380039 0.417728 -0.160500
goodbye -0.198609 0.383509 -0.289909 0.077007 -0.212516 0.286525 -0.039773 0.287511 0.142816 0.751202 0.137150 0.103301 0.188755 0.115737 0.146639 0.598573 -0.154644 0.606820 0.568121 0.511942 0.314815 -0.272549 0.124429 0.149255 0.030475 0.561970 0.475293 0.282198 0.616548 -0.110932 0.196345 0.593332 0.608835 -0.036946 0.461591 0.148338 0.413275 -0.167893 0.126606 -0.083180 0.622687 -0.354630 -0.127644 -0.010849 0.131134 -0.273492 0.378563 0.245122 0.108384 0.099292
missed 0.164102 -0.016527 0.212927 0.278690 0.181579 0.289377 0.296794 0.127550 -0.000610 0.335472 0.324350 0.309369 0.534320 -0.093994 0.644668 0.179332 -0.067745 0.027614 -0.285227 -0.147213 0.213121 -0.337880 0.198429 0.115083 -0.100650 0.324266 0.103698 -0.019658 0.092442 0.399631 -0.291635 -0.060653 0.126109 0.518588 -0.157296 0.668141 -0.223219 -0.082962 -0.213148 0.349323 0.574994 0.166349 0.484511 -0.094537 0.221029 0.464673 0.611379 0.198393 0.003584 -0.278200
now 0.053381 -0.162381 -0.033739 -0.181388 0.163860 -0.315965 0.369408 0.228075 0.489631 -0.211172 0.023458 -0.004290 0.469671 0.351810 -0.100603 0.281947 0.245212 -0.055451 0.389327 0.206576 0.143485 0.232185 -0.375636 -0.043513 -0.136089 0.636833 0.279181 0.258134 0.415060 0.155443 0.061495 0.246780 0.154187 -0.138551 -0.264026 0.139270 0.508862 0.060827 -0.156635 0.555050 -0.017927 0.275887 0.066957 0.219684 -0.118151 0.388772 0.033338 0.225547 0.355923 0.045509
